{"learner":{"attributes":{"scikit_learn":"{\"_estimator_type\": \"regressor\"}"},"feature_names":["temperature_2m_mean","precipitation_sum","wind_speed_10m_max","wind_direction_10m_dominant"],"feature_types":["float","float","float","float"],"gradient_booster":{"model":{"gbtree_model_param":{"num_parallel_tree":"1","num_trees":"100"},"iteration_indptr":[0,1,2,3,4,5,6,7,8,9,10,11,12,13,14,15,16,17,18,19,20,21,22,23,24,25,26,27,28,29,30,31,32,33,34,35,36,37,38,39,40,41,42,43,44,45,46,47,48,49,50,51,52,53,54,55,56,57,58,59,60,61,62,63,64,65,66,67,68,69,70,71,72,73,74,75,76,77,78,79,80,81,82,83,84,85,86,87,88,89,90,91,92,93,94,95,96,97,98,99,100],"tree_info":[0,0,0,0,0,0,0,0,0,0,0,0,0,0,0,0,0,0,0,0,0,0,0,0,0,0,0,0,0,0,0,0,0,0,0,0,0,0,0,0,0,0,0,0,0,0,0,0,0,0,0,0,0,0,0,0,0,0,0,0,0,0,0,0,0,0,0,0,0,0,0,0,0,0,0,0,0,0,0,0,0,0,0,0,0,0,0,0,0,0,0,0,0,0,0,0,0,0,0,0],"trees":[{"base_weights":[-3.5442988E-6,3.0595068E1,-1.340333E1,3.5792347E1,1.086801E1,-4.2203012E-1,-1.9053883E1,4.479023E1,2.7675959E1,1.6230648E1,-7.807201E0,8.642778E0,-2.0985695E1,-1.7345688E1,-3.2664467E1,-3.3595653E0,4.7755314E1,2.9665293E1,-2.0050575E1,-8.886719E0,2.288978E1,-1.8136719E1,1.8992496E1,2.1330128E1,1.8341298E-1,-1.2677482E1,-2.8944147E1,-1.3535151E1,-2.2611917E1,-2.8967165E1,-4.9802685E1,1.3666118E1,-1.990531E1,5.0726982E1,2.194636E1,3.32864E1,1.251428E1,-7.2772512E0,-2.1485748E0,-1.5427683E1,1.3821711E1,4.3013283E1,1.5012746E1,-2.047429E1,3.9415708E0,-9.044573E0,4.0397614E1,3.6401234E1,1.5336921E1,5.389858E0,-8.844148E0,-2.8759632E0,-3.213672E1,-3.8251644E1,-2.0701601E1,-4.242837E0,-1.653168E1,-2.6224089E1,-1.4697175E1,-2.37104E1,-3.9579674E1,-5.933487E0,-1.7448788E1,6.4373565E0,7.37356E-1,-1.5445725E0,-7.4334874E0,1.6331938E1,7.529677E0,3.1951892E0,1.7466515E1,1.1168189E1,5.5323334E0,1.8899183E0,9.344828E0,-8.584294E-1,-1.0842934E-1,9.6235603E-1,-5.992485E0,7.555428E0,-6.445725E-1,-2.7445726E0,1.4795189E1,3.6263428E0,1.0919285E1,4.3735602E-1,-7.403305E0,3.9554276E0,1.52123575E1,1.9692845E0,1.2631816E1,-7.335141E-1,5.967536E0,-1.1525016E0,3.0384583E0,5.5574017E0,-4.406522E0,1.7800621E0,-5.562402E0,-1.102175E1,-1.3626441E0,-1.2323903E1,5.2915707E0,-1.2893488E1,-4.8896303E0,-4.56334E0,-6.083498E-1,-3.2007241E0,-5.9145613E0,-8.212173E0,4.048272E-1,6.2873564E0,-4.7817435E0,1.3554275E0,-7.439772E0,-1.4046331E1,-9.008512E0],"categories":[],"categories_nodes":[],"categories_segments":[],"categories_sizes":[],"default_left":[0,0,0,0,0,0,0,0,0,0,0,0,0,0,0,0,0,0,0,0,0,0,0,0,0,0,0,0,0,0,0,0,0,0,0,0,0,0,0,0,0,0,0,0,0,0,0,0,0,0,0,0,0,0,0,0,0,0,0,0,0,0,0,0,0,0,0,0,0,0,0,0,0,0,0,0,0,0,0,0,0,0,0,0,0,0,0,0,0,0,0,0,0,0,0,0,0,0,0,0,0,0,0,0,0,0,0,0,0,0,0,0,0,0,0,0,0],"id":0,"left_children":[1,3,5,7,9,11,13,15,17,19,21,23,25,27,29,31,33,35,37,39,41,43,45,47,49,51,53,55,57,59,61,63,65,67,69,71,73,-1,75,77,79,81,83,85,-1,-1,87,89,91,93,95,97,99,101,103,105,107,109,111,113,115,-1,-1,-1,-1,-1,-1,-1,-1,-1,-1,-1,-1,-1,-1,-1,-1,-1,-1,-1,-1,-1,-1,-1,-1,-1,-1,-1,-1,-1,-1,-1,-1,-1,-1,-1,-1,-1,-1,-1,-1,-1,-1,-1,-1,-1,-1,-1,-1,-1,-1,-1,-1,-1,-1,-1,-1],"loss_changes":[7.5248894E5,5.6923688E4,9.3588484E4,3.103975E4,1.1944225E4,7.250678E4,2.010225E4,2.985625E4,2.2906625E4,1.5591324E4,7.818816E3,2.8974355E4,7.5013984E3,1.5587141E4,4.7671406E3,3.9341624E3,1.39190625E4,1.3619344E4,7.010054E2,3.1839375E3,1.0925738E4,1.731168E3,9.632895E3,9.196734E3,7.7089126E3,1.1351381E4,3.8111758E3,1.2794102E4,9.077656E3,3.691914E3,2.8656758E3,5.5858264E2,3.75792E2,1.52851875E4,8.394545E3,1.0195172E4,4.5519395E3,0E0,2.7877197E0,1.4199285E3,9.6146704E2,7.0277656E3,2.9377012E3,1.7875742E3,0E0,0E0,1.01485547E3,4.830035E3,6.447199E3,4.588086E3,9.869123E3,5.768187E3,2.3731738E3,4.9921914E3,2.634246E3,2.7387646E3,6.303297E3,7.2021875E3,5.027992E3,1.89475E3,3.9233203E2,0E0,0E0,0E0,0E0,0E0,0E0,0E0,0E0,0E0,0E0,0E0,0E0,0E0,0E0,0E0,0E0,0E0,0E0,0E0,0E0,0E0,0E0,0E0,0E0,0E0,0E0,0E0,0E0,0E0,0E0,0E0,0E0,0E0,0E0,0E0,0E0,0E0,0E0,0E0,0E0,0E0,0E0,0E0,0E0,0E0,0E0,0E0,0E0,0E0,0E0,0E0,0E0,0E0,0E0,0E0,0E0],"parents":[2147483647,0,0,1,1,2,2,3,3,4,4,5,5,6,6,7,7,8,8,9,9,10,10,11,11,12,12,13,13,14,14,15,15,16,16,17,17,18,18,19,19,20,20,21,21,22,22,23,23,24,24,25,25,26,26,27,27,28,28,29,29,30,30,31,31,32,32,33,33,34,34,35,35,36,36,38,38,39,39,40,40,41,41,42,42,43,43,46,46,47,47,48,48,49,49,50,50,51,51,52,52,53,53,54,54,55,55,56,56,57,57,58,58,59,59,60,60],"right_children":[2,4,6,8,10,12,14,16,18,20,22,24,26,28,30,32,34,36,38,40,42,44,46,48,50,52,54,56,58,60,62,64,66,68,70,72,74,-1,76,78,80,82,84,86,-1,-1,88,90,92,94,96,98,100,102,104,106,108,110,112,114,116,-1,-1,-1,-1,-1,-1,-1,-1,-1,-1,-1,-1,-1,-1,-1,-1,-1,-1,-1,-1,-1,-1,-1,-1,-1,-1,-1,-1,-1,-1,-1,-1,-1,-1,-1,-1,-1,-1,-1,-1,-1,-1,-1,-1,-1,-1,-1,-1,-1,-1,-1,-1,-1,-1,-1,-1],"split_conditions":[1.2951001E1,1.1000001E0,1.8632248E1,4.239735E1,1.0605166E1,1.8000003E0,1.3600001E1,3.7405832E0,1.7339897E1,4.990583E0,1.2267667E1,1E-1,3.5094513E1,1.4351163E2,5.15E1,2.3673822E1,1.1830169E1,1.1109334E1,2.2320497E2,3.5690147E1,1.1269782E1,7.5E0,9.693296E0,2.8292751E1,1.6546833E1,1.6782251E1,4.1000004E0,3E-1,2.888531E2,4.0674763E1,1.6299694E1,2.7155821E0,2.5948343E1,1.624394E1,1.678156E1,1.1659777E1,2.888531E2,-7.2772512E0,9.842668E0,1.4761477E1,1.36436E2,3.2518578E0,1.8089775E1,8.534353E0,3.9415708E0,-9.044573E0,1.5E0,9.168591E0,1.4344752E1,4E-1,8.14587E0,4.7999997E0,2.7805813E1,1.781975E1,3.696638E1,8.287822E0,2.2728083E1,2.9138498E1,1.9282251E1,1.9948917E1,2.5523916E1,-5.933487E0,-1.7448788E1,6.4373565E0,7.37356E-1,-1.5445725E0,-7.4334874E0,1.6331938E1,7.529677E0,3.1951892E0,1.7466515E1,1.1168189E1,5.5323334E0,1.8899183E0,9.344828E0,-8.584294E-1,-1.0842934E-1,9.6235603E-1,-5.992485E0,7.555428E0,-6.445725E-1,-2.7445726E0,1.4795189E1,3.6263428E0,1.0919285E1,4.3735602E-1,-7.403305E0,3.9554276E0,1.52123575E1,1.9692845E0,1.2631816E1,-7.335141E-1,5.967536E0,-1.1525016E0,3.0384583E0,5.5574017E0,-4.406522E0,1.7800621E0,-5.562402E0,-1.102175E1,-1.3626441E0,-1.2323903E1,5.2915707E0,-1.2893488E1,-4.8896303E0,-4.56334E0,-6.083498E-1,-3.2007241E0,-5.9145613E0,-8.212173E0,4.048272E-1,6.2873564E0,-4.7817435E0,1.3554275E0,-7.439772E0,-1.4046331E1,-9.008512E0],"split_indices":[0,1,0,3,0,1,1,0,2,0,0,1,3,3,1,3,0,0,3,3,2,1,2,3,0,0,1,1,3,3,2,0,3,2,2,2,3,0,0,3,3,3,2,2,0,0,1,3,0,1,2,1,3,0,3,2,0,0,0,0,0,0,0,0,0,0,0,0,0,0,0,0,0,0,0,0,0,0,0,0,0,0,0,0,0,0,0,0,0,0,0,0,0,0,0,0,0,0,0,0,0,0,0,0,0,0,0,0,0,0,0,0,0,0,0,0,0],"split_type":[0,0,0,0,0,0,0,0,0,0,0,0,0,0,0,0,0,0,0,0,0,0,0,0,0,0,0,0,0,0,0,0,0,0,0,0,0,0,0,0,0,0,0,0,0,0,0,0,0,0,0,0,0,0,0,0,0,0,0,0,0,0,0,0,0,0,0,0,0,0,0,0,0,0,0,0,0,0,0,0,0,0,0,0,0,0,0,0,0,0,0,0,0,0,0,0,0,0,0,0,0,0,0,0,0,0,0,0,0,0,0,0,0,0,0,0,0],"sum_hessian":[1.833E3,5.58E2,1.275E3,4.41E2,1.17E2,3.87E2,8.88E2,2.07E2,2.34E2,9.1E1,2.6E1,2.69E2,1.18E2,7.91E2,9.7E1,1.2E1,1.95E2,2.25E2,9E0,1.9E1,7.2E1,1.9E1,7E0,1.07E2,1.62E2,5.9E1,5.9E1,4.61E2,3.3E2,8.2E1,1.5E1,6E0,6E0,1.74E2,2.1E1,1.85E2,4E1,7E0,2E0,1.5E1,4E0,1.9E1,5.3E1,1.8E1,1E0,2E0,5E0,2.9E1,7.8E1,1.03E2,5.9E1,4E1,1.9E1,2.6E1,3.3E1,1.13E2,3.48E2,2.25E2,1.05E2,5.7E1,2.5E1,4E0,1.1E1,3E0,3E0,2E0,4E0,1.51E2,2.3E1,1.7E1,4E0,1.45E2,4E1,3.1E1,9E0,1E0,1E0,3E0,1.2E1,2E0,2E0,2E0,1.7E1,4.8E1,5E0,3E0,1.5E1,2E0,3E0,5E0,2.4E1,1.6E1,6.2E1,3.5E1,6.8E1,1E1,4.9E1,2.6E1,1.4E1,1.6E1,3E0,2.5E1,1E0,4E0,2.9E1,1.8E1,9.5E1,1.24E2,2.24E2,2.16E2,9E0,3E0,1.02E2,2E0,5.5E1,1.2E1,1.3E1],"tree_param":{"num_deleted":"0","num_feature":"4","num_nodes":"117","size_leaf_vector":"1"}},{"base_weights":[3.6866823E-3,2.055108E1,-1.0028378E1,2.4658272E1,5.8824244E0,-1.2598481E0,-1.3419957E1,2.99543E1,1.8856998E1,1.1628076E1,-7.293869E0,6.184943E0,-1.3929416E1,-1.2167977E1,-2.3401058E1,7.5699916E0,3.293837E1,2.152401E1,-1.3305745E1,7.0220904E0,3.511106E1,3.4663541E0,-2.4323364E1,1.3373765E1,9.2859226E-1,-8.261759E0,-2.1793804E1,-9.509866E0,-1.589924E1,-2.0628088E1,-3.6323273E1,2.0585127E1,-1.678207E1,3.6339893E1,1.6656109E1,2.7110428E1,1.4204427E1,8.361721E0,-1.7367542E1,7.4582136E-1,2.2271015E1,4.735978E1,1.434684E1,-1.2788992E0,1.208188E1,-1.4943688E1,-1.1239664E1,-3.1991125E1,1.6348658E1,-5.212052E0,5.6917515E0,-3.263494E0,-2.3084791E1,-3.112106E1,-1.5666187E1,-5.8058333E0,-1.3469088E1,-1.8325975E1,-9.754444E0,-1.709877E1,-3.0233751E1,-1.50315E1,-1.2650372E1,1.0168359E1,2.6662943E0,5.661492E-1,-6.342142E0,1.5328381E1,1.0272663E1,-7.6679378E0,5.8886566E0,-5.8782105E0,8.425378E0,2.5623608E0,8.540885E0,3.1299195E0,-6.530948E0,2.2997723E0,-5.2398057E0,7.8275967E0,-3.5698411E0,1.792893E1,5.074458E0,8.963898E-1,5.487839E0,8.044083E0,-1.5154692E0,-5.6014843E0,3.3503346E0,-1.2222604E1,-2.8978698E0,7.254684E0,2.4430423E0,-4.6194798E-1,-1.0667189E1,3.476362E0,-1.756941E0,-2.1619904E0,3.2820587E0,7.235802E0,-8.114162E0,-1.0285966E1,-2.9662366E0,6.4982553E0,-5.602809E0,-2.3463225E0,2.2990785E0,-5.109223E0,9.1893435E-2,-5.8039193E0,6.4921325E-1,2.9254064E-1,-5.077382E0,-6.6027865E0,-3.5903156E0,-9.302917E0,-2.2071524E0,-2.0578752E0,-5.4578753E0],"categories":[],"categories_nodes":[],"categories_segments":[],"categories_sizes":[],"default_left":[0,0,0,0,0,0,0,0,0,0,0,0,0,0,0,0,0,0,0,0,0,0,0,0,0,0,0,0,0,0,0,0,0,0,0,0,0,0,0,0,0,0,0,0,0,0,0,0,0,0,0,0,0,0,0,0,0,0,0,0,0,0,0,0,0,0,0,0,0,0,0,0,0,0,0,0,0,0,0,0,0,0,0,0,0,0,0,0,0,0,0,0,0,0,0,0,0,0,0,0,0,0,0,0,0,0,0,0,0,0,0,0,0,0,0,0,0,0,0],"id":1,"left_children":[1,3,5,7,9,11,13,15,17,19,21,23,25,27,29,31,33,35,37,39,41,43,45,47,49,51,53,55,57,59,61,63,65,67,69,71,73,-1,75,77,79,81,83,85,-1,87,-1,89,91,93,95,97,99,101,103,105,107,109,111,113,115,117,-1,-1,-1,-1,-1,-1,-1,-1,-1,-1,-1,-1,-1,-1,-1,-1,-1,-1,-1,-1,-1,-1,-1,-1,-1,-1,-1,-1,-1,-1,-1,-1,-1,-1,-1,-1,-1,-1,-1,-1,-1,-1,-1,-1,-1,-1,-1,-1,-1,-1,-1,-1,-1,-1,-1,-1,-1],"loss_changes":[3.782536E5,3.6123656E4,3.6651484E4,1.3875281E4,1.0153764E4,3.2627344E4,1.08243125E4,1.6048953E4,1.9758094E4,9.81254E3,7.597202E3,8.225142E3,5.525244E3,7.7039453E3,2.7623438E3,9.853821E3,1.1302391E4,8.201859E3,3.4947063E3,7.5441904E3,3.1355625E3,4.5925747E3,1.4124365E3,1.2938928E4,3.7442717E3,5.5554604E3,2.5416055E3,6.7410703E3,4.7123125E3,2.2968594E3,1.3572363E3,2.8124863E3,9.3494385E2,3.7286875E3,5.3960986E3,5.9190312E3,7.2700234E3,0E0,2.3076914E3,7.3174604E3,3.3134648E3,2.3876777E3,2.5909326E2,2.6790576E3,0E0,1.2792783E3,0E0,7.789756E2,5.3951113E3,6.185583E3,4.9703228E3,3.3272563E3,4.206166E3,1.00528906E3,4.2243857E3,6.62882E3,1.0995379E4,4.934453E3,7.325121E3,1.3239531E3,1.4463867E2,4.378418E0,0E0,0E0,0E0,0E0,0E0,0E0,0E0,0E0,0E0,0E0,0E0,0E0,0E0,0E0,0E0,0E0,0E0,0E0,0E0,0E0,0E0,0E0,0E0,0E0,0E0,0E0,0E0,0E0,0E0,0E0,0E0,0E0,0E0,0E0,0E0,0E0,0E0,0E0,0E0,0E0,0E0,0E0,0E0,0E0,0E0,0E0,0E0,0E0,0E0,0E0,0E0,0E0,0E0,0E0,0E0,0E0,0E0],"parents":[2147483647,0,0,1,1,2,2,3,3,4,4,5,5,6,6,7,7,8,8,9,9,10,10,11,11,12,12,13,13,14,14,15,15,16,16,17,17,18,18,19,19,20,20,21,21,22,22,23,23,24,24,25,25,26,26,27,27,28,28,29,29,30,30,31,31,32,32,33,33,34,34,35,35,36,36,38,38,39,39,40,40,41,41,42,42,43,43,45,45,47,47,48,48,49,49,50,50,51,51,52,52,53,53,54,54,55,55,56,56,57,57,58,58,59,59,60,60,61,61],"right_children":[2,4,6,8,10,12,14,16,18,20,22,24,26,28,30,32,34,36,38,40,42,44,46,48,50,52,54,56,58,60,62,64,66,68,70,72,74,-1,76,78,80,82,84,86,-1,88,-1,90,92,94,96,98,100,102,104,106,108,110,112,114,116,118,-1,-1,-1,-1,-1,-1,-1,-1,-1,-1,-1,-1,-1,-1,-1,-1,-1,-1,-1,-1,-1,-1,-1,-1,-1,-1,-1,-1,-1,-1,-1,-1,-1,-1,-1,-1,-1,-1,-1,-1,-1,-1,-1,-1,-1,-1,-1,-1,-1,-1,-1,-1,-1,-1,-1,-1,-1],"split_conditions":[1.3667666E1,1.1000001E0,1.8632248E1,4.7295578E1,1.0721833E1,1.3000002E0,1.3600001E1,4.990583E0,1.4458382E1,9.144751E0,3E0,1E-1,1.67135E1,1.4681413E2,5.15E1,1.51884165E1,1.1830169E1,9.693296E0,4.0134993E0,3.5690147E1,2.8292751E1,2.0240198E1,1.4336861E1,1.4344752E1,4E-1,1.6922482E2,1.745725E1,1.6000001E0,3.0043173E2,5.8075638E1,1.6299694E1,1.7309902E1,2.7155821E0,8.435069E0,5.9467497E0,5.2523705E1,2.888531E2,8.361721E0,4.8102497E1,3.0068544E1,7.994749E0,1.3004921E1,9.421834E0,7.6367526E0,1.208188E1,7.5E0,-1.1239664E1,1.1159999E1,5.6807053E1,1.6375053E1,1.6546833E1,1.6353085E1,1.6E0,1.9107151E1,1.4761477E1,1.2E0,1.7673029E1,2.9138498E1,2.4559334E1,2.3037603E1,3.5792773E2,1.8931799E1,-1.2650372E1,1.0168359E1,2.6662943E0,5.661492E-1,-6.342142E0,1.5328381E1,1.0272663E1,-7.6679378E0,5.8886566E0,-5.8782105E0,8.425378E0,2.5623608E0,8.540885E0,3.1299195E0,-6.530948E0,2.2997723E0,-5.2398057E0,7.8275967E0,-3.5698411E0,1.792893E1,5.074458E0,8.963898E-1,5.487839E0,8.044083E0,-1.5154692E0,-5.6014843E0,3.3503346E0,-1.2222604E1,-2.8978698E0,7.254684E0,2.4430423E0,-4.6194798E-1,-1.0667189E1,3.476362E0,-1.756941E0,-2.1619904E0,3.2820587E0,7.235802E0,-8.114162E0,-1.0285966E1,-2.9662366E0,6.4982553E0,-5.602809E0,-2.3463225E0,2.2990785E0,-5.109223E0,9.1893435E-2,-5.8039193E0,6.4921325E-1,2.9254064E-1,-5.077382E0,-6.6027865E0,-3.5903156E0,-9.302917E0,-2.2071524E0,-2.0578752E0,-5.4578753E0],"split_indices":[0,1,0,3,0,1,1,0,2,0,1,1,0,3,1,2,0,2,0,3,3,2,2,0,1,3,0,1,3,3,2,3,0,2,3,3,3,0,3,3,0,2,0,2,0,1,0,2,3,2,0,0,1,2,3,1,2,0,0,3,3,3,0,0,0,0,0,0,0,0,0,0,0,0,0,0,0,0,0,0,0,0,0,0,0,0,0,0,0,0,0,0,0,0,0,0,0,0,0,0,0,0,0,0,0,0,0,0,0,0,0,0,0,0,0,0,0,0,0],"split_type":[0,0,0,0,0,0,0,0,0,0,0,0,0,0,0,0,0,0,0,0,0,0,0,0,0,0,0,0,0,0,0,0,0,0,0,0,0,0,0,0,0,0,0,0,0,0,0,0,0,0,0,0,0,0,0,0,0,0,0,0,0,0,0,0,0,0,0,0,0,0,0,0,0,0,0,0,0,0,0,0,0,0,0,0,0,0,0,0,0,0,0,0,0,0,0,0,0,0,0,0,0,0,0,0,0,0,0,0,0,0,0,0,0,0,0,0,0,0,0],"sum_hessian":[1.833E3,6.01E2,1.232E3,4.69E2,1.32E2,3.44E2,8.88E2,2.43E2,2.26E2,9.2E1,4E1,2.17E2,1.27E2,7.91E2,9.7E1,2.9E1,2.14E2,2.09E2,1.7E1,7.8E1,1.4E1,2.5E1,1.5E1,9.1E1,1.26E2,7.5E1,5.2E1,4.64E2,3.27E2,8.2E1,1.5E1,1.9E1,1E1,1.76E2,3.8E1,1.17E2,9.2E1,1E0,1.6E1,5.6E1,2.2E1,8E0,6E0,2.3E1,2E0,1E1,5E0,5E0,8.6E1,5.5E1,7.1E1,5.7E1,1.8E1,1.9E1,3.3E1,2.41E2,2.23E2,2.33E2,9.4E1,6.2E1,2E1,4E0,1.1E1,8E0,1.1E1,2E0,8E0,1.9E1,1.57E2,2E0,3.6E1,2E0,1.15E2,6.7E1,2.5E1,2E0,1.4E1,4.1E1,1.5E1,2E1,2E0,5E0,3E0,2E0,4E0,2E0,2.1E1,9E0,1E0,3E0,2E0,4.3E1,4.3E1,5E1,5E0,4.7E1,2.4E1,4.5E1,1.2E1,1E0,1.7E1,1.6E1,3E0,2E0,3.1E1,2.1E2,3.1E1,1.77E2,4.6E1,2.22E2,1.1E1,3.8E1,5.6E1,3E1,3.2E1,1.9E1,1E0,2E0,2E0],"tree_param":{"num_deleted":"0","num_feature":"4","num_nodes":"119","size_leaf_vector":"1"}},{"base_weights":[3.395118E-3,1.4527477E1,-7.0878463E0,2.045529E1,8.610409E0,-9.600034E-1,-9.457945E0,2.1573095E1,-2.2211936E0,1.2273177E1,-3.0979447E0,3.6639261E0,-1.1140885E1,-7.9298434E0,-1.4716541E1,-8.731346E-1,2.2818727E1,-5.945705E0,7.488295E0,-9.4086623E-1,1.7126501E1,1.7313305E0,-1.9107988E1,2.3997946E0,2.2297361E1,-6.2852607E0,-1.5537442E1,-5.1254745E0,-1.1483019E1,-1.7205776E1,7.2020135E0,-1.6555725E1,1.6878922E1,2.7228754E1,1.6599659E1,1.3983195E1,-1.0432454E1,-2.8964536E0,3.9136364E1,1.9030256E1,1.0952618E0,-2.3677807E1,4.0957522E0,-3.5787418E0,-2.528028E1,1.4127752E0,1.9719408E1,2.629814E1,-5.0570297E0,-1.1848299E1,3.196446E1,-2.051298E1,-5.555825E0,-6.146583E0,4.727384E0,-1.0734651E1,-2.7409218E1,-7.434081E0,-1.8968513E1,1.983422E1,-3.9249928E0,-1.8709566E-1,-6.305596E0,7.106891E0,-4.6194124E0,9.433496E0,5.846978E0,3.4657078E0,8.7990265E0,5.171219E0,1.1212189E0,-1.2078782E1,-1.2181159E0,3.491111E0,-1.8979686E0,1.4152654E1,3.4587114E0,7.085254E0,3.1781986E0,-4.7908683E0,3.0599287E0,-8.375323E0,-1.0077107E0,9.375256E0,5.5242884E-1,-8.564673E0,4.8130713E0,-5.579105E0,-1.173932E1,1.3274943E0,-2.1962771E0,8.624196E0,1.7700837E0,-4.9227486E0,9.253669E0,4.888677E-1,-6.8390813E0,3.0399864E0,1.3741357E1,-6.502177E0,3.1921396E0,-9.145663E0,7.7458525E-1,-2.6181704E-1,-2.6205366E0,1.33131895E1,-4.2702973E-1,-3.3822365E0,1.681752E0,-9.697974E0,-7.2746284E-2,3.4800408E0,-4.57128E0,-2.4387698E0,-6.3163943E0,7.189323E0,6.6269225E-1,5.6437187E0,-3.1061132E0],"categories":[],"categories_nodes":[],"categories_segments":[],"categories_sizes":[],"default_left":[0,0,0,0,0,0,0,0,0,0,0,0,0,0,0,0,0,0,0,0,0,0,0,0,0,0,0,0,0,0,0,0,0,0,0,0,0,0,0,0,0,0,0,0,0,0,0,0,0,0,0,0,0,0,0,0,0,0,0,0,0,0,0,0,0,0,0,0,0,0,0,0,0,0,0,0,0,0,0,0,0,0,0,0,0,0,0,0,0,0,0,0,0,0,0,0,0,0,0,0,0,0,0,0,0,0,0,0,0,0,0,0,0,0,0,0,0,0,0],"id":2,"left_children":[1,3,5,7,9,11,13,15,17,19,21,23,25,27,29,31,33,35,-1,37,39,41,43,45,47,49,51,53,55,57,59,61,63,65,67,69,71,73,75,77,79,81,83,85,87,89,91,93,-1,95,97,99,101,103,105,107,109,111,113,115,117,-1,-1,-1,-1,-1,-1,-1,-1,-1,-1,-1,-1,-1,-1,-1,-1,-1,-1,-1,-1,-1,-1,-1,-1,-1,-1,-1,-1,-1,-1,-1,-1,-1,-1,-1,-1,-1,-1,-1,-1,-1,-1,-1,-1,-1,-1,-1,-1,-1,-1,-1,-1,-1,-1,-1,-1,-1,-1],"loss_changes":[1.8899355E5,2.0939203E4,1.7898512E4,7.652258E3,1.3032174E4,1.6281929E4,7.027008E3,8.016422E3,1.6670155E3,1.4830609E4,5.6772163E3,5.5526084E3,2.2079297E3,6.8265547E3,1.0981445E4,4.7338145E3,6.9805312E3,1.3977029E3,0E0,5.0509517E3,5.136965E3,3.52142E3,1.5389956E3,3.8013752E3,2.7930059E3,1.1656311E4,2.667213E3,3.932663E3,3.329043E3,2.942254E3,3.0295806E3,6.268247E2,2.1234075E3,4.5098516E3,7.050414E3,3.5602722E1,2.117475E3,3.1145608E3,1.2192969E2,5.5933906E3,3.1148525E3,3.369746E2,3.186921E3,3.397861E3,3.831006E2,5.6359346E3,1.327477E3,3.2250615E3,0E0,6.972665E3,1.6508633E3,1.5688125E3,4.136161E3,4.7977363E3,9.086703E3,2.637246E3,1.7288145E3,4.4842393E3,3.2432773E3,6.7501953E2,1.9488451E3,0E0,0E0,0E0,0E0,0E0,0E0,0E0,0E0,0E0,0E0,0E0,0E0,0E0,0E0,0E0,0E0,0E0,0E0,0E0,0E0,0E0,0E0,0E0,0E0,0E0,0E0,0E0,0E0,0E0,0E0,0E0,0E0,0E0,0E0,0E0,0E0,0E0,0E0,0E0,0E0,0E0,0E0,0E0,0E0,0E0,0E0,0E0,0E0,0E0,0E0,0E0,0E0,0E0,0E0,0E0,0E0,0E0,0E0],"parents":[2147483647,0,0,1,1,2,2,3,3,4,4,5,5,6,6,7,7,8,8,9,9,10,10,11,11,12,12,13,13,14,14,15,15,16,16,17,17,19,19,20,20,21,21,22,22,23,23,24,24,25,25,26,26,27,27,28,28,29,29,30,30,31,31,32,32,33,33,34,34,35,35,36,36,37,37,38,38,39,39,40,40,41,41,42,42,43,43,44,44,45,45,46,46,47,47,49,49,50,50,51,51,52,52,53,53,54,54,55,55,56,56,57,57,58,58,59,59,60,60],"right_children":[2,4,6,8,10,12,14,16,18,20,22,24,26,28,30,32,34,36,-1,38,40,42,44,46,48,50,52,54,56,58,60,62,64,66,68,70,72,74,76,78,80,82,84,86,88,90,92,94,-1,96,98,100,102,104,106,108,110,112,114,116,118,-1,-1,-1,-1,-1,-1,-1,-1,-1,-1,-1,-1,-1,-1,-1,-1,-1,-1,-1,-1,-1,-1,-1,-1,-1,-1,-1,-1,-1,-1,-1,-1,-1,-1,-1,-1,-1,-1,-1,-1,-1,-1,-1,-1,-1,-1,-1,-1,-1,-1,-1,-1,-1,-1,-1,-1,-1,-1],"split_conditions":[1.3667666E1,2E-1,1.8632248E1,1.7339897E1,1.1203083E1,1.8000003E0,6.899999E0,3.5051663E0,1.0851002E1,5.7885E0,2.1654807E2,1.8269753E1,3.5094513E1,1.4681413E2,2.729892E1,7.723446E1,7.3387825E1,2.157787E1,7.488295E0,6.7999997E0,3.3999996E0,5.9467497E0,9.000001E-1,3.1389124E2,1.3000002E0,3.3072174E1,6.7999997E0,4.7E0,1.9107151E1,1.3805975E1,2.755725E1,2.4258417E1,1.1659777E1,1.2096214E1,2.888531E2,5.4030833E0,2.1929638E1,1.4761477E1,8E0,4.8102497E1,3.9E0,7.0000005E-1,1.0637669E1,1.01887E1,3.4683337E2,1.3065668E2,9.793058E0,6.989936E0,-5.0570297E0,1.2287555E1,4.3E0,2.633911E1,3.696638E1,3E-1,4.9E0,5.1000004E0,3.0834337E1,2.3555166E1,2.1544748E1,2.62E1,1.09E1,-1.8709566E-1,-6.305596E0,7.106891E0,-4.6194124E0,9.433496E0,5.846978E0,3.4657078E0,8.7990265E0,5.171219E0,1.1212189E0,-1.2078782E1,-1.2181159E0,3.491111E0,-1.8979686E0,1.4152654E1,3.4587114E0,7.085254E0,3.1781986E0,-4.7908683E0,3.0599287E0,-8.375323E0,-1.0077107E0,9.375256E0,5.5242884E-1,-8.564673E0,4.8130713E0,-5.579105E0,-1.173932E1,1.3274943E0,-2.1962771E0,8.624196E0,1.7700837E0,-4.9227486E0,9.253669E0,4.888677E-1,-6.8390813E0,3.0399864E0,1.3741357E1,-6.502177E0,3.1921396E0,-9.145663E0,7.7458525E-1,-2.6181704E-1,-2.6205366E0,1.33131895E1,-4.2702973E-1,-3.3822365E0,1.681752E0,-9.697974E0,-7.2746284E-2,3.4800408E0,-4.57128E0,-2.4387698E0,-6.3163943E0,7.189323E0,6.6269225E-1,5.6437187E0,-3.1061132E0],"split_indices":[0,1,0,2,0,1,1,0,0,0,3,0,3,3,0,3,3,3,0,1,1,3,1,3,1,3,1,1,2,3,0,3,2,2,3,0,3,3,1,3,1,1,3,2,3,3,2,2,0,2,1,2,3,1,1,1,0,0,0,1,1,0,0,0,0,0,0,0,0,0,0,0,0,0,0,0,0,0,0,0,0,0,0,0,0,0,0,0,0,0,0,0,0,0,0,0,0,0,0,0,0,0,0,0,0,0,0,0,0,0,0,0,0,0,0,0,0,0,0],"split_type":[0,0,0,0,0,0,0,0,0,0,0,0,0,0,0,0,0,0,0,0,0,0,0,0,0,0,0,0,0,0,0,0,0,0,0,0,0,0,0,0,0,0,0,0,0,0,0,0,0,0,0,0,0,0,0,0,0,0,0,0,0,0,0,0,0,0,0,0,0,0,0,0,0,0,0,0,0,0,0,0,0,0,0,0,0,0,0,0,0,0,0,0,0,0,0,0,0,0,0,0,0,0,0,0,0,0,0,0,0,0,0,0,0,0,0,0,0,0,0],"sum_hessian":[1.833E3,6.01E2,1.232E3,2.99E2,3.02E2,3.44E2,8.88E2,2.85E2,1.4E1,2.3E2,7.2E1,2.37E2,1.07E2,6.9E2,1.98E2,1.5E1,2.7E2,1.3E1,1E0,6.2E1,1.68E2,5.6E1,1.6E1,2.23E2,1.4E1,5.2E1,5.5E1,3.87E2,3.03E2,1.78E2,2E1,8E0,7E0,1.56E2,1.14E2,2E0,1.1E1,6E1,2E0,1.5E2,1.8E1,4E0,5.2E1,5E0,1.1E1,2.12E2,1.1E1,1.3E1,1E0,4.6E1,6E0,3.6E1,1.9E1,3.51E2,3.6E1,2.91E2,1.2E1,2.8E1,1.5E2,9E0,1.1E1,2E0,6E0,6E0,1E0,9.9E1,5.7E1,8.3E1,3.1E1,1E0,1E0,1E0,1E1,1.1E1,4.9E1,1E0,1E0,9.6E1,5.4E1,6E0,1.2E1,3E0,1E0,3E0,4.9E1,2E0,3E0,9E0,2E0,1.58E2,5.4E1,6E0,5E0,1E0,1.2E1,2.1E1,2.5E1,3E0,3E0,3.5E1,1E0,4E0,1.5E1,1.16E2,2.35E2,4E0,3.2E1,2.82E2,9E0,1E1,2E0,8E0,2E1,2.5E1,1.25E2,7E0,2E0,2E0,9E0],"tree_param":{"num_deleted":"0","num_feature":"4","num_nodes":"119","size_leaf_vector":"1"}},{"base_weights":[2.302006E-2,1.2363347E1,-4.1775756E0,1.8593401E0,1.450277E1,1.5124705E0,-6.1939445E0,7.1098294E0,-4.75542E0,1.800808E1,9.19678E0,2.9354618E0,-1.1744234E1,-5.852274E0,-2.2022589E1,2.8888571E0,2.1594347E1,4.964283E0,-7.2727375E0,2.094644E1,1.4124635E1,1.1872271E1,2.7095196E-1,2.2929945E0,1.3078429E1,-3.412324E1,-4.9307947E0,-3.0963824E0,-7.2740116E0,-9.656055E0,-1.46413965E1,2.0155611E1,-1.2363472E0,2.8304455E1,4.4530716E0,-3.8571408E0,9.346933E0,-9.412124E0,-4.8033333E-1,1.865339E1,3.5091213E1,-1.81662E1,1.5275022E1,3.9483151E0,1.7671886E1,-8.906251E0,2.0132313E1,7.9216695E0,-7.1988434E-1,-1.2731014E0,-3.7785515E1,1.6885029E-1,-2.025385E1,4.0762925E0,-7.0452285E0,-1.7197326E0,-8.335106E0,-1.0301251E1,-8.136454E0,7.557971E0,-1.5105218E0,6.42763E0,-1.9877161E0,-6.349754E-2,9.927726E0,-3.9265E0,4.3988953E0,8.046604E0,-9.0225035E-1,-1.9361344E-1,-3.3973308E0,2.7284827E0,-3.6988032E0,6.570918E0,3.149656E-2,4.8751146E-1,1.1124386E1,-6.674568E0,-8.8786817E-1,4.9121237E0,-2.6626437E0,-2.4683814E0,3.94555E0,6.2873573E0,-1.9689718E0,3.7592103E0,-6.2976975E0,1.5889825E0,1.02255745E1,1.9606621E0,1.3113982E1,5.095077E-1,-2.6100605E0,-2.9251192E0,-1.224989E1,-8.3451384E-1,5.9348965E0,-7.767957E0,-2.8653152E0,1.6175106E0,-1.0724204E1,-2.6192086E0,1.1592686E0,2.9920232E0,-1.5791229E0,-2.7036607E0,2.968204E-1,8.272171E-1,-3.9566157E0],"categories":[],"categories_nodes":[],"categories_segments":[],"categories_sizes":[],"default_left":[0,0,0,0,0,0,0,0,0,0,0,0,0,0,0,0,0,0,0,0,0,0,0,0,0,0,0,0,0,0,0,0,0,0,0,0,0,0,0,0,0,0,0,0,0,0,0,0,0,0,0,0,0,0,0,0,0,0,0,0,0,0,0,0,0,0,0,0,0,0,0,0,0,0,0,0,0,0,0,0,0,0,0,0,0,0,0,0,0,0,0,0,0,0,0,0,0,0,0,0,0,0,0,0,0,0,0,0,0],"id":3,"left_children":[1,3,5,7,9,11,13,15,17,19,21,23,25,27,29,31,33,35,37,39,41,43,45,47,-1,49,51,53,55,-1,57,59,61,63,65,-1,67,69,71,73,75,77,79,81,83,85,87,89,91,-1,93,95,97,99,101,103,105,107,-1,-1,-1,-1,-1,-1,-1,-1,-1,-1,-1,-1,-1,-1,-1,-1,-1,-1,-1,-1,-1,-1,-1,-1,-1,-1,-1,-1,-1,-1,-1,-1,-1,-1,-1,-1,-1,-1,-1,-1,-1,-1,-1,-1,-1,-1,-1,-1,-1,-1,-1],"loss_changes":[9.5120195E4,1.0445234E4,1.5716225E4,2.8122686E3,7.03225E3,6.806714E3,5.338789E3,2.6888608E3,9.1693665E2,2.3514844E3,3.7222139E3,8.389774E3,5.1684756E3,3.8603672E3,1.104251E3,2.5891592E3,1.0241567E3,7.450152E2,4.1689465E2,3.5619375E3,4.103623E3,5.4449336E3,6.923358E3,5.449386E3,0E0,7.1506836E2,2.1914001E3,9.630484E3,3.8341953E3,0E0,4.7893115E2,1.0151587E3,3.8059421E3,9.627422E2,9.082989E2,0E0,1.5919304E3,3.6151587E2,1.019795E3,6.8691836E3,1.0719414E3,1.8246985E2,2.7987988E3,5.9355586E3,5.6324297E3,6.999351E3,2.303483E3,5.2708306E3,4.0674292E3,0E0,1.9991211E2,1.3282311E3,1.7518994E2,6.531248E3,4.0606035E3,4.445203E3,3.4687656E3,4.8884314E2,0E0,0E0,0E0,0E0,0E0,0E0,0E0,0E0,0E0,0E0,0E0,0E0,0E0,0E0,0E0,0E0,0E0,0E0,0E0,0E0,0E0,0E0,0E0,0E0,0E0,0E0,0E0,0E0,0E0,0E0,0E0,0E0,0E0,0E0,0E0,0E0,0E0,0E0,0E0,0E0,0E0,0E0,0E0,0E0,0E0,0E0,0E0,0E0,0E0,0E0,0E0],"parents":[2147483647,0,0,1,1,2,2,3,3,4,4,5,5,6,6,7,7,8,8,9,9,10,10,11,11,12,12,13,13,14,14,15,15,16,16,17,17,18,18,19,19,20,20,21,21,22,22,23,23,25,25,26,26,27,27,28,28,30,30,31,31,32,32,33,33,34,34,36,36,37,37,38,38,39,39,40,40,41,41,42,42,43,43,44,44,45,45,46,46,47,47,48,48,50,50,51,51,52,52,53,53,54,54,55,55,56,56,57,57],"right_children":[2,4,6,8,10,12,14,16,18,20,22,24,26,28,30,32,34,36,38,40,42,44,46,48,-1,50,52,54,56,-1,58,60,62,64,66,-1,68,70,72,74,76,78,80,82,84,86,88,90,92,-1,94,96,98,100,102,104,106,108,-1,-1,-1,-1,-1,-1,-1,-1,-1,-1,-1,-1,-1,-1,-1,-1,-1,-1,-1,-1,-1,-1,-1,-1,-1,-1,-1,-1,-1,-1,-1,-1,-1,-1,-1,-1,-1,-1,-1,-1,-1,-1,-1,-1,-1,-1,-1,-1,-1,-1,-1],"split_conditions":[1.1109334E1,4.990583E0,1.681975E1,3E-1,1.1841756E1,4.7999997E0,4.1300003E1,2.2011472E2,1.4761477E1,6.864552E1,4.8102497E1,2.0466246E1,5.8E0,3E-1,2.2626001E1,2.238028E1,1.1659777E1,4E-1,2.6E0,5.339585E1,7.530265E1,7.676E0,2.888531E2,1E-1,1.3078429E1,4.9E0,3.0313226E2,9.5194244E1,9.028754E0,-9.656055E0,3.4804077E1,4.5301666E0,8.287822E0,6.889557E0,2.7155821E0,-3.8571408E0,1.097262E1,8.089993E0,3.8E0,4.239735E1,6.28713E0,9.965585E0,1.0851002E1,2.2838148E1,1.8391735E1,1E-1,4E-1,1.6782251E1,1.6922482E2,-1.2731014E0,1.1830169E1,2.8227304E1,6.3999996E0,1.9839235E1,3.1389124E2,3.5094513E1,2.8090584E1,5.15E1,-8.136454E0,7.557971E0,-1.5105218E0,6.42763E0,-1.9877161E0,-6.349754E-2,9.927726E0,-3.9265E0,4.3988953E0,8.046604E0,-9.0225035E-1,-1.9361344E-1,-3.3973308E0,2.7284827E0,-3.6988032E0,6.570918E0,3.149656E-2,4.8751146E-1,1.1124386E1,-6.674568E0,-8.8786817E-1,4.9121237E0,-2.6626437E0,-2.4683814E0,3.94555E0,6.2873573E0,-1.9689718E0,3.7592103E0,-6.2976975E0,1.5889825E0,1.02255745E1,1.9606621E0,1.3113982E1,5.095077E-1,-2.6100605E0,-2.9251192E0,-1.224989E1,-8.3451384E-1,5.9348965E0,-7.767957E0,-2.8653152E0,1.6175106E0,-1.0724204E1,-2.6192086E0,1.1592686E0,2.9920232E0,-1.5791229E0,-2.7036607E0,2.968204E-1,8.272171E-1,-3.9566157E0],"split_indices":[0,0,0,1,2,1,1,3,3,3,3,2,1,1,0,3,2,1,1,3,3,0,3,1,0,1,3,3,2,0,3,0,2,2,0,0,2,2,1,3,2,0,0,3,2,1,1,0,3,0,0,2,1,2,3,3,0,1,0,0,0,0,0,0,0,0,0,0,0,0,0,0,0,0,0,0,0,0,0,0,0,0,0,0,0,0,0,0,0,0,0,0,0,0,0,0,0,0,0,0,0,0,0,0,0,0,0,0,0],"split_type":[0,0,0,0,0,0,0,0,0,0,0,0,0,0,0,0,0,0,0,0,0,0,0,0,0,0,0,0,0,0,0,0,0,0,0,0,0,0,0,0,0,0,0,0,0,0,0,0,0,0,0,0,0,0,0,0,0,0,0,0,0,0,0,0,0,0,0,0,0,0,0,0,0,0,0,0,0,0,0,0,0,0,0,0,0,0,0,0,0,0,0,0,0,0,0,0,0,0,0,0,0,0,0,0,0,0,0,0,0],"sum_hessian":[1.833E3,4.65E2,1.368E3,7.9E1,3.86E2,3.58E2,1.01E3,4.4E1,3.5E1,2.31E2,1.55E2,3.24E2,3.4E1,9.9E2,2E1,3.5E1,9E0,7E0,2.8E1,1.29E2,1.02E2,1.19E2,3.6E1,3.2E2,4E0,7E0,2.7E1,3.38E2,6.52E2,7E0,1.3E1,6E0,2.9E1,6E0,3E0,1E0,6E0,2.1E1,7E0,1.13E2,1.6E1,3E0,9.9E1,5.1E1,6.8E1,2.5E1,1.1E1,1.11E2,2.09E2,1E0,6E0,2.1E1,6E0,1.2E2,2.18E2,1.05E2,5.47E2,1.1E1,2E0,5E0,1E0,5E0,2.4E1,1E0,5E0,1E0,2E0,2E0,4E0,4E0,1.7E1,4E0,3E0,9.6E1,1.7E1,1E0,1.5E1,2E0,1E0,9.5E1,4E0,2.2E1,2.9E1,6E1,8E0,9E0,1.6E1,6E0,5E0,1.08E2,3E0,1.61E2,4.8E1,1E0,5E0,1.9E1,2E0,3E0,3E0,1.17E2,3E0,1.89E2,2.9E1,2.4E1,8.1E1,5.1E2,3.7E1,2E0,9E0],"tree_param":{"num_deleted":"0","num_feature":"4","num_nodes":"109","size_leaf_vector":"1"}},{"base_weights":[2.6534889E-2,7.737329E0,-3.3514905E0,9.076353E0,-1.6255979E-1,-1.5016966E0,-5.935598E0,1.1829472E1,6.387586E0,-1.5759981E0,2.7793486E1,3.2386547E-1,-6.6167855E0,-1.9994538E-2,-7.07623E0,7.7444844E0,1.5953342E1,4.1596074E0,1.379295E1,-3.271351E0,1.387918E1,1.14379225E1,3.4921129E0,3.0242429E0,-3.5608537E0,-3.1445843E1,-5.530811E0,1.7093337E0,-2.0027935E1,-1.5290568E1,-5.558067E0,1.183638E1,3.979133E0,2.7645962E1,1.2268297E1,5.2450795E0,-1.5794845E1,3.7563305E1,9.630587E0,-9.356127E0,1.8303726E0,3.592479E0,6.9803286E0,-9.958225E0,4.3782506E0,3.833366E-1,-1.6130928E1,-1.224124E1,-1.2156107E1,-1.068273E1,-2.8075664E0,-7.404722E-1,1.4580662E1,-1.2487324E0,-2.1978445E1,-9.475546E0,-2.5798923E1,-1.134123E0,-7.4881787E0,6.0835843E0,1.3821534E0,5.041219E0,1.5621323E-2,9.575795E0,2.2108033E0,1.6239054E0,6.3282294E0,-2.6716905E0,1.8926564E0,-8.164634E0,3.2065338E-1,5.346039E-1,1.2726104E1,1.0604656E0,4.910307E0,-3.9370942E0,4.3100147E0,6.077224E0,-1.2518634E0,-3.51635E-1,2.1478746E0,-1.1354536E0,-8.170076E0,1.1415371E0,9.404908E0,-7.755833E-1,4.2194705E0,-4.2034116E0,-1.0230094E1,2.1589203E-1,-7.668582E0,-1.732724E0,-6.9523606E0,8.036319E0,-1.1264673E0,1.582156E0,-3.2670245E0,5.527937E0,-4.7353306E0,-7.397651E0,-1.2864728E0,9.436858E-1,-4.7052097E0,-1.1498977E1,-5.1413407E0,-9.662627E0,7.897903E-2,-3.414132E0,-1.4108189E0],"categories":[],"categories_nodes":[],"categories_segments":[],"categories_sizes":[],"default_left":[0,0,0,0,0,0,0,0,0,0,0,0,0,0,0,0,0,0,0,0,0,0,0,0,0,0,0,0,0,0,0,0,0,0,0,0,0,0,0,0,0,0,0,0,0,0,0,0,0,0,0,0,0,0,0,0,0,0,0,0,0,0,0,0,0,0,0,0,0,0,0,0,0,0,0,0,0,0,0,0,0,0,0,0,0,0,0,0,0,0,0,0,0,0,0,0,0,0,0,0,0,0,0,0,0,0,0,0,0],"id":4,"left_children":[1,3,5,7,9,11,13,15,17,19,21,23,25,27,29,31,33,35,37,39,41,-1,-1,43,45,47,49,51,53,55,57,59,61,63,65,67,69,71,73,75,77,79,-1,81,83,85,87,89,-1,91,93,95,97,-1,99,101,103,105,107,-1,-1,-1,-1,-1,-1,-1,-1,-1,-1,-1,-1,-1,-1,-1,-1,-1,-1,-1,-1,-1,-1,-1,-1,-1,-1,-1,-1,-1,-1,-1,-1,-1,-1,-1,-1,-1,-1,-1,-1,-1,-1,-1,-1,-1,-1,-1,-1,-1,-1],"loss_changes":[4.7796605E4,5.9146562E3,6.090452E3,3.462832E3,3.2839622E3,6.9588877E3,3.589543E3,3.83525E3,3.9683809E3,2.1153604E3,2.2382959E2,5.7803833E3,5.1109697E3,3.0444602E3,5.4769473E3,1.8017925E3,4.6590176E3,4.1765845E3,5.1789307E3,2.25221E3,6.890314E2,0E0,0E0,5.7565664E3,1.1210984E4,8.9816064E2,2.6216655E3,2.5649094E3,1.2513672E2,3.971879E3,3.2191387E3,3.3853184E3,3.2224397E3,2.1043047E3,5.331117E3,2.7657563E3,1.9550232E3,1.3147354E3,1.9544424E3,3.137961E3,4.5094165E3,9.3370865E1,0E0,3.2029937E3,4.440841E3,7.0628066E3,1.5789131E3,7.0898724E2,0E0,3.85046E3,3.605129E3,4.269403E3,1.8089636E3,0E0,1.7875684E2,3.6538193E3,1.9478877E3,5.0455786E3,2.7978457E3,0E0,0E0,0E0,0E0,0E0,0E0,0E0,0E0,0E0,0E0,0E0,0E0,0E0,0E0,0E0,0E0,0E0,0E0,0E0,0E0,0E0,0E0,0E0,0E0,0E0,0E0,0E0,0E0,0E0,0E0,0E0,0E0,0E0,0E0,0E0,0E0,0E0,0E0,0E0,0E0,0E0,0E0,0E0,0E0,0E0,0E0,0E0,0E0,0E0,0E0],"parents":[2147483647,0,0,1,1,2,2,3,3,4,4,5,5,6,6,7,7,8,8,9,9,10,10,11,11,12,12,13,13,14,14,15,15,16,16,17,17,18,18,19,19,20,20,23,23,24,24,25,25,26,26,27,27,28,28,29,29,30,30,31,31,32,32,33,33,34,34,35,35,36,36,37,37,38,38,39,39,40,40,41,41,43,43,44,44,45,45,46,46,47,47,49,49,50,50,51,51,52,52,54,54,55,55,56,56,57,57,58,58],"right_children":[2,4,6,8,10,12,14,16,18,20,22,24,26,28,30,32,34,36,38,40,42,-1,-1,44,46,48,50,52,54,56,58,60,62,64,66,68,70,72,74,76,78,80,-1,82,84,86,88,90,-1,92,94,96,98,-1,100,102,104,106,108,-1,-1,-1,-1,-1,-1,-1,-1,-1,-1,-1,-1,-1,-1,-1,-1,-1,-1,-1,-1,-1,-1,-1,-1,-1,-1,-1,-1,-1,-1,-1,-1,-1,-1,-1,-1,-1,-1,-1,-1,-1,-1,-1,-1,-1,-1,-1,-1,-1,-1],"split_conditions":[1.2951001E1,1.8000002E0,1.6000001E0,4.239735E1,7.8999996E0,2.56885E1,1.6271454E1,7.880167E0,2.888531E2,1.9107151E1,8E0,1.06534904E2,2.5855165E1,2.2657131E1,2.2590212E1,2.238028E1,8.676001E0,1.2661416E1,3.094006E2,7.676E0,3.3577404E1,1.14379225E1,3.4921129E0,9.546697E0,1.2879752E1,1E-1,2.7044752E1,2.7176E1,1.4782249E1,2.0556154E1,3.3877674E1,2E-1,1.0028439E1,5E-1,2.6564959E1,4.4530037E1,1.0462087E2,7.5551667E0,1.0739832E1,1.9900877E2,8.3885E0,3.7405832E0,6.9803286E0,7.1249166E0,1.6E0,2.9704538E2,3.4480753E2,1.1659777E1,-1.2156107E1,2.6744751E1,2.7101004E1,2.425933E1,1.2055861E1,-1.2487324E0,2.7934332E1,2.2394747E1,2.157787E1,1.8000002E0,4.3E0,6.0835843E0,1.3821534E0,5.041219E0,1.5621323E-2,9.575795E0,2.2108033E0,1.6239054E0,6.3282294E0,-2.6716905E0,1.8926564E0,-8.164634E0,3.2065338E-1,5.346039E-1,1.2726104E1,1.0604656E0,4.910307E0,-3.9370942E0,4.3100147E0,6.077224E0,-1.2518634E0,-3.51635E-1,2.1478746E0,-1.1354536E0,-8.170076E0,1.1415371E0,9.404908E0,-7.755833E-1,4.2194705E0,-4.2034116E0,-1.0230094E1,2.1589203E-1,-7.668582E0,-1.732724E0,-6.9523606E0,8.036319E0,-1.1264673E0,1.582156E0,-3.2670245E0,5.527937E0,-4.7353306E0,-7.397651E0,-1.2864728E0,9.436858E-1,-4.7052097E0,-1.1498977E1,-5.1413407E0,-9.662627E0,7.897903E-2,-3.414132E0,-1.4108189E0],"split_indices":[0,1,1,3,1,0,3,0,3,2,1,3,0,2,3,3,0,0,3,0,3,0,0,3,2,1,0,0,0,3,3,1,2,1,3,3,3,0,2,3,0,0,0,3,1,3,3,2,0,0,0,0,3,0,0,0,3,1,1,0,0,0,0,0,0,0,0,0,0,0,0,0,0,0,0,0,0,0,0,0,0,0,0,0,0,0,0,0,0,0,0,0,0,0,0,0,0,0,0,0,0,0,0,0,0,0,0,0,0],"split_type":[0,0,0,0,0,0,0,0,0,0,0,0,0,0,0,0,0,0,0,0,0,0,0,0,0,0,0,0,0,0,0,0,0,0,0,0,0,0,0,0,0,0,0,0,0,0,0,0,0,0,0,0,0,0,0,0,0,0,0,0,0,0,0,0,0,0,0,0,0,0,0,0,0,0,0,0,0,0,0,0,0,0,0,0,0,0,0,0,0,0,0,0,0,0,0,0,0,0,0,0,0,0,0,0,0,0,0,0,0],"sum_hessian":[1.833E3,5.58E2,1.275E3,4.77E2,8.1E1,7.44E2,5.31E2,2.34E2,2.43E2,7.8E1,3E0,5.49E2,1.95E2,8.6E1,4.45E2,1.19E2,1.15E2,1.88E2,5.5E1,7.1E1,7E0,1E0,2E0,3.24E2,2.25E2,7E0,1.88E2,8E1,6E0,6.8E1,3.77E2,5.6E1,6.3E1,2.6E1,8.9E1,1.79E2,9E0,7E0,4.8E1,3.2E1,3.9E1,4E0,3E0,3E1,2.94E2,1.72E2,5.3E1,3E0,4E0,6.4E1,1.24E2,6.8E1,1.2E1,1E0,5E0,4.5E1,2.3E1,1.15E2,2.62E2,2.5E1,3.1E1,1.4E1,4.9E1,2.1E1,5E0,5.1E1,3.8E1,1.2E1,1.67E2,5E0,4E0,1E0,6E0,2.6E1,2.2E1,2.8E1,4E0,9E0,3E1,2E0,2E0,2.3E1,7E0,2.89E2,5E0,1.42E2,3E1,4.9E1,4E0,2E0,1E0,4.7E1,1.7E1,3E0,1.21E2,4.3E1,2.5E1,1.1E1,1E0,4E0,1E0,1.5E1,3E1,8E0,1.5E1,4E0,1.11E2,1.08E2,1.54E2],"tree_param":{"num_deleted":"0","num_feature":"4","num_nodes":"109","size_leaf_vector":"1"}},{"base_weights":[1.5850933E-2,6.429587E0,-2.1673608E0,8.749109E0,3.1032724E0,-1.2886612E0,-5.706496E0,2.481174E0,1.0206098E1,5.4790276E-1,9.670836E0,4.1690096E-1,-3.9801042E0,-6.582301E0,4.0612345E0,-1.6623042E0,1.8452847E1,1.3997892E1,8.095987E0,2.5266225E0,-9.121185E0,1.2839084E1,-7.5969653E0,-6.4873414E0,1.2036378E0,-5.706864E0,2.1793752E0,-2.2697111E1,-6.0246844E0,1.5664689E1,-4.5170355E0,3.9266694E-1,-1.7358618E1,2.6354136E1,-1.140197E1,-9.319355E0,1.5722627E1,9.639345E0,6.6439776E0,6.10727E-1,1.2376467E1,-1.7875746E1,7.455942E0,8.191928E0,2.189708E1,-1.8023823E0,-5.575601E0,-2.952071E1,-4.993087E0,9.675535E0,3.726848E-1,-5.3243456E0,-7.700016E0,1.3049521E1,-4.490195E0,-2.8418503E1,2.6028948E0,8.022898E0,-6.7891603E0,1.8756893E1,6.591743E-1,3.7127578E0,-8.363839E0,5.153241E0,-4.4496557E-1,-8.098577E0,-5.8073276E-1,-2.1304208E-1,8.947782E0,-4.5122385E0,-6.186482E-1,-6.429675E0,2.9812868E0,3.6543522E0,8.27332E0,5.7722282E0,1.519978E0,1.2770827E0,-3.9405208E0,6.047877E-1,5.9184337E0,-3.3656497E0,-9.083157E0,-3.630735E0,5.775664E0,3.7544658E0,-3.5961288E-1,7.1189394E0,-5.641468E-1,5.780484E-1,-2.2250817E0,-3.1844583E0,-1.29357395E1,-3.067591E0,-2.0005908E-2,4.5707517E0,7.848446E-1,-2.2552902E-1,1.823198E0,-1.660267E0,9.495838E0,-2.6809387E0,4.8231106E0,5.2244554E0,-2.189578E0,-2.0334282E0,-9.268667E0,-1.6562151E0,7.4231706E0,-1.3558514E0,-3.2345417E0,3.546817E0,7.9118805E0,-3.2491984E0,2.8156793E0],"categories":[],"categories_nodes":[],"categories_segments":[],"categories_sizes":[],"default_left":[0,0,0,0,0,0,0,0,0,0,0,0,0,0,0,0,0,0,0,0,0,0,0,0,0,0,0,0,0,0,0,0,0,0,0,0,0,0,0,0,0,0,0,0,0,0,0,0,0,0,0,0,0,0,0,0,0,0,0,0,0,0,0,0,0,0,0,0,0,0,0,0,0,0,0,0,0,0,0,0,0,0,0,0,0,0,0,0,0,0,0,0,0,0,0,0,0,0,0,0,0,0,0,0,0,0,0,0,0,0,0,0,0,0,0],"id":5,"left_children":[1,3,5,7,9,11,13,15,17,19,21,23,25,27,29,31,33,35,37,39,41,43,45,47,49,51,53,55,57,59,61,63,65,67,69,71,73,-1,75,77,79,81,83,85,87,89,-1,91,93,95,97,99,-1,101,103,105,-1,107,109,111,-1,-1,113,-1,-1,-1,-1,-1,-1,-1,-1,-1,-1,-1,-1,-1,-1,-1,-1,-1,-1,-1,-1,-1,-1,-1,-1,-1,-1,-1,-1,-1,-1,-1,-1,-1,-1,-1,-1,-1,-1,-1,-1,-1,-1,-1,-1,-1,-1,-1,-1,-1,-1,-1,-1],"loss_changes":[2.56946E4,3.568254E3,4.250012E3,2.4769297E3,3.233734E3,5.0419443E3,2.3535918E3,3.5381228E3,1.6629219E3,2.7015842E3,3.0518066E3,3.6634248E3,4.543348E3,2.1097285E3,2.3601216E3,1.3938015E3,2.8952961E3,3.283376E3,4.846916E3,2.20038E3,3.6162915E3,1.7569419E3,5.395594E2,2.2274233E3,4.255442E3,2.4057998E3,6.8735195E3,1.6825659E3,2.6640537E3,3.752273E2,1.0132809E3,1.2534463E3,6.9086475E2,8.668369E2,7.094122E1,1.612532E3,2.7289238E3,0E0,2.6445708E3,5.017808E3,1.407398E3,9.8121045E2,2.3094436E3,1.3140522E3,6.982866E2,1.6085619E2,0E0,5.706553E2,1.7005338E3,2.079767E3,3.545413E3,2.7206738E3,0E0,2.539934E3,3.7566716E3,1.6581787E2,0E0,3.0806204E3,2.0445771E3,1.10687256E2,0E0,0E0,6.270684E2,0E0,0E0,0E0,0E0,0E0,0E0,0E0,0E0,0E0,0E0,0E0,0E0,0E0,0E0,0E0,0E0,0E0,0E0,0E0,0E0,0E0,0E0,0E0,0E0,0E0,0E0,0E0,0E0,0E0,0E0,0E0,0E0,0E0,0E0,0E0,0E0,0E0,0E0,0E0,0E0,0E0,0E0,0E0,0E0,0E0,0E0,0E0,0E0,0E0,0E0,0E0,0E0],"parents":[2147483647,0,0,1,1,2,2,3,3,4,4,5,5,6,6,7,7,8,8,9,9,10,10,11,11,12,12,13,13,14,14,15,15,16,16,17,17,18,18,19,19,20,20,21,21,22,22,23,23,24,24,25,25,26,26,27,27,28,28,29,29,30,30,31,31,32,32,33,33,34,34,35,35,36,36,38,38,39,39,40,40,41,41,42,42,43,43,44,44,45,45,47,47,48,48,49,49,50,50,51,51,53,53,54,54,55,55,57,57,58,58,59,59,62,62],"right_children":[2,4,6,8,10,12,14,16,18,20,22,24,26,28,30,32,34,36,38,40,42,44,46,48,50,52,54,56,58,60,62,64,66,68,70,72,74,-1,76,78,80,82,84,86,88,90,-1,92,94,96,98,100,-1,102,104,106,-1,108,110,112,-1,-1,114,-1,-1,-1,-1,-1,-1,-1,-1,-1,-1,-1,-1,-1,-1,-1,-1,-1,-1,-1,-1,-1,-1,-1,-1,-1,-1,-1,-1,-1,-1,-1,-1,-1,-1,-1,-1,-1,-1,-1,-1,-1,-1,-1,-1,-1,-1,-1,-1,-1,-1,-1,-1],"split_conditions":[1.1109334E1,1.1841756E1,5.7E0,5.4030833E0,9.198916E0,1.4351163E2,2.729892E1,2.2011472E2,7.457249E0,4.5975674E1,1.8391735E1,1.030482E1,3.1389124E2,5.8E0,2.755725E1,5.290583E0,2E-1,9.168591E0,1.152114E1,1.8892282E1,3.1389124E2,1.4869351E1,5E-1,1.2005166E1,1.2951001E1,1.9107151E1,1.097262E1,2.4698915E1,6.2E0,2.62E1,1.3513193E1,7.6367526E0,5E-1,6.889557E0,1.873917E0,1.0086427E1,5E-1,9.639345E0,7.7879906E0,1.6418526E1,5.4030833E0,9.695697E1,1.2522619E1,1.0505168E1,3.353616E2,2.2657131E1,-5.575601E0,1.1830169E1,1.2144331E1,1.2313894E1,2.6999996E0,1.8709612E1,-7.700016E0,1.2661416E1,3.2195282E2,1.4053085E1,2.6028948E0,1.4336861E1,2.4890581E1,2.8292751E1,6.591743E-1,3.7127578E0,3.0834337E1,5.153241E0,-4.4496557E-1,-8.098577E0,-5.8073276E-1,-2.1304208E-1,8.947782E0,-4.5122385E0,-6.186482E-1,-6.429675E0,2.9812868E0,3.6543522E0,8.27332E0,5.7722282E0,1.519978E0,1.2770827E0,-3.9405208E0,6.047877E-1,5.9184337E0,-3.3656497E0,-9.083157E0,-3.630735E0,5.775664E0,3.7544658E0,-3.5961288E-1,7.1189394E0,-5.641468E-1,5.780484E-1,-2.2250817E0,-3.1844583E0,-1.29357395E1,-3.067591E0,-2.0005908E-2,4.5707517E0,7.848446E-1,-2.2552902E-1,1.823198E0,-1.660267E0,9.495838E0,-2.6809387E0,4.8231106E0,5.2244554E0,-2.189578E0,-2.0334282E0,-9.268667E0,-1.6562151E0,7.4231706E0,-1.3558514E0,-3.2345417E0,3.546817E0,7.9118805E0,-3.2491984E0,2.8156793E0],"split_indices":[0,2,1,0,0,3,0,3,0,3,2,3,3,1,0,0,1,3,3,2,3,2,1,0,0,2,2,0,1,1,2,2,1,2,0,2,1,0,2,2,0,3,2,0,3,2,0,0,2,2,1,2,0,0,3,0,0,2,0,3,0,0,0,0,0,0,0,0,0,0,0,0,0,0,0,0,0,0,0,0,0,0,0,0,0,0,0,0,0,0,0,0,0,0,0,0,0,0,0,0,0,0,0,0,0,0,0,0,0,0,0,0,0,0,0],"split_type":[0,0,0,0,0,0,0,0,0,0,0,0,0,0,0,0,0,0,0,0,0,0,0,0,0,0,0,0,0,0,0,0,0,0,0,0,0,0,0,0,0,0,0,0,0,0,0,0,0,0,0,0,0,0,0,0,0,0,0,0,0,0,0,0,0,0,0,0,0,0,0,0,0,0,0,0,0,0,0,0,0,0,0,0,0,0,0,0,0,0,0,0,0,0,0,0,0,0,0,0,0,0,0,0,0,0,0,0,0,0,0,0,0,0,0],"sum_hessian":[1.833E3,4.65E2,1.368E3,2.73E2,1.92E2,1.097E3,2.71E2,5.2E1,2.21E2,1.39E2,5.3E1,6.72E2,4.25E2,2.49E2,2.2E1,4.2E1,1E1,7.7E1,1.44E2,1.16E2,2.3E1,4.5E1,8E0,6.8E1,6.04E2,3.32E2,9.3E1,7E0,2.42E2,9E0,1.3E1,3.8E1,4E0,8E0,2E0,5E0,7.2E1,7E0,1.37E2,9.8E1,1.8E1,1.5E1,8E0,3.1E1,1.4E1,6E0,2E0,3E0,6.5E1,5.3E1,5.51E2,3.27E2,5E0,3.5E1,5.8E1,6E0,1E0,1.2E1,2.3E2,7E0,2E0,2E0,1.1E1,3E0,3.5E1,2E0,2E0,1E0,7E0,1E0,1E0,3E0,2E0,5.7E1,1.5E1,1.4E1,1.23E2,7.8E1,2E1,8E0,1E1,1.1E1,4E0,3E0,5E0,2.1E1,1E1,1.3E1,1E0,4E0,2E0,2E0,1E0,3.1E1,3.4E1,2.9E1,2.4E1,4.61E2,9E1,3.26E2,1E0,4E0,3.1E1,6E0,5.2E1,1E0,5E0,7E0,5E0,1.48E2,8.2E1,5E0,2E0,1E1,1E0],"tree_param":{"num_deleted":"0","num_feature":"4","num_nodes":"115","size_leaf_vector":"1"}},{"base_weights":[2.3233684E-2,4.5464754E0,-1.5164696E0,-3.122386E0,5.1957808E0,1.2040862E0,-2.5104153E0,-6.5203433E0,6.7041335E0,1.0631178E1,4.403454E0,6.206639E0,-2.0913045E0,-3.084777E0,2.2287068E0,8.120702E-1,-9.493913E0,-4.4243727E0,1.4860534E1,3.504813E0,1.7627735E1,-1.3993675E1,4.7387004E0,2.195261E0,1.3000185E1,-5.4748017E-1,-1.27682495E1,-2.838913E0,-1.2712072E1,6.9412026E0,-2.6995978E0,1.2251089E1,-6.9492874E0,-1.4040962E1,-3.5427666E0,4.1102576E0,-3.4452636E0,2.1448103E1,-2.7115974E0,8.081421E0,-7.7925563E0,-1.2281938E0,1.8620647E1,-1.6831896E1,4.553467E-1,1.2980659E1,4.2070956E0,-2.134402E0,7.2793903E0,-3.375965E0,1.6350435E1,-1.0656936E0,9.892023E0,-3.0060226E1,-5.5728173E0,-1.9605504E0,-6.0335736E0,-5.3987656E0,-5.7922726E0,1.4485664E1,3.561276E0,-2.0742456E1,4.289653E-1,3.7974015E-1,4.6472754E0,-2.05933E-1,-3.8949955E0,-4.943218E0,-6.15403E-1,5.9823E-1,-1.5528737E0,-1.8108559E-1,2.0307016E0,7.071897E0,1.9422845E0,4.27614E0,6.2057685E-2,6.7696056E0,3.015776E0,-5.7046523E0,-8.870762E-1,-1.7705597E0,4.549201E0,1.2046455E0,7.5094733E0,1.3100542E0,-8.767862E0,1.0519338E1,5.478047E-1,5.6577034E0,-6.4027357E0,1.17034E1,3.5591564E0,-6.1779726E-1,5.1971035E0,-1.0188989E1,-4.1081315E-1,6.75396E0,-3.4513662E0,-2.5584698E-1,-1.6722864E0,-5.2546587E0,-1.0964618E0,1.4472497E0,-2.60625E0,-3.889474E0,5.10349E0,4.0514855E0,-1.3126706E0,-1.6229936E0,-7.4854865E0,8.13206E0,-2.2208062E-1],"categories":[],"categories_nodes":[],"categories_segments":[],"categories_sizes":[],"default_left":[0,0,0,0,0,0,0,0,0,0,0,0,0,0,0,0,0,0,0,0,0,0,0,0,0,0,0,0,0,0,0,0,0,0,0,0,0,0,0,0,0,0,0,0,0,0,0,0,0,0,0,0,0,0,0,0,0,0,0,0,0,0,0,0,0,0,0,0,0,0,0,0,0,0,0,0,0,0,0,0,0,0,0,0,0,0,0,0,0,0,0,0,0,0,0,0,0,0,0,0,0,0,0,0,0,0,0,0,0,0,0,0,0],"id":6,"left_children":[1,3,5,7,9,11,13,15,17,19,21,23,25,27,29,31,33,35,37,39,41,43,45,47,49,51,53,55,57,59,61,63,65,67,69,71,-1,73,-1,75,-1,-1,77,79,-1,81,83,85,87,89,91,93,-1,95,97,99,101,-1,103,105,107,109,111,-1,-1,-1,-1,-1,-1,-1,-1,-1,-1,-1,-1,-1,-1,-1,-1,-1,-1,-1,-1,-1,-1,-1,-1,-1,-1,-1,-1,-1,-1,-1,-1,-1,-1,-1,-1,-1,-1,-1,-1,-1,-1,-1,-1,-1,-1,-1,-1,-1,-1],"loss_changes":[1.2779695E4,2.3366396E3,3.7049146E3,1.2791467E3,1.8050293E3,6.0631094E3,2.7370117E3,6.1820605E2,9.73434E2,2.6306597E3,2.3914873E3,3.9501763E3,3.6523086E3,2.0823828E3,2.5502212E3,8.841772E2,4.9145923E2,3.4846863E2,1.1384878E3,3.987631E3,6.585615E2,3.3372302E2,1.5709121E3,2.0627058E3,3.0178672E3,3.4224795E3,3.3163306E3,2.4406768E3,7.001472E2,1.3763972E3,3.0571018E3,1.2275348E2,2.1782883E2,2.8753003E2,1.0076552E2,4.168492E1,0E0,6.4699707E0,0E0,1.2121714E3,0E0,0E0,6.519209E2,1.2555798E2,0E0,9.9649194E2,1.2960542E3,9.110286E3,6.451434E3,4.3973413E3,4.1123223E3,3.5622175E3,0E0,8.493506E2,3.7575796E3,2.7453313E3,5.070665E3,0E0,3.8001688E2,1.3993218E3,3.2159482E3,3.8130762E2,1.4861235E3,0E0,0E0,0E0,0E0,0E0,0E0,0E0,0E0,0E0,0E0,0E0,0E0,0E0,0E0,0E0,0E0,0E0,0E0,0E0,0E0,0E0,0E0,0E0,0E0,0E0,0E0,0E0,0E0,0E0,0E0,0E0,0E0,0E0,0E0,0E0,0E0,0E0,0E0,0E0,0E0,0E0,0E0,0E0,0E0,0E0,0E0,0E0,0E0,0E0,0E0],"parents":[2147483647,0,0,1,1,2,2,3,3,4,4,5,5,6,6,7,7,8,8,9,9,10,10,11,11,12,12,13,13,14,14,15,15,16,16,17,17,18,18,19,19,20,20,21,21,22,22,23,23,24,24,25,25,26,26,27,27,28,28,29,29,30,30,31,31,32,32,33,33,34,34,35,35,37,37,39,39,42,42,43,43,45,45,46,46,47,47,48,48,49,49,50,50,51,51,53,53,54,54,55,55,56,56,58,58,59,59,60,60,61,61,62,62],"right_children":[2,4,6,8,10,12,14,16,18,20,22,24,26,28,30,32,34,36,38,40,42,44,46,48,50,52,54,56,58,60,62,64,66,68,70,72,-1,74,-1,76,-1,-1,78,80,-1,82,84,86,88,90,92,94,-1,96,98,100,102,-1,104,106,108,110,112,-1,-1,-1,-1,-1,-1,-1,-1,-1,-1,-1,-1,-1,-1,-1,-1,-1,-1,-1,-1,-1,-1,-1,-1,-1,-1,-1,-1,-1,-1,-1,-1,-1,-1,-1,-1,-1,-1,-1,-1,-1,-1,-1,-1,-1,-1,-1,-1,-1,-1],"split_conditions":[1.1109334E1,3.7405832E0,1E-1,1.0462087E2,1.4371283E1,1.8632248E1,2.7176E1,2.3673822E1,9.021574E0,7.1405835E0,1.6271454E1,1.6228086E1,1.5856356E1,4.1300003E1,1.4386494E1,2.7155821E0,1.4154915E1,8.049845E0,1.1659777E1,6.6739163E0,1.8298671E0,7.676E0,7.69592E0,1.1269782E1,8.12197E0,1.5629971E1,1.6489416E1,2.4890581E1,2.3223913E1,3.742265E1,1.51884165E1,4E-1,3.067666E0,7.723446E1,1.873917E0,1E-1,-3.4452636E0,2.7155821E0,-2.7115974E0,3E-1,-7.7925563E0,-1.2281938E0,1.152114E1,2.2999997E0,4.553467E-1,3.865983E1,7.8999996E0,1.0308831E1,1.2015589E1,4.4530037E1,9.107359E0,3.1662225E2,9.892023E0,3.266558E1,1.6870138E1,1.8990659E2,2.5298918E1,-5.3987656E0,2.3432251E1,2E-1,6E-1,2.7469748E1,1.5379206E1,3.7974015E-1,4.6472754E0,-2.05933E-1,-3.8949955E0,-4.943218E0,-6.15403E-1,5.9823E-1,-1.5528737E0,-1.8108559E-1,2.0307016E0,7.071897E0,1.9422845E0,4.27614E0,6.2057685E-2,6.7696056E0,3.015776E0,-5.7046523E0,-8.870762E-1,-1.7705597E0,4.549201E0,1.2046455E0,7.5094733E0,1.3100542E0,-8.767862E0,1.0519338E1,5.478047E-1,5.6577034E0,-6.4027357E0,1.17034E1,3.5591564E0,-6.1779726E-1,5.1971035E0,-1.0188989E1,-4.1081315E-1,6.75396E0,-3.4513662E0,-2.5584698E-1,-1.6722864E0,-5.2546587E0,-1.0964618E0,1.4472497E0,-2.60625E0,-3.889474E0,5.10349E0,4.0514855E0,-1.3126706E0,-1.6229936E0,-7.4854865E0,8.13206E0,-2.2208062E-1],"split_indices":[0,0,1,3,3,0,0,3,2,0,3,0,2,1,2,0,2,2,2,0,3,0,2,2,2,2,2,0,0,3,2,1,0,3,0,1,0,0,0,1,0,0,3,1,0,3,1,2,2,3,2,3,0,0,2,3,0,0,0,1,1,0,2,0,0,0,0,0,0,0,0,0,0,0,0,0,0,0,0,0,0,0,0,0,0,0,0,0,0,0,0,0,0,0,0,0,0,0,0,0,0,0,0,0,0,0,0,0,0,0,0,0,0],"split_type":[0,0,0,0,0,0,0,0,0,0,0,0,0,0,0,0,0,0,0,0,0,0,0,0,0,0,0,0,0,0,0,0,0,0,0,0,0,0,0,0,0,0,0,0,0,0,0,0,0,0,0,0,0,0,0,0,0,0,0,0,0,0,0,0,0,0,0,0,0,0,0,0,0,0,0,0,0,0,0,0,0,0,0,0,0,0,0,0,0,0,0,0,0,0,0,0,0,0,0,0,0,0,0,0,0,0,0,0,0,0,0,0,0],"sum_hessian":[1.833E3,4.65E2,1.368E3,3.6E1,4.29E2,3.66E2,1.002E3,2.7E1,9E0,5.3E1,3.76E2,1.45E2,2.21E2,8.94E2,1.08E2,8E0,1.9E1,4E0,5E0,2.7E1,2.6E1,6E0,3.7E2,9.2E1,5.3E1,1.94E2,2.7E1,8.73E2,2.1E1,5.5E1,5.3E1,3E0,5E0,1E1,9E0,2E0,2E0,4E0,1E0,2.4E1,3E0,1E0,2.5E1,5E0,1E0,2.1E1,3.49E2,5E1,4.2E1,9E0,4.4E1,1.92E2,2E0,7E0,2E1,6.86E2,1.87E2,1.1E1,1E1,1.6E1,3.9E1,7E0,4.6E1,1E0,2E0,3E0,2E0,8E0,2E0,2E0,7E0,1E0,1E0,3E0,1E0,1.3E1,1.1E1,1.6E1,9E0,4E0,1E0,2E0,1.9E1,3.47E2,2E0,4.1E1,9E0,6E0,3.6E1,4E0,5E0,6E0,3.8E1,1.83E2,9E0,6E0,1E0,3E0,1.7E1,5.26E2,1.6E2,3.1E1,1.56E2,2E0,8E0,1E0,1.5E1,1.7E1,2.2E1,2E0,5E0,1E0,4.5E1],"tree_param":{"num_deleted":"0","num_feature":"4","num_nodes":"113","size_leaf_vector":"1"}},{"base_weights":[2.8692741E-2,2.6132195E0,-1.4472558E0,2.3836634E0,2.1224926E1,4.8397118E-1,-2.1212912E0,3.2521029E0,-2.945984E0,1.0670158E1,-2.009138E0,7.030754E0,-1.4765365E0,-8.594189E0,-1.7476966E0,8.7034445E0,2.579055E0,-1.0451882E1,-3.3044755E-1,-4.1041994E0,1.9324776E0,1.4124948E1,-9.08953E0,-1.6990955E1,2.9513463E-1,4.7922125E0,-1.3320732E1,5.461102E0,-2.273115E0,9.837706E0,-9.072979E0,3.8830767E0,-1.0430125E0,4.05557E-1,-1.9670143E1,2.2309914E0,-9.871123E0,-1.3336759E1,1.6862362E1,4.137286E-2,-1.003365E1,9.624437E0,-2.6397446E1,1.6188946E1,-1.0919932E0,-8.058065E0,9.668266E0,-1.7700783E1,-2.155094E0,-1.2579413E1,1.3647466E1,-9.112711E0,-1.9523236E0,1.9799426E0,6.3856034E0,9.96439E-1,8.727455E0,-7.231764E-1,3.5929766E0,-2.4526854E0,5.883543E0,3.9014146E0,-7.0430326E0,4.3748603E0,-5.527299E-1,1.7580632E0,-3.424013E0,-7.449185E0,4.895801E0,-6.259517E0,5.7307076E0,-5.5610414E0,1.6039406E0,-2.715635E0,5.671645E0,4.870885E-1,-1.0355832E1,7.5192785E-1,1.0613203E1,-6.5112895E-1,3.3326004E0,-4.824703E0,4.041379E0,1.5983728E0,-7.1173058E0,1.961332E0,-2.4169242E0,-5.025028E0,4.8431304E-1,1.9584097E0,8.215253E0,-7.0494585E0,-6.4190036E-1,-7.223328E-1,5.859748E-1],"categories":[],"categories_nodes":[],"categories_segments":[],"categories_sizes":[],"default_left":[0,0,0,0,0,0,0,0,0,0,0,0,0,0,0,0,0,0,0,0,0,0,0,0,0,0,0,0,0,0,0,0,0,0,0,0,0,0,0,0,0,0,0,0,0,0,0,0,0,0,0,0,0,0,0,0,0,0,0,0,0,0,0,0,0,0,0,0,0,0,0,0,0,0,0,0,0,0,0,0,0,0,0,0,0,0,0,0,0,0,0,0,0,0,0],"id":7,"left_children":[1,3,5,7,9,11,13,15,17,-1,19,21,23,25,27,29,31,33,35,-1,-1,37,39,41,43,45,47,49,51,53,-1,55,57,59,61,63,65,67,69,71,-1,73,75,77,79,-1,81,83,85,87,89,91,93,-1,-1,-1,-1,-1,-1,-1,-1,-1,-1,-1,-1,-1,-1,-1,-1,-1,-1,-1,-1,-1,-1,-1,-1,-1,-1,-1,-1,-1,-1,-1,-1,-1,-1,-1,-1,-1,-1,-1,-1,-1,-1],"loss_changes":[6.9998105E3,2.7991157E3,1.5214299E3,3.064374E3,2.7372925E3,3.8993916E3,2.0791748E3,2.0615532E3,1.8223176E3,0E0,4.8265692E2,8.133619E3,6.4368433E3,3.0375916E3,3.1182742E3,3.0364219E3,2.39874E3,2.410058E3,1.7326725E3,0E0,0E0,3.908417E3,4.8940073E3,6.262638E3,4.669542E3,2.2660981E3,1.6735664E3,8.4421045E3,1.6606836E3,2.120563E3,0E0,5.1840854E3,2.4325847E3,2.138085E3,1.9222632E3,2.844476E3,4.3081018E2,2.1095337E3,4.2014883E3,1.7746094E3,0E0,1.3845E3,4.1526133E3,4.3746045E3,2.5898499E3,0E0,1.3918029E3,3.594273E3,6.1696423E2,1.0926008E3,3.6353418E3,3.3602815E3,1.3067864E3,0E0,0E0,0E0,0E0,0E0,0E0,0E0,0E0,0E0,0E0,0E0,0E0,0E0,0E0,0E0,0E0,0E0,0E0,0E0,0E0,0E0,0E0,0E0,0E0,0E0,0E0,0E0,0E0,0E0,0E0,0E0,0E0,0E0,0E0,0E0,0E0,0E0,0E0,0E0,0E0,0E0,0E0],"parents":[2147483647,0,0,1,1,2,2,3,3,4,4,5,5,6,6,7,7,8,8,10,10,11,11,12,12,13,13,14,14,15,15,16,16,17,17,18,18,21,21,22,22,23,23,24,24,25,25,26,26,27,27,28,28,29,29,31,31,32,32,33,33,34,34,35,35,36,36,37,37,38,38,39,39,41,41,42,42,43,43,44,44,46,46,47,47,48,48,49,49,50,50,51,51,52,52],"right_children":[2,4,6,8,10,12,14,16,18,-1,20,22,24,26,28,30,32,34,36,-1,-1,38,40,42,44,46,48,50,52,54,-1,56,58,60,62,64,66,68,70,72,-1,74,76,78,80,-1,82,84,86,88,90,92,94,-1,-1,-1,-1,-1,-1,-1,-1,-1,-1,-1,-1,-1,-1,-1,-1,-1,-1,-1,-1,-1,-1,-1,-1,-1,-1,-1,-1,-1,-1,-1,-1,-1,-1,-1,-1,-1,-1,-1,-1,-1,-1],"split_conditions":[1.4684334E1,1.4630169E1,1E-1,2.1000001E0,1.2015589E1,4.4530037E1,2E-1,8.14587E0,2.6E0,1.0670158E1,1E-1,2.3153084E1,7.093075E1,8.350138E0,3E-1,1.4265584E1,1.4011736E2,8.103084E0,2.0230621E2,-4.1041994E0,1.9324776E0,1.5711417E1,1.4494192E1,1.5813502E1,1.0462087E2,1.58455105E1,2.6744751E1,9.290511E0,4E-1,2.5383977E2,-9.072979E0,1.3065668E2,3.519706E2,7.676E0,7.6367526E0,1.1269782E1,2.6999996E0,1.3684735E1,7.2805495E0,2.4698915E1,-1.003365E1,4.946866E1,4.899101E1,1.1457958E1,3.2195282E2,-8.058065E0,1.4898917E1,2.5428825E1,2.8417665E1,1.5694867E2,1.5137133E1,3.535638E1,2.065848E1,1.9799426E0,6.3856034E0,9.96439E-1,8.727455E0,-7.231764E-1,3.5929766E0,-2.4526854E0,5.883543E0,3.9014146E0,-7.0430326E0,4.3748603E0,-5.527299E-1,1.7580632E0,-3.424013E0,-7.449185E0,4.895801E0,-6.259517E0,5.7307076E0,-5.5610414E0,1.6039406E0,-2.715635E0,5.671645E0,4.870885E-1,-1.0355832E1,7.5192785E-1,1.0613203E1,-6.5112895E-1,3.3326004E0,-4.824703E0,4.041379E0,1.5983728E0,-7.1173058E0,1.961332E0,-2.4169242E0,-5.025028E0,4.8431304E-1,1.9584097E0,8.215253E0,-7.0494585E0,-6.4190036E-1,-7.223328E-1,5.859748E-1],"split_indices":[0,0,1,1,2,3,1,2,1,0,1,0,3,2,1,0,3,0,3,0,0,0,2,0,3,3,0,2,1,3,0,3,3,0,2,2,1,2,2,0,0,3,3,2,3,0,0,3,0,3,2,3,2,0,0,0,0,0,0,0,0,0,0,0,0,0,0,0,0,0,0,0,0,0,0,0,0,0,0,0,0,0,0,0,0,0,0,0,0,0,0,0,0,0,0],"split_type":[0,0,0,0,0,0,0,0,0,0,0,0,0,0,0,0,0,0,0,0,0,0,0,0,0,0,0,0,0,0,0,0,0,0,0,0,0,0,0,0,0,0,0,0,0,0,0,0,0,0,0,0,0,0,0,0,0,0,0,0,0,0,0,0,0,0,0,0,0,0,0,0,0,0,0,0,0,0,0,0,0,0,0,0,0,0,0,0,0,0,0,0,0,0,0],"sum_hessian":[1.833E3,6.66E2,1.167E3,6.59E2,7E0,3.02E2,8.65E2,5.67E2,9.2E1,4E0,3E0,6.9E1,2.33E2,4.6E1,8.19E2,6.1E1,5.06E2,2.3E1,6.9E1,1E0,2E0,4.8E1,2.1E1,2.3E1,2.1E2,1.2E1,3.4E1,5.5E1,7.64E2,6E1,1E0,3.72E2,1.34E2,1.1E1,1.2E1,5.5E1,1.4E1,4E0,4.4E1,1.6E1,5E0,6E0,1.7E1,1.6E1,1.94E2,1E0,1.1E1,2.4E1,1E1,1.7E1,3.8E1,3.3E1,7.31E2,4.8E1,1.2E1,3.65E2,7E0,1.22E2,1.2E1,8E0,3E0,1E0,1.1E1,1.3E1,4.2E1,1E0,1.3E1,3E0,1E0,2E0,4.2E1,3E0,1.3E1,2E0,4E0,4E0,1.3E1,1E1,6E0,1.79E2,1.5E1,1E0,1E1,5E0,1.9E1,4E0,6E0,1.3E1,4E0,2.6E1,1.2E1,1E1,2.3E1,6.55E2,7.6E1],"tree_param":{"num_deleted":"0","num_feature":"4","num_nodes":"95","size_leaf_vector":"1"}},{"base_weights":[1.7839009E-2,1.762567E0,-1.2953067E0,1.5458746E0,2.2696846E1,-1.1329846E0,-9.1719475E0,2.3211727E0,-2.1812642E0,-5.551877E0,3.1226755E1,-1.4083085E0,3.5770578E0,-4.9111943E0,-1.6991854E1,-1.6047777E1,2.5181484E0,-2.7140825E0,1.2214827E1,3.8356514E1,-1.7327706E0,-8.0164677E-1,-6.7437363E0,2.0213465E1,-1.7976409E0,2.9616406E0,-9.143776E0,-5.9415474E0,-6.6390624E0,5.5474186E0,-2.4886206E1,2.1748444E1,2.3632512E0,-2.0914083E0,-8.575313E0,1.8601594E0,5.4408016E0,2.8301275E0,1.2676295E1,-1.1605909E0,7.576044E0,-2.5715487E1,-1.6152493E0,-3.3261974E0,2.4413923E1,1.4809351E1,-7.1176195E0,2.2347915E0,-4.0091248E0,-1.2193135E1,-1.5214529E0,-2.3768091E0,-6.107689E-1,-1.3970375E0,-8.400219E0,1.4129174E0,7.449208E0,-2.5631008E0,7.759002E-1,-1.0918329E-2,-1.8181484E0,-3.968217E-1,4.176607E0,5.467742E0,4.4752637E-1,-9.422553E0,-1.8744531E0,-6.3212523E0,7.608505E-1,-1.5865918E0,8.9802936E-2,-2.1533318E0,8.381527E0,6.6109047E0,-3.5424273E0,-3.750626E0,1.5832099E0,-3.6795503E-1,-1.4361511E0,7.255051E-1,-4.509433E0,-7.032265E-1,1.4196797E-1],"categories":[],"categories_nodes":[],"categories_segments":[],"categories_sizes":[],"default_left":[0,0,0,0,0,0,0,0,0,0,0,0,0,0,0,0,0,0,0,0,0,0,0,0,0,0,0,0,0,0,0,0,0,0,0,0,0,0,0,0,0,0,0,0,0,0,0,0,0,0,0,0,0,0,0,0,0,0,0,0,0,0,0,0,0,0,0,0,0,0,0,0,0,0,0,0,0,0,0,0,0,0,0],"id":8,"left_children":[1,3,5,7,9,11,13,15,17,-1,19,21,23,25,27,29,31,33,35,37,-1,39,41,43,45,47,49,-1,51,-1,53,55,57,59,-1,-1,-1,-1,-1,61,63,65,67,69,71,73,75,-1,77,79,81,-1,-1,-1,-1,-1,-1,-1,-1,-1,-1,-1,-1,-1,-1,-1,-1,-1,-1,-1,-1,-1,-1,-1,-1,-1,-1,-1,-1,-1,-1,-1,-1],"loss_changes":[4.204128E3,3.5395183E3,1.3282528E3,2.2618745E3,3.38956E3,1.3368376E3,6.1624207E2,2.381411E3,1.0686694E3,0E0,2.0682827E3,3.1375264E3,5.1330293E3,5.269169E2,7.239111E1,2.5970845E3,1.8579636E3,2.050466E3,6.560571E1,2.7779395E2,0E0,2.6340115E3,9.590805E3,1.4654897E3,3.9927563E3,2.175599E2,2.1388074E2,0E0,1.5965576E0,0E0,2.4763647E2,1.4564209E2,1.5720105E3,1.0519714E3,0E0,0E0,0E0,0E0,0E0,2.0678425E3,2.305476E3,2.1311387E3,6.434134E3,2.2927856E1,1.5366743E3,2.3762131E3,2.3351514E3,0E0,6.234436E-1,3.266543E2,7.672861E0,0E0,0E0,0E0,0E0,0E0,0E0,0E0,0E0,0E0,0E0,0E0,0E0,0E0,0E0,0E0,0E0,0E0,0E0,0E0,0E0,0E0,0E0,0E0,0E0,0E0,0E0,0E0,0E0,0E0,0E0,0E0,0E0],"parents":[2147483647,0,0,1,1,2,2,3,3,4,4,5,5,6,6,7,7,8,8,10,10,11,11,12,12,13,13,14,14,15,15,16,16,17,17,18,18,19,19,21,21,22,22,23,23,24,24,25,25,26,26,28,28,30,30,31,31,32,32,33,33,39,39,40,40,41,41,42,42,43,43,44,44,45,45,46,46,48,48,49,49,50,50],"right_children":[2,4,6,8,10,12,14,16,18,-1,20,22,24,26,28,30,32,34,36,38,-1,40,42,44,46,48,50,-1,52,-1,54,56,58,60,-1,-1,-1,-1,-1,62,64,66,68,70,72,74,76,-1,78,80,82,-1,-1,-1,-1,-1,-1,-1,-1,-1,-1,-1,-1,-1,-1,-1,-1,-1,-1,-1,-1,-1,-1,-1,-1,-1,-1,-1,-1,-1,-1,-1,-1],"split_conditions":[1.6546833E1,1.6421831E1,4.1300003E1,2E0,8.209263E0,2.1767351E1,3.4804077E1,6.28713E0,2.8227304E1,-5.551877E0,8.000001E-1,1.7283749E1,1.968225E1,1.6299694E1,2.9168886E1,6.12E0,6.6087217E0,2.4569836E1,1.5878083E1,1.8298671E0,-1.7327706E0,1.6548256E1,1.7673029E1,2.2238562E1,2.2657131E1,2.3037603E1,2.3037603E1,-5.9415474E0,1.8401001E1,5.5474186E0,7.1405835E0,3.9957485E1,3.2518578E0,1.420062E1,-8.575313E0,1.8601594E0,5.4408016E0,2.8301275E0,1.2676295E1,3.1099998E1,1.1E0,2.610517E1,1.9403084E1,1.711975E1,8.000001E-1,2.7469748E1,2.4421831E1,2.2347915E0,2.4759336E1,5.15E1,2.2926E1,-2.3768091E0,-6.107689E-1,-1.3970375E0,-8.400219E0,1.4129174E0,7.449208E0,-2.5631008E0,7.759002E-1,-1.0918329E-2,-1.8181484E0,-3.968217E-1,4.176607E0,5.467742E0,4.4752637E-1,-9.422553E0,-1.8744531E0,-6.3212523E0,7.608505E-1,-1.5865918E0,8.9802936E-2,-2.1533318E0,8.381527E0,6.6109047E0,-3.5424273E0,-3.750626E0,1.5832099E0,-3.6795503E-1,-1.4361511E0,7.255051E-1,-4.509433E0,-7.032265E-1,1.4196797E-1],"split_indices":[0,0,1,1,2,2,3,2,2,0,1,2,0,2,2,2,2,2,0,3,0,2,2,2,2,3,3,0,0,0,0,3,3,2,0,0,0,0,0,1,1,0,0,0,1,0,0,0,0,1,0,0,0,0,0,0,0,0,0,0,0,0,0,0,0,0,0,0,0,0,0,0,0,0,0,0,0,0,0,0,0,0,0],"split_type":[0,0,0,0,0,0,0,0,0,0,0,0,0,0,0,0,0,0,0,0,0,0,0,0,0,0,0,0,0,0,0,0,0,0,0,0,0,0,0,0,0,0,0,0,0,0,0,0,0,0,0,0,0,0,0,0,0,0,0,0,0,0,0,0,0,0,0,0,0,0,0,0,0,0,0,0,0,0,0,0,0,0,0],"sum_hessian":[1.833E3,7.87E2,1.046E3,7.8E2,7E0,1.026E3,2E1,6.46E2,1.34E2,1E0,6E0,9.7E2,5.6E1,1.4E1,6E0,6E0,6.4E2,1.3E2,4E0,5E0,1E0,8.72E2,9.8E1,1.3E1,4.3E1,5E0,9E0,4E0,2E0,1E0,5E0,4E0,6.36E2,1.28E2,2E0,3E0,1E0,1E0,4E0,8.37E2,3.5E1,2E1,7.8E1,2E0,1.1E1,1E1,3.3E1,3E0,2E0,6E0,3E0,1E0,1E0,1E0,4E0,1E0,3E0,1.2E1,6.24E2,8.5E1,4.3E1,8.29E2,8E0,1.2E1,2.3E1,1.5E1,5E0,1.3E1,6.5E1,1E0,1E0,1E0,1E1,8E0,2E0,2.3E1,1E1,1E0,1E0,1E0,5E0,2E0,1E0],"tree_param":{"num_deleted":"0","num_feature":"4","num_nodes":"83","size_leaf_vector":"1"}},{"base_weights":[8.981114E-3,1.2438787E0,-9.204442E-1,1.0817571E0,1.6915516E1,-2.6319423E0,-4.1915503E-1,-8.135583E0,1.2606076E0,-4.719095E0,2.3826395E1,-1.1514965E1,-2.0095618E0,1.9819374E1,-6.454659E-1,-9.969753E0,2.6314201E0,7.538938E0,8.122736E-1,2.9433966E1,-1.4728546E0,9.4100334E-2,-7.847045E0,3.6656952E-1,2.5324951E1,1.3915117E1,-8.4662724E-1,-2.1062841E0,-1.7532324E1,2.142355E0,1.6515165E1,-1.588468E1,1.0709076E0,2.405609E0,9.633985E0,8.02694E0,-3.7421077E-1,-1.341945E1,3.8472456E-1,-5.2614903E-1,6.911053E-1,8.493621E0,1.110339E0,6.528238E0,-5.2550106E0,-6.247212E0,-5.1337385E-1,-2.122282E0,4.900446E0,-8.048413E-1,-5.8680334E0,1.6638159E0,-5.4082685E0,8.3752126E-1,5.996589E0,2.0216732E0,-7.563267E0,2.4795933E0,1.9838054E-1,-1.6269151E0,7.2112435E-1,-1.6339017E0,-7.425077E0,9.718417E0,-2.0723288E0,5.704023E0,-5.9046865E0,-2.6490333E0,3.7331383E0,2.0434165E0,-2.4548483E-1],"categories":[],"categories_nodes":[],"categories_segments":[],"categories_sizes":[],"default_left":[0,0,0,0,0,0,0,0,0,0,0,0,0,0,0,0,0,0,0,0,0,0,0,0,0,0,0,0,0,0,0,0,0,0,0,0,0,0,0,0,0,0,0,0,0,0,0,0,0,0,0,0,0,0,0,0,0,0,0,0,0,0,0,0,0,0,0,0,0,0,0],"id":9,"left_children":[1,3,5,7,9,11,13,15,17,-1,19,-1,21,23,25,27,-1,29,31,33,-1,35,37,39,41,43,45,47,49,51,53,55,57,-1,-1,-1,59,61,63,-1,-1,-1,-1,-1,65,67,69,-1,-1,-1,-1,-1,-1,-1,-1,-1,-1,-1,-1,-1,-1,-1,-1,-1,-1,-1,-1,-1,-1,-1,-1],"loss_changes":[2.1061094E3,1.9837819E3,8.971761E2,1.2977548E3,2.1796877E3,5.196329E3,3.7273337E3,5.52603E2,2.1528193E3,0E0,1.272477E3,0E0,2.87428E3,9.546072E2,2.3637893E3,7.9562476E2,0E0,2.4351072E3,3.1133032E3,8.6762695E1,0E0,2.1701394E3,2.8491494E3,1.6362642E1,3.473628E2,1.7687817E3,1.4240049E3,8.484786E2,1.5830542E2,2.365507E3,8.4988574E2,2.4908103E3,2.0781401E3,0E0,0E0,0E0,2.4113901E3,3.2078477E3,6.293021E3,0E0,0E0,0E0,0E0,0E0,1.7747361E3,2.3306204E3,1.6761455E3,0E0,0E0,0E0,0E0,0E0,0E0,0E0,0E0,0E0,0E0,0E0,0E0,0E0,0E0,0E0,0E0,0E0,0E0,0E0,0E0,0E0,0E0,0E0,0E0],"parents":[2147483647,0,0,1,1,2,2,3,3,4,4,5,5,6,6,7,7,8,8,10,10,12,12,13,13,14,14,15,15,17,17,18,18,19,19,21,21,22,22,23,23,24,24,25,25,26,26,27,27,28,28,29,29,30,30,31,31,32,32,36,36,37,37,38,38,44,44,45,45,46,46],"right_children":[2,4,6,8,10,12,14,16,18,-1,20,-1,22,24,26,28,-1,30,32,34,-1,36,38,40,42,44,46,48,50,52,54,56,58,-1,-1,-1,60,62,64,-1,-1,-1,-1,-1,66,68,70,-1,-1,-1,-1,-1,-1,-1,-1,-1,-1,-1,-1,-1,-1,-1,-1,-1,-1,-1,-1,-1,-1,-1,-1],"split_conditions":[1.6546833E1,1.6421831E1,2.3037603E1,3.2518578E0,8.209263E0,1.6584332E1,2.3962479E1,1.4336861E1,1.152114E1,-4.719095E0,8.000001E-1,-1.1514965E1,1.6981165E1,2.1176E1,1.6630165E1,6E-1,2.6314201E0,9.904134E0,1.2528798E1,1.8298671E0,-1.4728546E0,7.2805495E0,1.2100002E1,1.6901001E1,1.8000003E0,1.6922482E2,7.42159E0,4E-1,6.1260014E0,1.4973577E1,5.290583E0,5.9385E0,1.7309902E1,2.405609E0,9.633985E0,8.02694E0,2.1176E1,4.3E0,1.3600001E1,-5.2614903E-1,6.911053E-1,8.493621E0,1.110339E0,6.528238E0,1.0538843E1,2.4299875E2,2.5948343E1,-2.122282E0,4.900446E0,-8.048413E-1,-5.8680334E0,1.6638159E0,-5.4082685E0,8.3752126E-1,5.996589E0,2.0216732E0,-7.563267E0,2.4795933E0,1.9838054E-1,-1.6269151E0,7.2112435E-1,-1.6339017E0,-7.425077E0,9.718417E0,-2.0723288E0,5.704023E0,-5.9046865E0,-2.6490333E0,3.7331383E0,2.0434165E0,-2.4548483E-1],"split_indices":[0,0,3,3,2,0,3,2,3,0,1,0,2,0,0,1,0,3,3,3,0,2,1,0,1,3,2,1,0,2,0,0,3,0,0,0,0,1,1,0,0,0,0,0,2,3,3,0,0,0,0,0,0,0,0,0,0,0,0,0,0,0,0,0,0,0,0,0,0,0,0],"split_type":[0,0,0,0,0,0,0,0,0,0,0,0,0,0,0,0,0,0,0,0,0,0,0,0,0,0,0,0,0,0,0,0,0,0,0,0,0,0,0,0,0,0,0,0,0,0,0,0,0,0,0,0,0,0,0,0,0,0,0,0,0,0,0,0,0,0,0,0,0,0,0],"sum_hessian":[1.833E3,7.87E2,1.046E3,7.8E2,7E0,2.36E2,8.1E2,1.4E1,7.66E2,1E0,6E0,3E0,2.33E2,8E0,8.02E2,1.3E1,1E0,5E1,7.16E2,5E0,1E0,1.72E2,6.1E1,2E0,6E0,1E1,7.92E2,7E0,6E0,3.2E1,1.8E1,1E1,7.06E2,1E0,4E0,2E0,1.7E2,3.6E1,2.5E1,1E0,1E0,5E0,1E0,7E0,3E0,4.5E1,7.47E2,6E0,1E0,1E0,5E0,2.8E1,4E0,4E0,1.4E1,3E0,7E0,3.7E1,6.69E2,6E1,1.1E2,2.2E1,1.4E1,4E0,2.1E1,1E0,2E0,4E1,5E0,2.9E1,7.18E2],"tree_param":{"num_deleted":"0","num_feature":"4","num_nodes":"71","size_leaf_vector":"1"}},{"base_weights":[1.609156E-2,1.4652095E0,-6.3854647E-1,2.3123343E0,-4.2555118E0,-8.5274434E-1,3.9121485E0,1.5521547E0,9.748183E0,1.2645067E0,-8.97914E0,-2.8626812E0,-2.9847616E-1,6.4841094E0,-8.824479E0,2.4071922E0,-6.872312E0,-5.1586185E0,1.712756E1,4.709702E0,-7.819452E0,-1.4199839E1,-3.5794685E0,5.815455E-1,-6.5575395E0,8.586305E0,-8.447451E-1,-1.6767836E-1,9.512731E0,-5.327035E0,-4.371805E0,2.8554664E0,-1.2773238E1,9.235808E0,-9.524879E0,4.1809335E0,-1.776389E1,8.752718E0,1.306897E1,3.5201922E-1,2.2941566E1,-1.7102983E1,1.0381592E1,-1.0186428E1,-4.96725E0,-1.0549476E1,-8.816732E-2,-2.325929E1,1.2941905E0,-4.676872E0,-1.8340826E1,4.9971185E0,1.5686458E1,-1.5641134E1,-3.8351557E-1,1.0709393E1,-9.817554E0,1.3360261E1,-2.2318234E0,2.0902417E0,-6.9870553E0,7.719068E-1,9.07343E0,-9.068735E0,-1.8777455E0,-5.574568E0,-1.3427634E0,3.01616E0,-3.86216E0,-9.0975065E0,-2.2853623E-1,4.6855865E0,-1.2664067E0,2.7516925E0,-1.0586575E0,9.0589E0,-9.116238E-1,-1.3511044E0,-5.535676E0,1.8401794E-1,5.9529285E0,-4.0443587E0,5.9852755E-1,-8.611176E-1,-3.9141092E0,9.1651505E-1,-4.1038165E0,-6.8411523E-1,-8.84764E0,8.596731E-1,-2.1668978E0,-1.079408E0,-4.531657E0,5.1176226E-1,-6.3382335E0,3.5536056E0,-2.2766418E0,7.0805717E0,-2.8842263E0,-7.0471625E0,1.557335E-2,1.4383471E0,-3.589779E-1,-1.9349087E0,6.6884356E0,1.7570721E0,-3.752693E0,1.5931069E0,5.7917624E0,3.7878788E0,-2.4842227E0,3.1845018E-1,-2.5516195E0],"categories":[],"categories_nodes":[],"categories_segments":[],"categories_sizes":[],"default_left":[0,0,0,0,0,0,0,0,0,0,0,0,0,0,0,0,0,0,0,0,0,0,0,0,0,0,0,0,0,0,0,0,0,0,0,0,0,0,0,0,0,0,0,0,0,0,0,0,0,0,0,0,0,0,0,0,0,0,0,0,0,0,0,0,0,0,0,0,0,0,0,0,0,0,0,0,0,0,0,0,0,0,0,0,0,0,0,0,0,0,0,0,0,0,0,0,0,0,0,0,0,0,0,0,0,0,0,0,0,0,0,0,0],"id":10,"left_children":[1,3,5,7,9,11,13,15,17,19,21,23,25,27,29,31,33,35,37,39,41,43,45,47,49,51,53,55,57,-1,59,61,63,-1,65,67,69,-1,71,73,75,77,79,81,-1,83,85,87,89,91,93,95,97,99,101,103,105,107,109,-1,111,-1,-1,-1,-1,-1,-1,-1,-1,-1,-1,-1,-1,-1,-1,-1,-1,-1,-1,-1,-1,-1,-1,-1,-1,-1,-1,-1,-1,-1,-1,-1,-1,-1,-1,-1,-1,-1,-1,-1,-1,-1,-1,-1,-1,-1,-1,-1,-1,-1,-1,-1,-1],"loss_changes":[1.7407554E3,2.7770002E3,1.2354192E3,2.7998547E3,1.9408685E3,1.3449106E3,1.9244309E3,3.2796084E3,5.148487E3,1.1321876E3,1.0767744E3,3.325281E3,4.608352E3,9.685912E2,3.2009717E2,2.840132E3,4.488667E3,1.9579109E3,1.1345596E3,2.0575898E3,1.8672559E3,2.058374E1,5.100921E2,2.3407495E3,2.706438E3,1.32322E3,6.0951333E3,1.7845383E3,1.5210056E3,0E0,2.859225E2,3.0242913E3,1.1753007E3,0E0,1.7459849E3,1.1310491E3,1.4718582E3,0E0,1.1680391E3,7.854378E2,1.0341643E3,3.589612E1,3.575157E2,4.2824878E2,0E0,9.680243E1,6.825936E2,4.557793E2,1.8007412E3,1.1832488E3,9.857031E2,3.3651628E3,3.8316826E3,3.327109E3,3.6601208E3,1.7341527E3,4.529431E2,1.0940195E3,9.134329E2,0E0,9.457175E1,0E0,0E0,0E0,0E0,0E0,0E0,0E0,0E0,0E0,0E0,0E0,0E0,0E0,0E0,0E0,0E0,0E0,0E0,0E0,0E0,0E0,0E0,0E0,0E0,0E0,0E0,0E0,0E0,0E0,0E0,0E0,0E0,0E0,0E0,0E0,0E0,0E0,0E0,0E0,0E0,0E0,0E0,0E0,0E0,0E0,0E0,0E0,0E0,0E0,0E0,0E0,0E0],"parents":[2147483647,0,0,1,1,2,2,3,3,4,4,5,5,6,6,7,7,8,8,9,9,10,10,11,11,12,12,13,13,14,14,15,15,16,16,17,17,18,18,19,19,20,20,21,21,22,22,23,23,24,24,25,25,26,26,27,27,28,28,30,30,31,31,32,32,34,34,35,35,36,36,38,38,39,39,40,40,41,41,42,42,43,43,45,45,46,46,47,47,48,48,49,49,50,50,51,51,52,52,53,53,54,54,55,55,56,56,57,57,58,58,60,60],"right_children":[2,4,6,8,10,12,14,16,18,20,22,24,26,28,30,32,34,36,38,40,42,44,46,48,50,52,54,56,58,-1,60,62,64,-1,66,68,70,-1,72,74,76,78,80,82,-1,84,86,88,90,92,94,96,98,100,102,104,106,108,110,-1,112,-1,-1,-1,-1,-1,-1,-1,-1,-1,-1,-1,-1,-1,-1,-1,-1,-1,-1,-1,-1,-1,-1,-1,-1,-1,-1,-1,-1,-1,-1,-1,-1,-1,-1,-1,-1,-1,-1,-1,-1,-1,-1,-1,-1,-1,-1,-1,-1,-1,-1,-1,-1],"split_conditions":[1E-1,2.6744751E1,2.8090584E1,2.9704538E2,1.9440288E2,9.3876505E0,1.8709612E1,2.2320497E2,8.836417E0,1.3049689E1,2.7876001E1,8.373386E0,9.931042E0,1.1659777E1,4E-1,1.8892282E1,5.180166E0,7.457249E0,1.0244751E1,1.1792404E1,2.9538504E1,2.729892E1,9.793058E0,5.300846E0,2.9704538E2,9.826088E0,1.0144082E1,9.255571E0,2.9704538E2,-5.327035E0,6E-1,1.7595861E1,1.9386593E1,9.235808E0,9.19939E0,3.5335483E2,8.435069E0,8.752718E0,3.493109E2,2.7653086E1,3.217808E1,1.3339445E1,1.4494192E1,2.7217669E1,-4.96725E0,2.8367666E1,3.3712988E2,6.1260014E0,3.4999998E0,9.346143E0,4.0134993E0,9.693296E0,1.0462087E2,2.1544748E1,1.1113451E1,6.989936E0,2.8367666E1,2.5205137E1,1.3513193E1,2.0902417E0,2.8417665E1,7.719068E-1,9.07343E0,-9.068735E0,-1.8777455E0,-5.574568E0,-1.3427634E0,3.01616E0,-3.86216E0,-9.0975065E0,-2.2853623E-1,4.6855865E0,-1.2664067E0,2.7516925E0,-1.0586575E0,9.0589E0,-9.116238E-1,-1.3511044E0,-5.535676E0,1.8401794E-1,5.9529285E0,-4.0443587E0,5.9852755E-1,-8.611176E-1,-3.9141092E0,9.1651505E-1,-4.1038165E0,-6.8411523E-1,-8.84764E0,8.596731E-1,-2.1668978E0,-1.079408E0,-4.531657E0,5.1176226E-1,-6.3382335E0,3.5536056E0,-2.2766418E0,7.0805717E0,-2.8842263E0,-7.0471625E0,1.557335E-2,1.4383471E0,-3.589779E-1,-1.9349087E0,6.6884356E0,1.7570721E0,-3.752693E0,1.5931069E0,5.7917624E0,3.7878788E0,-2.4842227E0,3.1845018E-1,-2.5516195E0],"split_indices":[1,0,0,3,3,2,2,3,0,2,0,2,2,2,1,2,0,0,0,2,0,0,2,3,3,2,2,2,3,0,1,2,2,0,2,3,2,0,3,0,0,2,2,0,0,0,3,0,1,2,0,2,3,0,2,2,0,3,2,0,0,0,0,0,0,0,0,0,0,0,0,0,0,0,0,0,0,0,0,0,0,0,0,0,0,0,0,0,0,0,0,0,0,0,0,0,0,0,0,0,0,0,0,0,0,0,0,0,0,0,0,0,0],"split_type":[0,0,0,0,0,0,0,0,0,0,0,0,0,0,0,0,0,0,0,0,0,0,0,0,0,0,0,0,0,0,0,0,0,0,0,0,0,0,0,0,0,0,0,0,0,0,0,0,0,0,0,0,0,0,0,0,0,0,0,0,0,0,0,0,0,0,0,0,0,0,0,0,0,0,0,0,0,0,0,0,0,0,0,0,0,0,0,0,0,0,0,0,0,0,0,0,0,0,0,0,0,0,0,0,0,0,0,0,0,0,0,0,0],"sum_hessian":[1.833E3,5.7E2,1.263E3,4.97E2,7.3E1,1.207E3,5.6E1,4.52E2,4.5E1,3.4E1,3.9E1,2.6E2,9.47E2,4.7E1,9E0,4.11E2,4.1E1,1.5E1,3E1,2.5E1,9E0,1.9E1,2E1,1.35E2,1.25E2,5.4E1,8.93E2,1.5E1,3.2E1,2E0,7E0,4E2,1.1E1,2E0,3.9E1,9E0,6E0,6E0,2.4E1,2.1E1,4E0,6E0,3E0,9E0,1E1,6E0,1.4E1,3E0,1.32E2,1.09E2,1.6E1,3.7E1,1.7E1,2.6E1,8.67E2,7E0,8E0,2.4E1,8E0,1E0,6E0,3.97E2,3E0,2E0,9E0,1.3E1,2.6E1,7E0,2E0,3E0,3E0,2.1E1,3E0,6E0,1.5E1,3E0,1E0,1E0,5E0,2E0,1E0,7E0,2E0,2E0,4E0,1.2E1,2E0,1E0,2E0,1.12E2,2E1,1E2,9E0,2E0,1.4E1,2.4E1,1.3E1,1.3E1,4E0,1.7E1,9E0,1.17E2,7.5E2,3E0,4E0,1E0,7E0,1.1E1,1.3E1,2E0,6E0,1E0,5E0],"tree_param":{"num_deleted":"0","num_feature":"4","num_nodes":"113","size_leaf_vector":"1"}},{"base_weights":[-1.0283979E-4,4.5396462E-1,-1.1576673E0,6.565082E-1,-8.571385E0,-4.225712E0,1.1965636E-1,1.2642103E-1,3.477823E0,4.6487713E0,-9.984357E0,4.6706182E-1,-7.3765497E0,-3.1308845E-1,9.02207E0,4.9205464E-1,-7.466661E0,1.1220673E1,1.7371432E-1,-1.7152067E1,-5.6863856E0,-2.6787953E0,8.951907E0,-1.870176E1,-4.522086E0,-6.644116E-1,8.166125E0,1.7207867E1,-1.661805E-1,2.803073E-1,1.31928625E1,3.6250846E0,-1.4381765E1,1.4953595E1,2.1819174E0,6.7979217E0,-5.842654E0,-2.3603754E1,-1.573597E0,-2.7516303E0,-3.0972915E0,-1.2267217E1,1.8994893E0,1.9423283E1,1.4744949E0,9.6870726E-1,-2.1644922E1,1.3469987E1,-6.907034E0,-4.739635E0,5.8117557E-1,-8.909156E0,1.5887153E1,-1.2883822E0,2.0432503E1,-1.528441E0,1.9698263E0,-3.7669446E-2,1.4442122E0,5.2417474E0,-1.525216E0,-1.2838082E0,5.674832E0,-5.9875455E0,2.276888E0,1.5087065E0,7.259538E0,1.1655227E1,-1.3252206E0,1.1260116E0,4.994522E0,-3.3406384E0,3.5491745E0,-2.1283333E0,-7.55187E0,2.0851107E0,-4.071824E0,1.0502961E0,-1.2620225E0,-1.0867745E0,-5.288339E0,-2.3730562E0,2.2243702E0,-1.765107E0,7.386518E0,4.5930862E0,-9.903806E-1,-7.0088587E0,-1.9238687E0,-5.5151267E0,5.9249024E0,-3.561691E0,-9.4953656E-1,4.6817523E-1,-3.3724244E0,1.1554831E0,-4.010307E-1,-3.2298877E0,-2.2209206E-1,6.946488E0,-2.4098855E-1,1.3238908E0,7.511056E0,1.5582448E-1,1.6008443E0],"categories":[],"categories_nodes":[],"categories_segments":[],"categories_sizes":[],"default_left":[0,0,0,0,0,0,0,0,0,0,0,0,0,0,0,0,0,0,0,0,0,0,0,0,0,0,0,0,0,0,0,0,0,0,0,0,0,0,0,0,0,0,0,0,0,0,0,0,0,0,0,0,0,0,0,0,0,0,0,0,0,0,0,0,0,0,0,0,0,0,0,0,0,0,0,0,0,0,0,0,0,0,0,0,0,0,0,0,0,0,0,0,0,0,0,0,0,0,0,0,0,0,0,0,0],"id":11,"left_children":[1,3,5,7,9,11,13,15,17,-1,19,21,23,25,27,29,31,33,35,37,39,41,43,45,47,49,51,53,55,57,59,61,63,65,67,69,71,73,75,77,-1,79,81,83,85,-1,87,89,91,93,95,97,99,-1,101,-1,103,-1,-1,-1,-1,-1,-1,-1,-1,-1,-1,-1,-1,-1,-1,-1,-1,-1,-1,-1,-1,-1,-1,-1,-1,-1,-1,-1,-1,-1,-1,-1,-1,-1,-1,-1,-1,-1,-1,-1,-1,-1,-1,-1,-1,-1,-1,-1,-1],"loss_changes":[9.6449854E2,2.414966E3,2.0265697E3,1.9288105E3,1.1409019E3,2.2509429E3,1.4128298E3,3.0214968E3,5.217027E3,0E0,7.6505225E2,1.6788911E3,2.8572222E3,1.048056E3,1.2814833E3,2.7878599E3,3.887164E3,2.0255713E3,5.778647E3,9.679314E2,2.3020325E2,2.0426335E3,1.3024398E3,1.2317173E3,3.2683894E3,1.7133821E3,1.987283E3,7.117883E2,1.0478402E2,1.8812029E3,1.4185444E3,2.49829E3,3.9498535E3,3.8236133E3,4.769417E3,2.0068423E3,7.240857E3,2.7504883E0,5.0345688E2,1.33005E2,0E0,6.312456E2,1.7898868E3,1.0657646E3,7.773846E2,0E0,2.6885986E2,2.163357E3,1.1886763E3,3.2535913E3,1.6297292E3,6.7882935E1,1.2316296E3,0E0,4.795891E2,0E0,3.1406178E1,0E0,0E0,0E0,0E0,0E0,0E0,0E0,0E0,0E0,0E0,0E0,0E0,0E0,0E0,0E0,0E0,0E0,0E0,0E0,0E0,0E0,0E0,0E0,0E0,0E0,0E0,0E0,0E0,0E0,0E0,0E0,0E0,0E0,0E0,0E0,0E0,0E0,0E0,0E0,0E0,0E0,0E0,0E0,0E0,0E0,0E0,0E0,0E0],"parents":[2147483647,0,0,1,1,2,2,3,3,4,4,5,5,6,6,7,7,8,8,10,10,11,11,12,12,13,13,14,14,15,15,16,16,17,17,18,18,19,19,20,20,21,21,22,22,23,23,24,24,25,25,26,26,27,27,28,28,29,29,30,30,31,31,32,32,33,33,34,34,35,35,36,36,37,37,38,38,39,39,41,41,42,42,43,43,44,44,46,46,47,47,48,48,49,49,50,50,51,51,52,52,54,54,56,56],"right_children":[2,4,6,8,10,12,14,16,18,-1,20,22,24,26,28,30,32,34,36,38,40,42,44,46,48,50,52,54,56,58,60,62,64,66,68,70,72,74,76,78,-1,80,82,84,86,-1,88,90,92,94,96,98,100,-1,102,-1,104,-1,-1,-1,-1,-1,-1,-1,-1,-1,-1,-1,-1,-1,-1,-1,-1,-1,-1,-1,-1,-1,-1,-1,-1,-1,-1,-1,-1,-1,-1,-1,-1,-1,-1,-1,-1,-1,-1,-1,-1,-1,-1,-1,-1,-1,-1,-1,-1],"split_conditions":[2.3711418E1,2.02E1,2.7957907E1,2.0726E1,1.608225E1,1.5248428E1,2.065848E1,2.0205166E1,2.8894121E1,4.6487713E0,2.62E1,1.130991E1,2.4559334E1,2.46E1,2.3358423E1,2.3675303E1,3E-1,7.2E0,1.0883676E1,3.3072174E1,3.4804077E1,2.524475E1,5.3999996E0,8.942214E0,2.4759336E1,5.6807053E1,1.2313894E1,1E-1,2.633911E1,3.1662225E2,4.5479828E1,1.1966954E1,1.5778518E1,1.9653913E1,8.204618E0,1.008E1,2.9704538E2,2.1700003E1,2.3358423E1,2.1544748E1,-3.0972915E0,2.4759336E1,1.6000001E0,2.3973917E1,1.2055861E1,9.6870726E-1,2.6217302E1,8.350138E0,1.994081E1,3.953288E1,2.610517E1,5.15E1,4.6627205E1,-1.2883822E0,2.1767351E1,-1.528441E0,2.5523916E1,-3.7669446E-2,1.4442122E0,5.2417474E0,-1.525216E0,-1.2838082E0,5.674832E0,-5.9875455E0,2.276888E0,1.5087065E0,7.259538E0,1.1655227E1,-1.3252206E0,1.1260116E0,4.994522E0,-3.3406384E0,3.5491745E0,-2.1283333E0,-7.55187E0,2.0851107E0,-4.071824E0,1.0502961E0,-1.2620225E0,-1.0867745E0,-5.288339E0,-2.3730562E0,2.2243702E0,-1.765107E0,7.386518E0,4.5930862E0,-9.903806E-1,-7.0088587E0,-1.9238687E0,-5.5151267E0,5.9249024E0,-3.561691E0,-9.4953656E-1,4.6817523E-1,-3.3724244E0,1.1554831E0,-4.010307E-1,-3.2298877E0,-2.2209206E-1,6.946488E0,-2.4098855E-1,1.3238908E0,7.511056E0,1.5582448E-1,1.6008443E0],"split_indices":[0,1,3,0,0,3,2,0,3,0,1,3,0,1,2,2,1,1,2,3,3,0,1,2,0,3,2,1,2,3,3,2,2,3,3,2,3,1,2,0,0,0,1,0,3,0,3,2,3,3,0,1,3,0,2,0,0,0,0,0,0,0,0,0,0,0,0,0,0,0,0,0,0,0,0,0,0,0,0,0,0,0,0,0,0,0,0,0,0,0,0,0,0,0,0,0,0,0,0,0,0,0,0,0,0],"split_type":[0,0,0,0,0,0,0,0,0,0,0,0,0,0,0,0,0,0,0,0,0,0,0,0,0,0,0,0,0,0,0,0,0,0,0,0,0,0,0,0,0,0,0,0,0,0,0,0,0,0,0,0,0,0,0,0,0,0,0,0,0,0,0,0,0,0,0,0,0,0,0,0,0,0,0,0,0,0,0,0,0,0,0,0,0,0,0,0,0,0,0,0,0,0,0,0,0,0,0,0,0,0,0,0,0],"sum_hessian":[1.833E3,1.317E3,5.16E2,1.289E3,2.8E1,1.51E2,3.65E2,1.086E3,2.03E2,1E0,2.7E1,6.1E1,9E1,3.49E2,1.6E1,1.037E3,4.9E1,6E1,1.43E2,9E0,1.8E1,4.5E1,1.6E1,1.7E1,7.3E1,3.36E2,1.3E1,8E0,8E0,1.021E3,1.6E1,1.9E1,3E1,4.2E1,1.8E1,6.8E1,7.5E1,6E0,3E0,1.2E1,6E0,1.4E1,3.1E1,6E0,1E1,2E0,1.5E1,8E0,6.5E1,7.8E1,2.58E2,4E0,9E0,1E0,7E0,2E0,6E0,9.38E2,8.3E1,1.3E1,3E0,1.3E1,6E0,2.4E1,6E0,2.1E1,2.1E1,2E0,1.6E1,5.3E1,1.5E1,5.8E1,1.7E1,1E0,5E0,2E0,1E0,2E0,1E1,6E0,8E0,1.1E1,2E1,1E0,5E0,2E0,8E0,1.3E1,2E0,1E0,7E0,2.7E1,3.8E1,4E1,3.8E1,9.5E1,1.63E2,3E0,1E0,6E0,3E0,2E0,5E0,5E0,1E0],"tree_param":{"num_deleted":"0","num_feature":"4","num_nodes":"105","size_leaf_vector":"1"}},{"base_weights":[1.1060129E-2,1.0300929E-1,-5.3401446E0,1.0831585E0,-3.459791E-1,-1.7301722E1,-1.1304461E0,1.8582513E0,-3.2735608E0,-7.166667E-1,1.7024275E0,-2.0508417E1,7.7177125E-1,9.378841E0,-8.061275E0,5.019326E0,5.4956764E-1,-2.636862E1,-1.8254039E0,-4.410499E-1,-1.4875098E1,-4.555014E0,2.9041667E0,-1.7837311E0,-6.5833693E0,-6.583635E0,6.33533E0,-1.3992547E1,-2.5523655E0,1.1472558E0,1.2991053E1,-1.0829458E1,8.7131387E-1,1.6060869E0,-1.0691277E1,1.2218388E1,-3.9456303E0,-4.1125484E0,-1.0221367E-1,8.726693E-1,-1.5964198E1,5.8587227E0,-1.0575505E1,1.2233362E1,9.1828954E-1,-6.3778887E0,2.4002705E0,-2.8559952E0,-6.489289E0,7.098862E-1,-1.5912434E0,1.4712877E0,-5.383333E0,2.4066238E0,7.132711E0,-2.3389447E0,4.5744064E-1,1.0085672E0,6.652142E0,1.4102829E-1,-2.1332736E0,-1.4462161E0,8.51854E0,1.953162E0,-1.6992407E-1,3.5608408E-1,-5.0948944E0,-7.290498E0,4.2962894E0,-4.610161E0,3.729926E0,5.0334196E0,-2.1680667E0,-1.4951348E-1,2.833358E0,-4.745247E-1,2.1519494E0,1.2602475E0,-1.9825631E0,-1.4295548E0,9.8098475E-1],"categories":[],"categories_nodes":[],"categories_segments":[],"categories_sizes":[],"default_left":[0,0,0,0,0,0,0,0,0,0,0,0,0,0,0,0,0,0,0,0,0,0,0,0,0,0,0,0,0,0,0,0,0,0,0,0,0,0,0,0,0,0,0,0,0,0,0,0,0,0,0,0,0,0,0,0,0,0,0,0,0,0,0,0,0,0,0,0,0,0,0,0,0,0,0,0,0,0,0,0,0],"id":12,"left_children":[1,3,5,7,9,11,13,15,17,19,21,23,-1,25,27,29,31,33,35,37,39,41,43,-1,-1,45,-1,47,49,51,53,-1,55,-1,-1,57,59,61,63,-1,65,67,69,71,73,-1,75,77,-1,79,-1,-1,-1,-1,-1,-1,-1,-1,-1,-1,-1,-1,-1,-1,-1,-1,-1,-1,-1,-1,-1,-1,-1,-1,-1,-1,-1,-1,-1,-1,-1],"loss_changes":[9.0294916E2,7.942712E2,1.541435E3,1.9207635E3,9.412568E2,5.626057E2,1.8237191E3,1.9912018E3,2.8281597E3,4.0869534E3,1.4419929E3,1.5921143E1,0E0,2.0128545E3,4.544085E2,4.3373555E3,4.0640708E3,1.6609524E3,2.4898425E3,1.2809374E3,4.3380908E2,2.0055292E3,2.9530278E3,0E0,0E0,7.102675E2,0E0,5.336813E2,8.4558304E1,6.9739126E3,2.2743462E3,0E0,1.9377511E3,0E0,0E0,8.9532556E2,1.0096875E3,2.1397153E3,2.901427E3,0E0,3.5215088E2,3.4107168E3,2.3960657E3,2.597602E3,1.6111936E3,0E0,8.736917E1,1.3368556E2,0E0,8.56645E1,0E0,0E0,0E0,0E0,0E0,0E0,0E0,0E0,0E0,0E0,0E0,0E0,0E0,0E0,0E0,0E0,0E0,0E0,0E0,0E0,0E0,0E0,0E0,0E0,0E0,0E0,0E0,0E0,0E0,0E0,0E0],"parents":[2147483647,0,0,1,1,2,2,3,3,4,4,5,5,6,6,7,7,8,8,9,9,10,10,11,11,13,13,14,14,15,15,16,16,17,17,18,18,19,19,20,20,21,21,22,22,25,25,27,27,28,28,29,29,30,30,32,32,35,35,36,36,37,37,38,38,40,40,41,41,42,42,43,43,44,44,46,46,47,47,49,49],"right_children":[2,4,6,8,10,12,14,16,18,20,22,24,-1,26,28,30,32,34,36,38,40,42,44,-1,-1,46,-1,48,50,52,54,-1,56,-1,-1,58,60,62,64,-1,66,68,70,72,74,-1,76,78,-1,80,-1,-1,-1,-1,-1,-1,-1,-1,-1,-1,-1,-1,-1,-1,-1,-1,-1,-1,-1,-1,-1,-1,-1,-1,-1,-1,-1,-1,-1,-1,-1],"split_conditions":[3.559718E2,1E-1,3.566194E2,1.4618837E1,1.7673029E1,2.2626001E1,1.9615583E1,4.239735E1,9.904134E0,1.7339897E1,5E-1,1.0296251E1,7.7177125E-1,9.686609E0,2.5034334E1,2.9834406E1,4.293799E1,1.1830169E1,1.994081E1,6.7968335E0,3.067666E0,2.7957907E1,1.8709612E1,-1.7837311E0,-6.5833693E0,1E-1,6.33533E0,1.2144331E1,1.5463246E1,2.5597626E1,1.50635E1,-1.0829458E1,5.4246033E1,1.6060869E0,-1.0691277E1,1.5466763E1,1.5941944E1,7.8999996E0,8.3885E0,8.726693E-1,3.621412E0,9.198916E0,2.4559334E1,3.865983E1,4.293799E1,-6.3778887E0,4.2864165E0,2.2926E1,-6.489289E0,9.9571085E0,-1.5912434E0,1.4712877E0,-5.383333E0,2.4066238E0,7.132711E0,-2.3389447E0,4.5744064E-1,1.0085672E0,6.652142E0,1.4102829E-1,-2.1332736E0,-1.4462161E0,8.51854E0,1.953162E0,-1.6992407E-1,3.5608408E-1,-5.0948944E0,-7.290498E0,4.2962894E0,-4.610161E0,3.729926E0,5.0334196E0,-2.1680667E0,-1.4951348E-1,2.833358E0,-4.745247E-1,2.1519494E0,1.2602475E0,-1.9825631E0,-1.4295548E0,9.8098475E-1],"split_indices":[3,1,3,2,2,0,0,3,3,2,1,2,0,2,0,3,3,0,3,0,0,3,2,0,0,1,0,2,2,3,0,0,3,0,0,3,2,1,0,0,3,0,0,3,3,0,0,0,0,2,0,0,0,0,0,0,0,0,0,0,0,0,0,0,0,0,0,0,0,0,0,0,0,0,0,0,0,0,0,0,0],"split_type":[0,0,0,0,0,0,0,0,0,0,0,0,0,0,0,0,0,0,0,0,0,0,0,0,0,0,0,0,0,0,0,0,0,0,0,0,0,0,0,0,0,0,0,0,0,0,0,0,0,0,0,0,0,0,0,0,0,0,0,0,0,0,0,0,0,0,0,0,0,0,0,0,0,0,0,0,0,0,0,0,0],"sum_hessian":[1.833E3,1.803E3,3E1,5.66E2,1.237E3,7E0,2.3E1,4.81E2,8.5E1,1.048E3,1.89E2,6E0,1E0,9E0,1.4E1,1.4E2,3.41E2,4E0,8.1E1,1.029E3,1.9E1,3E1,1.59E2,1E0,5E0,4E0,5E0,6E0,8E0,9.5E1,4.5E1,2E0,3.39E2,1E0,3E0,1E1,7.1E1,8.6E1,9.43E2,1E0,1.8E1,1.1E1,1.9E1,2.7E1,1.32E2,1E0,3E0,3E0,3E0,4E0,4E0,8E1,1.5E1,3.2E1,1.3E1,2.3E1,3.16E2,6E0,4E0,3E1,4.1E1,8.5E1,1E0,6.1E1,8.82E2,1E0,1.7E1,2E0,9E0,1.6E1,3E0,2.2E1,5E0,1.14E2,1.8E1,2E0,1E0,1E0,2E0,1E0,3E0],"tree_param":{"num_deleted":"0","num_feature":"4","num_nodes":"81","size_leaf_vector":"1"}},{"base_weights":[-2.645399E-3,4.072816E-1,-8.4017015E-1,1.6451834E-1,8.243432E0,-7.8488493E0,-4.8522776E-1,3.9734623E-1,-1.1726979E1,4.47732E0,1.4110806E1,1.3333359E1,-9.91173E0,1.1606836E0,-2.2478046E0,1.0053352E0,-1.1094115E0,-2.6694761E1,-1.9645106E0,7.518963E0,-8.584714E0,1.890622E1,-9.774449E0,5.116695E0,8.833168E-1,-1.931175E1,-3.24632E0,3.9635763E-1,9.491269E0,-1.0970983E1,-9.0480715E-1,7.143562E-1,9.708246E0,-2.2328085E1,-7.2376144E-1,-3.0809715E1,9.337315E-1,7.676731E0,-1.7705828E1,4.357271E0,7.194837E0,-4.588222E0,2.7379086E0,9.517264E0,8.008588E-1,-8.3836975E0,3.9851944E0,-2.2251759E1,1.5132489E0,-4.9678016E0,3.644608E0,1.2599658E0,-3.5949037E0,2.2485456E1,-6.7055386E-1,-1.4566573E1,1.0033999E1,6.740975E0,-1.9366897E0,5.160534E-1,-3.3250183E-1,5.193751E0,-8.779058E-1,-7.6265845E0,-1.0288148E0,-2.6494915E0,2.3621647E-2,-2.255762E0,-1.29840555E1,-1.6251632E0,5.192668E0,-1.6477234E0,-6.7318306E0,1.7715907E0,-3.2938879E0,1.7006768E0,-1.7870538E0,-1.2490958E0,-8.8227E0,-3.0414655E0,5.4030612E-2,-1.1769706E-1,1.5814381E0,-2.0076966E0,3.274497E0,-1.5810769E0,7.7364163E0,-1.6244625E0,4.1190143E0,5.317511E0,-4.8540044E0,-1.5963902E0,4.250796E0,-3.5614536E0,3.6337676E0,-3.0830593E0,1.6105074E-1],"categories":[],"categories_nodes":[],"categories_segments":[],"categories_sizes":[],"default_left":[0,0,0,0,0,0,0,0,0,0,0,0,0,0,0,0,0,0,0,0,0,0,0,0,0,0,0,0,0,0,0,0,0,0,0,0,0,0,0,0,0,0,0,0,0,0,0,0,0,0,0,0,0,0,0,0,0,0,0,0,0,0,0,0,0,0,0,0,0,0,0,0,0,0,0,0,0,0,0,0,0,0,0,0,0,0,0,0,0,0,0,0,0,0,0,0,0],"id":13,"left_children":[1,3,5,7,9,11,13,15,17,19,21,23,25,27,29,31,33,35,37,39,41,43,45,-1,-1,47,49,51,53,55,57,59,61,63,65,67,-1,69,71,73,-1,-1,-1,-1,75,-1,-1,77,-1,79,-1,81,83,85,87,89,91,93,95,-1,-1,-1,-1,-1,-1,-1,-1,-1,-1,-1,-1,-1,-1,-1,-1,-1,-1,-1,-1,-1,-1,-1,-1,-1,-1,-1,-1,-1,-1,-1,-1,-1,-1,-1,-1,-1,-1],"loss_changes":[6.299984E2,2.3423135E3,1.4962609E3,3.3159915E3,7.5441724E2,1.3993511E3,1.67071E3,1.0766073E3,3.3083755E3,1.0180691E3,1.7883535E3,6.579376E1,1.6289929E3,1.8936881E3,3.246901E3,2.1126536E3,2.7496873E3,1.1997905E3,2.4124106E3,9.3657153E2,7.337291E2,2.7594863E3,1.628228E3,0E0,0E0,8.999136E2,5.1089026E2,9.4897614E2,3.3161938E3,2.9405977E3,1.9223259E3,1.4887183E3,2.6447332E3,2.6363867E2,2.1673843E3,1.9981157E3,0E0,1.3549957E3,2.236344E2,4.9219382E2,0E0,0E0,0E0,0E0,2.311505E2,0E0,0E0,1.1721606E3,0E0,4.276948E2,0E0,1.5000298E3,2.2752637E3,1.1442349E3,1.0991626E3,1.9540098E3,4.5639362E2,3.0431716E3,4.4202583E3,0E0,0E0,0E0,0E0,0E0,0E0,0E0,0E0,0E0,0E0,0E0,0E0,0E0,0E0,0E0,0E0,0E0,0E0,0E0,0E0,0E0,0E0,0E0,0E0,0E0,0E0,0E0,0E0,0E0,0E0,0E0,0E0,0E0,0E0,0E0,0E0,0E0,0E0],"parents":[2147483647,0,0,1,1,2,2,3,3,4,4,5,5,6,6,7,7,8,8,9,9,10,10,11,11,12,12,13,13,14,14,15,15,16,16,17,17,18,18,19,19,20,20,21,21,22,22,25,25,26,26,27,27,28,28,29,29,30,30,31,31,32,32,33,33,34,34,35,35,37,37,38,38,39,39,44,44,47,47,49,49,51,51,52,52,53,53,54,54,55,55,56,56,57,57,58,58],"right_children":[2,4,6,8,10,12,14,16,18,20,22,24,26,28,30,32,34,36,38,40,42,44,46,-1,-1,48,50,52,54,56,58,60,62,64,66,68,-1,70,72,74,-1,-1,-1,-1,76,-1,-1,78,-1,80,-1,82,84,86,88,90,92,94,96,-1,-1,-1,-1,-1,-1,-1,-1,-1,-1,-1,-1,-1,-1,-1,-1,-1,-1,-1,-1,-1,-1,-1,-1,-1,-1,-1,-1,-1,-1,-1,-1,-1,-1,-1,-1,-1,-1],"split_conditions":[1.4351163E2,1.2565543E2,1.5694867E2,1.1205649E2,9.021574E0,8.194752E0,1.0853866E1,2.2728083E1,1.976975E1,8.714677E0,1.4011736E2,5.5280833E0,1.976975E1,1.0495713E1,1.1298495E1,2.2169748E1,2.2838501E1,9.826088E0,9.621163E0,8.435069E0,2.2105165E1,7E-1,9.965585E0,5.116695E0,8.833168E-1,1.2768586E1,1.6E0,1.9000002E0,1.6630165E1,3.1389124E2,1.9440288E2,1.1000001E0,5.2999997E0,1.33E1,8.714677E0,8.766573E0,9.337315E-1,7.69592E0,2.0205166E1,3.4999998E0,7.194837E0,-4.588222E0,2.7379086E0,9.517264E0,1.5990584E1,-8.3836975E0,3.9851944E0,8.669949E0,1.5132489E0,2.7176E1,3.644608E0,9.585739E0,2.4848917E1,4.2864165E0,3.1662225E2,1.710453E2,5E-1,1.4186416E1,2.3053688E2,5.160534E-1,-3.3250183E-1,5.193751E0,-8.779058E-1,-7.6265845E0,-1.0288148E0,-2.6494915E0,2.3621647E-2,-2.255762E0,-1.29840555E1,-1.6251632E0,5.192668E0,-1.6477234E0,-6.7318306E0,1.7715907E0,-3.2938879E0,1.7006768E0,-1.7870538E0,-1.2490958E0,-8.8227E0,-3.0414655E0,5.4030612E-2,-1.1769706E-1,1.5814381E0,-2.0076966E0,3.274497E0,-1.5810769E0,7.7364163E0,-1.6244625E0,4.1190143E0,5.317511E0,-4.8540044E0,-1.5963902E0,4.250796E0,-3.5614536E0,3.6337676E0,-3.0830593E0,1.6105074E-1],"split_indices":[3,3,3,3,2,0,2,0,0,2,3,0,0,2,2,0,0,2,2,2,0,1,0,0,0,2,1,1,0,3,3,1,1,1,2,2,0,2,0,1,0,0,0,0,0,0,0,2,0,0,0,2,0,0,3,3,1,0,3,0,0,0,0,0,0,0,0,0,0,0,0,0,0,0,0,0,0,0,0,0,0,0,0,0,0,0,0,0,0,0,0,0,0,0,0,0,0],"split_type":[0,0,0,0,0,0,0,0,0,0,0,0,0,0,0,0,0,0,0,0,0,0,0,0,0,0,0,0,0,0,0,0,0,0,0,0,0,0,0,0,0,0,0,0,0,0,0,0,0,0,0,0,0,0,0,0,0,0,0,0,0,0,0,0,0,0,0,0,0,0,0,0,0,0,0,0,0,0,0,0,0,0,0,0,0,0,0,0,0,0,0,0,0,0,0,0,0],"sum_hessian":[1.833E3,1.231E3,6.02E2,1.195E3,3.6E1,2.8E1,5.74E2,1.173E3,2.2E1,2.3E1,1.3E1,2E0,2.6E1,2.97E2,2.77E2,8.36E2,3.37E2,8E0,1.4E1,1.9E1,4E0,1.1E1,2E0,1E0,1E0,1E1,1.6E1,2.73E2,2.4E1,3.6E1,2.41E2,8.1E2,2.6E1,5E0,3.32E2,7E0,1E0,9E0,5E0,1.7E1,2E0,3E0,1E0,6E0,5E0,1E0,1E0,9E0,1E0,1.5E1,1E0,2.25E2,4.8E1,1E1,1.4E1,3.1E1,5E0,2.8E1,2.13E2,5.22E2,2.88E2,1.6E1,1E1,4E0,1E0,2.9E1,3.03E2,3E0,4E0,4E0,5E0,2E0,3E0,1.6E1,1E0,3E0,2E0,3E0,6E0,7E0,8E0,1.6E2,6.5E1,4E1,8E0,1E0,9E0,1.1E1,3E0,1E0,3E1,1E0,4E0,6E0,2.2E1,4.8E1,1.65E2],"tree_param":{"num_deleted":"0","num_feature":"4","num_nodes":"97","size_leaf_vector":"1"}},{"base_weights":[-5.8300514E-3,7.30802E-2,-4.597709E0,-5.9926547E-2,3.2278008E0,-1.3159407E1,-1.552239E0,-1.6628884E-1,3.1861796E0,2.1745132E1,6.1420417E-1,-1.5641082E1,6.318478E-1,5.81474E0,-6.3600755E0,1.2048799E-1,-2.5097415E0,4.8039303E0,-5.6160946E0,2.728205E1,1.5772794E0,1.8822388E1,-1.9078591E0,-6.332231E0,-2.769916E0,-5.416307E0,1.4204823E1,-1.0653232E1,-2.3142788E0,-9.195825E0,1.9569018E-1,-1.2633187E0,-1.0336601E1,7.0267634E0,-4.1232285E0,-9.3076935E0,1.3253269E0,4.111184E0,1.2245461E1,1.3547493E0,-6.449736E-1,5.9837914E-1,8.891135E0,1.5853643E-2,-1.01288E1,-5.40355E0,2.2355328E0,1.291858E0,5.423277E0,-1.7583733E0,-5.065435E0,-5.7113646E-3,-1.2479973E0,6.873747E-1,-5.31846E0,7.811081E-1,-1.7661732E-2,-1.4977279E0,3.707738E-1,-3.4591296E0,-3.559147E-1,1.2750918E0,4.3127446E0,-6.8934697E-1,-1.8860642E0,-3.365532E0,-1.0972404E0,1.1289608E0,-2.2250977E-1,-1.3898147E0,2.4437497E0,-1.6231716E0,8.69444E-1,-5.374583E-1,-4.3911076E0,-3.3699417E-1,1.8468109E0,-2.0083866E0,6.355751E-1,-1.4523365E0,7.240265E-1],"categories":[],"categories_nodes":[],"categories_segments":[],"categories_sizes":[],"default_left":[0,0,0,0,0,0,0,0,0,0,0,0,0,0,0,0,0,0,0,0,0,0,0,0,0,0,0,0,0,0,0,0,0,0,0,0,0,0,0,0,0,0,0,0,0,0,0,0,0,0,0,0,0,0,0,0,0,0,0,0,0,0,0,0,0,0,0,0,0,0,0,0,0,0,0,0,0,0,0,0,0],"id":14,"left_children":[1,3,5,7,9,11,13,15,17,19,21,23,-1,25,27,29,31,33,35,37,39,41,43,-1,-1,45,47,49,51,53,55,57,59,61,63,65,67,-1,-1,-1,-1,69,-1,71,73,-1,75,-1,-1,77,-1,79,-1,-1,-1,-1,-1,-1,-1,-1,-1,-1,-1,-1,-1,-1,-1,-1,-1,-1,-1,-1,-1,-1,-1,-1,-1,-1,-1,-1,-1],"loss_changes":[6.648792E2,7.5715027E2,7.8787976E2,5.9852576E2,3.5196128E3,3.36016E2,8.870437E2,1.1279988E3,8.101731E2,9.619785E2,3.020853E3,5.031372E1,0E0,1.01923175E3,2.3588403E2,1.0499078E3,1.772212E3,9.6162146E2,2.429602E2,7.271963E2,4.256627E1,1.5589673E3,9.174149E2,0E0,0E0,5.2216077E2,1.5216492E2,3.5831165E2,3.8324787E1,1.2167639E3,9.1044E2,1.4880345E3,2.5941602E2,7.1426294E2,2.5049286E1,2.3745789E1,2.2947777E1,0E0,0E0,0E0,0E0,1.956631E2,0E0,7.664269E2,3.8722656E2,0E0,5.9588646E1,0E0,0E0,9.073361E1,0E0,7.017117E1,0E0,0E0,0E0,0E0,0E0,0E0,0E0,0E0,0E0,0E0,0E0,0E0,0E0,0E0,0E0,0E0,0E0,0E0,0E0,0E0,0E0,0E0,0E0,0E0,0E0,0E0,0E0,0E0,0E0],"parents":[2147483647,0,0,1,1,2,2,3,3,4,4,5,5,6,6,7,7,8,8,9,9,10,10,11,11,13,13,14,14,15,15,16,16,17,17,18,18,19,19,20,20,21,21,22,22,25,25,26,26,27,27,28,28,29,29,30,30,31,31,32,32,33,33,34,34,35,35,36,36,41,41,43,43,44,44,46,46,49,49,51,51],"right_children":[2,4,6,8,10,12,14,16,18,20,22,24,-1,26,28,30,32,34,36,38,40,42,44,-1,-1,46,48,50,52,54,56,58,60,62,64,66,68,-1,-1,-1,-1,70,-1,72,74,-1,76,-1,-1,78,-1,80,-1,-1,-1,-1,-1,-1,-1,-1,-1,-1,-1,-1,-1,-1,-1,-1,-1,-1,-1,-1,-1,-1,-1,-1,-1,-1,-1,-1,-1],"split_conditions":[3.559718E2,3.418618E2,3.566194E2,2.8715584E1,3.4325793E2,2.2626001E1,1.9615583E1,2.6323912E1,1.8391735E1,2.4353086E1,8.4042845E0,2E-1,6.318478E-1,9.686609E0,2.5034334E1,6.28713E0,2.3436517E2,2.9704538E2,3.0834337E1,1.5E0,2.7044752E1,7.9036193E0,1.5778518E1,-6.332231E0,-2.769916E0,1E-1,3E-1,1.2144331E1,1.5463246E1,6.12E0,8.14587E0,3.3877674E1,2.7876001E1,1.6738638E2,1E-1,2.0746983E2,6E-1,4.111184E0,1.2245461E1,1.3547493E0,-6.449736E-1,1.735E1,8.891135E0,9.931042E0,3.4683337E2,-5.40355E0,4.2864165E0,1.291858E0,5.423277E0,1E-1,-5.065435E0,9.9571085E0,-1.2479973E0,6.873747E-1,-5.31846E0,7.811081E-1,-1.7661732E-2,-1.4977279E0,3.707738E-1,-3.4591296E0,-3.559147E-1,1.2750918E0,4.3127446E0,-6.8934697E-1,-1.8860642E0,-3.365532E0,-1.0972404E0,1.1289608E0,-2.2250977E-1,-1.3898147E0,2.4437497E0,-1.6231716E0,8.69444E-1,-5.374583E-1,-4.3911076E0,-3.3699417E-1,1.8468109E0,-2.0083866E0,6.355751E-1,-1.4523365E0,7.240265E-1],"split_indices":[3,3,3,0,3,0,0,0,2,0,2,1,0,2,0,2,3,3,0,1,0,2,2,0,0,1,1,2,2,2,2,3,0,3,1,3,1,0,0,0,0,0,0,2,3,0,0,0,0,1,0,2,0,0,0,0,0,0,0,0,0,0,0,0,0,0,0,0,0,0,0,0,0,0,0,0,0,0,0,0,0],"split_type":[0,0,0,0,0,0,0,0,0,0,0,0,0,0,0,0,0,0,0,0,0,0,0,0,0,0,0,0,0,0,0,0,0,0,0,0,0,0,0,0,0,0,0,0,0,0,0,0,0,0,0,0,0,0,0,0,0,0,0,0,0,0,0,0,0,0,0,0,0,0,0,0,0,0,0,0,0,0,0,0,0],"sum_hessian":[1.833E3,1.803E3,3E1,1.731E3,7.2E1,7E0,2.3E1,1.677E3,5.4E1,8E0,6.4E1,6E0,1E0,9E0,1.4E1,1.495E3,1.82E2,4.6E1,8E0,6E0,2E0,7E0,5.7E1,2E0,4E0,4E0,5E0,6E0,8E0,1.1E1,1.484E3,1.58E2,2.4E1,3.7E1,9E0,5E0,3E0,4E0,2E0,1E0,1E0,3E0,4E0,4.7E1,1E1,1E0,3E0,2E0,3E0,3E0,3E0,4E0,4E0,5E0,6E0,1.41E2,1.343E3,6.3E1,9.5E1,2.1E1,3E0,2.8E1,9E0,6E0,3E0,3E0,2E0,1E0,2E0,2E0,1E0,1.6E1,3.1E1,4E0,6E0,2E0,1E0,1E0,2E0,1E0,3E0],"tree_param":{"num_deleted":"0","num_feature":"4","num_nodes":"81","size_leaf_vector":"1"}},{"base_weights":[-5.2202935E-3,-4.0706573E0,7.844288E-2,-8.064993E-1,-8.804322E0,6.1862507E0,-7.001548E-4,-1.0646144E1,2.5181875E0,-1.0430058E1,1.1753057E0,9.045403E0,-9.656069E0,-1.074125E1,9.0735115E-2,5.6886035E-1,-1.639586E1,9.037339E0,-2.4519396E0,-4.5616755E0,-6.618091E0,-5.8930093E-1,1.1181885E0,1.4183954E1,-2.5239017E0,-2.791363E-1,-3.6763368E0,1.861943E0,-1.5493496E1,2.3548644E0,-1.2140773E-1,-7.377022E-1,9.9368936E-1,-5.8837996E0,-1.0118169E0,1.1269189E1,4.683579E-1,-8.184994E0,3.689771E0,4.6395952E-1,-7.8319855E0,8.464203E0,6.1198764E0,-5.104411E0,6.67536E0,-2.067111E0,5.7726135E0,-2.4485767E1,-3.9189758E0,6.1606793E0,-1.5838372E0,-6.681286E0,6.2630534E-2,-1.1492844E-1,4.1028795E0,-2.695807E0,-6.269772E-1,-5.0693095E-1,1.5310899E0,-3.5486262E0,-1.3584813E0,7.383087E-1,3.3166857E0,4.5135455E0,-1.1758653E0,2.1733918E0,2.0348054E-1,-1.163126E0,-8.349627E0,1.2922572E0,-4.074395E0,-4.4274287E0,2.1624517E0,-7.0328045E0,-1.0423778E-1,4.5875704E-1,-3.0521154E0,3.3360279E0,-4.5844574E-2],"categories":[],"categories_nodes":[],"categories_segments":[],"categories_sizes":[],"default_left":[0,0,0,0,0,0,0,0,0,0,0,0,0,0,0,0,0,0,0,0,0,0,0,0,0,0,0,0,0,0,0,0,0,0,0,0,0,0,0,0,0,0,0,0,0,0,0,0,0,0,0,0,0,0,0,0,0,0,0,0,0,0,0,0,0,0,0,0,0,0,0,0,0,0,0,0,0,0,0],"id":15,"left_children":[1,3,5,7,9,11,13,15,17,19,21,23,25,27,29,31,33,35,37,-1,39,-1,-1,41,43,-1,-1,45,47,49,51,-1,-1,-1,-1,53,-1,55,57,-1,59,61,-1,-1,63,-1,65,67,69,71,73,75,77,-1,-1,-1,-1,-1,-1,-1,-1,-1,-1,-1,-1,-1,-1,-1,-1,-1,-1,-1,-1,-1,-1,-1,-1,-1,-1],"loss_changes":[6.241128E2,5.6460236E2,8.691403E2,7.792249E2,2.5562195E2,1.1291416E3,1.7451222E3,3.962256E2,6.0537726E2,1.3602197E2,3.135866E1,1.2247883E3,7.928787E1,9.2725024E2,8.466077E2,3.306526E1,1.0142346E2,1.1589172E2,4.175191E2,0E0,1.0131131E2,0E0,0E0,3.250598E2,1.046712E3,0E0,0E0,2.1091248E2,1.0489341E3,2.2732432E3,1.9465354E3,0E0,0E0,0E0,0E0,1.735268E2,0E0,1.05138855E1,5.4259537E1,0E0,5.206964E1,1.1280231E2,0E0,0E0,5.0235614E2,0E0,2.5082214E1,3.0587207E2,5.3542535E2,1.7936223E3,2.018789E3,1.2772367E3,3.7395022E3,0E0,0E0,0E0,0E0,0E0,0E0,0E0,0E0,0E0,0E0,0E0,0E0,0E0,0E0,0E0,0E0,0E0,0E0,0E0,0E0,0E0,0E0,0E0,0E0,0E0,0E0],"parents":[2147483647,0,0,1,1,2,2,3,3,4,4,5,5,6,6,7,7,8,8,9,9,10,10,11,11,12,12,13,13,14,14,15,15,16,16,17,17,18,18,20,20,23,23,24,24,27,27,28,28,29,29,30,30,35,35,37,37,38,38,40,40,41,41,44,44,46,46,47,47,48,48,49,49,50,50,51,51,52,52],"right_children":[2,4,6,8,10,12,14,16,18,20,22,24,26,28,30,32,34,36,38,-1,40,-1,-1,42,44,-1,-1,46,48,50,52,-1,-1,-1,-1,54,-1,56,58,-1,60,62,-1,-1,64,-1,66,68,70,72,74,76,78,-1,-1,-1,-1,-1,-1,-1,-1,-1,-1,-1,-1,-1,-1,-1,-1,-1,-1,-1,-1,-1,-1,-1,-1,-1,-1],"split_conditions":[3.7405832E0,3.067666E0,4.4155836E0,9.504272E0,8.795461E1,1.9839235E1,4.8135E0,8.049845E0,1.1659777E1,2E-1,3.5051663E0,9.5194244E1,4.2864165E0,8.435069E0,7.457249E0,1E-1,2.7155821E0,2.7155821E0,1.61198E1,-4.5616755E0,4E-1,-5.8930093E-1,1.1181885E0,3.1789644E1,2.2011472E2,-2.791363E-1,-3.6763368E0,4.5301666E0,1.0739832E1,1.0948973E1,7.994749E0,-7.377022E-1,9.9368936E-1,-5.8837996E0,-1.0118169E0,1.873917E0,4.683579E-1,1.5379206E1,1E-1,4.6395952E-1,3.1789644E1,1.1841756E1,6.1198764E0,-5.104411E0,4.0134993E0,-2.067111E0,8.287822E0,8.534353E0,4.5301666E0,9.168591E0,1.1113451E1,2.3673822E1,8.3885E0,-1.1492844E-1,4.1028795E0,-2.695807E0,-6.269772E-1,-5.0693095E-1,1.5310899E0,-3.5486262E0,-1.3584813E0,7.383087E-1,3.3166857E0,4.5135455E0,-1.1758653E0,2.1733918E0,2.0348054E-1,-1.163126E0,-8.349627E0,1.2922572E0,-4.074395E0,-4.4274287E0,2.1624517E0,-7.0328045E0,-1.0423778E-1,4.5875704E-1,-3.0521154E0,3.3360279E0,-4.5844574E-2],"split_indices":[0,0,0,2,3,2,0,2,2,1,0,3,0,2,0,1,0,0,2,0,1,0,0,3,3,0,0,0,2,2,0,0,0,0,0,0,0,2,1,0,3,2,0,0,0,0,2,2,0,3,2,3,0,0,0,0,0,0,0,0,0,0,0,0,0,0,0,0,0,0,0,0,0,0,0,0,0,0,0],"split_type":[0,0,0,0,0,0,0,0,0,0,0,0,0,0,0,0,0,0,0,0,0,0,0,0,0,0,0,0,0,0,0,0,0,0,0,0,0,0,0,0,0,0,0,0,0,0,0,0,0,0,0,0,0,0,0,0,0,0,0,0,0,0,0,0,0,0,0,0,0,0,0,0,0,0,0,0,0,0,0],"sum_hessian":[1.833E3,3.6E1,1.797E3,2.2E1,1.4E1,2.2E1,1.775E3,5E0,1.7E1,1.2E1,2E0,1.9E1,3E0,1.4E1,1.761E3,2E0,3E0,7E0,1E1,4E0,8E0,1E0,1E0,1.3E1,6E0,1E0,2E0,4E0,1E1,1.5E2,1.611E3,1E0,1E0,2E0,1E0,5E0,2E0,5E0,5E0,1E0,7E0,8E0,5E0,2E0,4E0,1E0,3E0,5E0,5E0,7.6E1,7.4E1,4.3E1,1.568E3,1E0,4E0,4E0,1E0,1E0,4E0,2E0,5E0,3E0,5E0,2E0,2E0,2E0,1E0,1E0,4E0,3E0,2E0,3E0,7.3E1,3E0,7.1E1,1.3E1,3E1,2.9E1,1.539E3],"tree_param":{"num_deleted":"0","num_feature":"4","num_nodes":"79","size_leaf_vector":"1"}},{"base_weights":[-1.9573357E-2,4.4808865E-2,-3.7655718E0,-1.4751413E-1,1.5793426E0,-7.458884E0,6.7121965E-1,1.3510656E-1,-3.174811E0,1.8850868E1,8.5897374E-1,1.5766641E0,-8.582007E0,9.738445E0,-2.4071238E0,2.8979545E-2,5.221162E0,1.1960324E1,-3.7199302E0,6.0356636E0,1.4962224E0,-1.498338E1,1.5321281E0,-1.1044284E1,-9.561409E-1,3.532747E0,5.4394686E-1,1.1245676E0,-5.090413E0,1.651262E-1,-8.747609E0,8.210743E0,-1.1368894E1,5.999037E0,-3.02783E0,-9.221944E0,-1.660824E0,-2.1908257E1,3.8608322E0,2.486269E0,-8.155531E0,-7.5970993E0,-5.6560416E0,1.2002518E0,-9.586788E-1,-5.138048E0,2.72996E0,-8.102035E0,-8.061886E-1,-2.918569E-2,5.679223E-1,-1.4509834E0,-6.3233037E0,3.7880218E0,-1.6738046E0,-5.7036037E0,2.8805375E0,-2.084511E0,-4.893272E0,4.4547434E0,-7.564036E-1,3.6076242E-1,-8.031278E0,-9.5592506E-2,1.832967E0,1.2858177E0,-9.431122E-1,-3.168515E0,-8.050301E-2,-3.638881E0,-7.6614916E-1,-1.130848E-1,-1.9798295E0,-7.472137E-1,-3.7404003E0,3.5985947E-1,-5.6238174E-1],"categories":[],"categories_nodes":[],"categories_segments":[],"categories_sizes":[],"default_left":[0,0,0,0,0,0,0,0,0,0,0,0,0,0,0,0,0,0,0,0,0,0,0,0,0,0,0,0,0,0,0,0,0,0,0,0,0,0,0,0,0,0,0,0,0,0,0,0,0,0,0,0,0,0,0,0,0,0,0,0,0,0,0,0,0,0,0,0,0,0,0,0,0,0,0,0,0],"id":16,"left_children":[1,3,5,7,9,11,13,15,17,19,21,-1,23,25,27,29,31,33,35,-1,-1,37,39,41,43,-1,-1,45,47,49,51,53,55,-1,-1,57,59,61,63,65,67,69,-1,-1,-1,71,-1,73,75,-1,-1,-1,-1,-1,-1,-1,-1,-1,-1,-1,-1,-1,-1,-1,-1,-1,-1,-1,-1,-1,-1,-1,-1,-1,-1,-1,-1],"loss_changes":[4.4248495E2,5.326405E2,5.129867E2,1.3727739E3,2.4846233E3,2.8786108E2,4.421222E2,7.9222797E2,1.1748037E3,4.0291016E1,2.09184E3,0E0,2.8987195E2,4.323581E1,1.19443115E2,1.7209104E3,1.5812665E3,1.087967E3,1.4914716E3,0E0,0E0,1.1285347E3,1.748791E3,1.7980493E2,6.828973E1,0E0,0E0,3.4643292E2,8.378549E1,6.431536E2,9.589586E2,1.6537703E3,9.8395654E2,0E0,0E0,4.668877E2,1.4297437E3,7.064741E2,3.01465E1,1.7461788E3,3.1979248E2,1.9760938E2,0E0,0E0,0E0,2.5343506E1,0E0,6.694113E1,1.0820433E1,0E0,0E0,0E0,0E0,0E0,0E0,0E0,0E0,0E0,0E0,0E0,0E0,0E0,0E0,0E0,0E0,0E0,0E0,0E0,0E0,0E0,0E0,0E0,0E0,0E0,0E0,0E0,0E0],"parents":[2147483647,0,0,1,1,2,2,3,3,4,4,5,5,6,6,7,7,8,8,9,9,10,10,12,12,13,13,14,14,15,15,16,16,17,17,18,18,21,21,22,22,23,23,24,24,27,27,28,28,29,29,30,30,31,31,32,32,35,35,36,36,37,37,38,38,39,39,40,40,41,41,45,45,47,47,48,48],"right_children":[2,4,6,8,10,12,14,16,18,20,22,-1,24,26,28,30,32,34,36,-1,-1,38,40,42,44,-1,-1,46,48,50,52,54,56,-1,-1,58,60,62,64,66,68,70,-1,-1,-1,72,-1,74,76,-1,-1,-1,-1,-1,-1,-1,-1,-1,-1,-1,-1,-1,-1,-1,-1,-1,-1,-1,-1,-1,-1,-1,-1,-1,-1,-1,-1],"split_conditions":[3.559718E2,2.888531E2,9.0000004E-1,2.1654807E2,2.9439026E2,6.989936E0,2.0000002E0,2.0848854E2,5.290583E0,2.4890581E1,2.9704538E2,1.5766641E0,2.5619751E1,1.5878083E1,2.2926E1,2.041103E2,1.420062E1,1.1659777E1,1.5878083E1,6.0356636E0,1.4962224E0,2.1544748E1,1.33E1,1.3397612E1,1.2413476E1,3.532747E0,5.4394686E-1,6.1E0,2.5034334E1,1.7673029E1,1E-1,5E-1,1.7000002E0,5.999037E0,-3.02783E0,1.1384199E1,1.67135E1,7.5551667E0,2.5855165E1,2.56885E1,2.7101004E1,8.103084E0,-5.6560416E0,1.2002518E0,-9.586788E-1,4.2864165E0,2.72996E0,2.4559334E1,2.5619751E1,-2.918569E-2,5.679223E-1,-1.4509834E0,-6.3233037E0,3.7880218E0,-1.6738046E0,-5.7036037E0,2.8805375E0,-2.084511E0,-4.893272E0,4.4547434E0,-7.564036E-1,3.6076242E-1,-8.031278E0,-9.5592506E-2,1.832967E0,1.2858177E0,-9.431122E-1,-3.168515E0,-8.050301E-2,-3.638881E0,-7.6614916E-1,-1.130848E-1,-1.9798295E0,-7.472137E-1,-3.7404003E0,3.5985947E-1,-5.6238174E-1],"split_indices":[3,3,1,3,3,2,1,3,0,0,3,0,0,0,0,3,2,2,0,0,0,0,1,2,2,0,0,1,0,2,1,1,1,0,0,2,0,0,0,0,0,0,0,0,0,0,0,0,0,0,0,0,0,0,0,0,0,0,0,0,0,0,0,0,0,0,0,0,0,0,0,0,0,0,0,0,0],"split_type":[0,0,0,0,0,0,0,0,0,0,0,0,0,0,0,0,0,0,0,0,0,0,0,0,0,0,0,0,0,0,0,0,0,0,0,0,0,0,0,0,0,0,0,0,0,0,0,0,0,0,0,0,0,0,0,0,0,0,0,0,0,0,0,0,0,0,0,0,0,0,0,0,0,0,0,0,0],"sum_hessian":[1.833E3,1.803E3,3E1,1.603E3,2E2,1.6E1,1.4E1,1.467E3,1.36E2,7E0,1.93E2,1E0,1.5E1,3E0,1.1E1,1.438E3,2.9E1,4E0,1.32E2,6E0,1E0,7E0,1.86E2,1.1E1,4E0,2E0,1E0,5E0,6E0,1.417E3,2.1E1,2.5E1,4E0,3E0,1E0,3.5E1,9.7E1,5E0,2E0,1.7E2,1.6E1,9E0,2E0,1E0,3E0,3E0,2E0,3E0,3E0,1.231E3,1.86E2,1.7E1,4E0,1.9E1,6E0,3E0,1E0,2.8E1,7E0,4E0,9.3E1,1E0,4E0,1E0,1E0,1.29E2,4.1E1,1.2E1,4E0,4E0,5E0,1E0,2E0,2E0,1E0,1E0,2E0],"tree_param":{"num_deleted":"0","num_feature":"4","num_nodes":"77","size_leaf_vector":"1"}},{"base_weights":[-2.3396853E-2,-3.4433584E0,4.6993565E-2,-1.0341389E0,-6.9079375E0,4.410544E0,-9.542835E-3,-8.972922E0,1.6695743E0,-7.762118E0,7.575875E-1,6.706937E0,-8.174059E0,-1.1691478E1,4.3292113E-2,6.465149E-2,-1.3507872E1,6.6063976E0,-2.072622E0,-8.469867E0,-7.03125E-1,1.0639996E1,-2.1173139E0,-3.2245445E-1,-3.054654E0,-1.8731352E1,5.6381474E0,-6.326212E-1,3.9250585E-1,-8.1992E-1,8.4901315E-1,-4.8327045E0,-8.5566676E-1,2.7176697E0,9.815708E0,-6.4781404E0,2.6783333E0,-8.938928E0,-4.9652827E-1,7.302813E0,6.1326184E0,-3.7778285E0,4.591417E0,-8.393454E0,-9.436987E0,2.3704489E-1,-5.7933655E0,1.0127962E1,1.4428748E-1,-4.6368143E-1,2.9656153E0,4.4814378E-1,3.6275208E0,-2.1207094E0,-5.285534E-1,-4.2651445E-1,1.1348058E0,-3.3345077E0,-1.5819027E0,1.1529279E0,3.413341E0,3.353673E0,-1.0579643E0,-7.46537E-1,-3.165602E0,-1.444366E-1,1.449618E0,-8.368531E0,-7.682209E-1,5.4765663E0,-8.7207705E-1,2.8663328E-1,-4.2117006E-1],"categories":[],"categories_nodes":[],"categories_segments":[],"categories_sizes":[],"default_left":[0,0,0,0,0,0,0,0,0,0,0,0,0,0,0,0,0,0,0,0,0,0,0,0,0,0,0,0,0,0,0,0,0,0,0,0,0,0,0,0,0,0,0,0,0,0,0,0,0,0,0,0,0,0,0,0,0,0,0,0,0,0,0,0,0,0,0,0,0,0,0,0,0],"id":17,"left_children":[1,3,5,7,9,11,13,15,17,19,-1,21,23,25,27,29,31,33,35,37,-1,39,41,-1,-1,43,-1,45,47,-1,-1,-1,-1,49,51,53,55,57,-1,59,-1,-1,61,-1,63,65,67,69,71,-1,-1,-1,-1,-1,-1,-1,-1,-1,-1,-1,-1,-1,-1,-1,-1,-1,-1,-1,-1,-1,-1,-1,-1],"loss_changes":[4.4166525E2,3.0169266E2,4.4360764E2,5.0865738E2,1.4046674E2,7.195044E2,1.096679E3,2.4678296E2,3.4623468E2,3.383667E1,0E0,7.1665405E2,4.6080017E1,2.068935E3,4.1779996E2,3.094506E1,6.49209E1,7.316525E1,2.4758527E2,2.3563782E1,0E0,3.0867346E2,5.497573E2,0E0,0E0,3.3757397E2,0E0,2.7077122E3,2.8186165E3,0E0,0E0,0E0,0E0,1.6806854E2,5.7700653E1,4.266342E0,3.2545296E1,2.9141724E1,0E0,1.2545398E2,0E0,0E0,3.0680814E2,0E0,1.2480499E1,1.7092118E3,6.1444326E3,3.1252651E3,1.4317236E3,0E0,0E0,0E0,0E0,0E0,0E0,0E0,0E0,0E0,0E0,0E0,0E0,0E0,0E0,0E0,0E0,0E0,0E0,0E0,0E0,0E0,0E0,0E0,0E0],"parents":[2147483647,0,0,1,1,2,2,3,3,4,4,5,5,6,6,7,7,8,8,9,9,11,11,12,12,13,13,14,14,15,15,16,16,17,17,18,18,19,19,21,21,22,22,25,25,27,27,28,28,33,33,34,34,35,35,36,36,37,37,39,39,42,42,44,44,45,45,46,46,47,47,48,48],"right_children":[2,4,6,8,10,12,14,16,18,20,-1,22,24,26,28,30,32,34,36,38,-1,40,42,-1,-1,44,-1,46,48,-1,-1,-1,-1,50,52,54,56,58,-1,60,-1,-1,62,-1,64,66,68,70,72,-1,-1,-1,-1,-1,-1,-1,-1,-1,-1,-1,-1,-1,-1,-1,-1,-1,-1,-1,-1,-1,-1,-1,-1],"split_conditions":[3.7405832E0,3.067666E0,4.4155836E0,9.504272E0,1.0462087E2,1.9839235E1,4.5301666E0,8.049845E0,1.1659777E1,1.8089775E1,7.575875E-1,9.5194244E1,4.2864165E0,1.2144331E1,2.9834406E1,1E-1,2.7155821E0,7.3387825E1,1.61198E1,8.795461E1,-7.03125E-1,7.3387825E1,2.2011472E2,-3.2245445E-1,-3.054654E0,1E-1,5.6381474E0,2.69891E1,3.0902538E1,-8.1992E-1,8.4901315E-1,-4.8327045E0,-8.5566676E-1,4E-1,1.873917E0,1.5379206E1,1E-1,3.5051663E0,-4.9652827E-1,1.3339445E1,6.1326184E0,-3.7778285E0,4.0134993E0,-8.393454E0,2E-1,2.4368711E1,9.726664E0,2.1544748E1,1.257426E1,-4.6368143E-1,2.9656153E0,4.4814378E-1,3.6275208E0,-2.1207094E0,-5.285534E-1,-4.2651445E-1,1.1348058E0,-3.3345077E0,-1.5819027E0,1.1529279E0,3.413341E0,3.353673E0,-1.0579643E0,-7.46537E-1,-3.165602E0,-1.444366E-1,1.449618E0,-8.368531E0,-7.682209E-1,5.4765663E0,-8.7207705E-1,2.8663328E-1,-4.2117006E-1],"split_indices":[0,0,0,2,3,2,0,2,2,2,0,3,0,2,3,1,0,3,2,3,0,3,3,0,0,1,0,3,3,0,0,0,0,1,0,2,1,0,0,2,0,0,0,0,1,3,2,0,2,0,0,0,0,0,0,0,0,0,0,0,0,0,0,0,0,0,0,0,0,0,0,0,0],"split_type":[0,0,0,0,0,0,0,0,0,0,0,0,0,0,0,0,0,0,0,0,0,0,0,0,0,0,0,0,0,0,0,0,0,0,0,0,0,0,0,0,0,0,0,0,0,0,0,0,0,0,0,0,0,0,0,0,0,0,0,0,0,0,0,0,0,0,0,0,0,0,0,0,0],"sum_hessian":[1.833E3,3.6E1,1.797E3,2.2E1,1.4E1,2.2E1,1.775E3,5E0,1.7E1,1.3E1,1E0,1.9E1,3E0,7E0,1.768E3,2E0,3E0,7E0,1E1,1.1E1,2E0,1.3E1,6E0,1E0,2E0,6E0,1E0,6.02E2,1.166E3,1E0,1E0,2E0,1E0,4E0,3E0,5E0,5E0,1E1,1E0,1.1E1,2E0,2E0,4E0,2E0,4E0,5.16E2,8.6E1,2.8E1,1.138E3,3E0,1E0,1E0,2E0,4E0,1E0,1E0,4E0,5E0,5E0,7E0,4E0,2E0,2E0,1E0,3E0,4.47E2,6.9E1,1E1,7.6E1,1.7E1,1.1E1,7.47E2,3.91E2],"tree_param":{"num_deleted":"0","num_feature":"4","num_nodes":"73","size_leaf_vector":"1"}},{"base_weights":[-2.2141362E-2,1.190927E0,-2.1523744E-1,6.8318084E-2,4.3536077E0,-6.215003E0,-1.0320628E-1,2.1517158E0,-2.6256878E0,9.102436E0,-2.019119E0,-8.489797E0,1.6329803E1,9.886826E0,-1.612587E-1,6.1818733E0,-1.913409E-1,-7.037642E0,8.0954695E-1,5.7971582E0,8.927352E0,1.5177316E1,-8.18059E0,4.4666996E0,-1.4180252E1,7.6732354E0,-3.2482338E-1,-9.720457E0,8.255023E0,-4.7876453E0,-5.099998E-2,-1.3758054E1,7.6315465E0,-3.7998242E0,6.582538E0,-1.1486007E1,7.7307564E-1,3.3821242E0,-6.975647E0,8.567E0,-5.1355233E0,-1.1334893E0,1.8425016E1,-1.6528646E1,-4.017028E0,-8.928108E0,1.2652122E1,-1.7136473E1,1.1896925E0,5.263041E0,-6.4391418E0,-2.5418324E1,-6.4017045E-1,1.1235145E1,-2.251814E-1,-4.939444E0,-1.2516804E0,2.9136827E0,-1.4212792E0,-1.7764273E0,2.5690048E0,-3.2523756E0,3.5215013E0,-2.4175282E0,-7.7257223E0,-8.260021E-1,2.3013878E0,4.1871235E-1,3.4236534E0,-3.0669515E0,6.225586E-1,2.1492644E-1,5.814577E0,2.5014915E0,8.72836E0,-1.4036489E0,-5.317144E0,-5.005184E0,9.772156E-1,2.7226458E0,-5.3863406E0,8.732376E-2,5.627962E0,-6.3958693E0,2.2280617E-1,2.4371362E0,-2.9418888E0,4.0869027E-1,1.9596783E0,4.0509524E0,-1.0770978E1,3.9615848E0,-1.3473871E0,6.508574E0,1.2630221E0,-2.1550806E0,6.4257043E-3],"categories":[],"categories_nodes":[],"categories_segments":[],"categories_sizes":[],"default_left":[0,0,0,0,0,0,0,0,0,0,0,0,0,0,0,0,0,0,0,0,0,0,0,0,0,0,0,0,0,0,0,0,0,0,0,0,0,0,0,0,0,0,0,0,0,0,0,0,0,0,0,0,0,0,0,0,0,0,0,0,0,0,0,0,0,0,0,0,0,0,0,0,0,0,0,0,0,0,0,0,0,0,0,0,0,0,0,0,0,0,0,0,0,0,0,0,0],"id":18,"left_children":[1,3,5,7,9,11,13,15,17,19,21,23,25,27,29,31,33,35,37,39,-1,41,43,45,47,-1,-1,49,-1,51,