{"learner":{"attributes":{"scikit_learn":"{\"_estimator_type\": \"regressor\"}"},"feature_names":["temperature_2m_mean","precipitation_sum","wind_speed_10m_max","wind_direction_10m_dominant","pm25_rolling_mean"],"feature_types":["float","float","float","float","float"],"gradient_booster":{"model":{"gbtree_model_param":{"num_parallel_tree":"1","num_trees":"100"},"iteration_indptr":[0,1,2,3,4,5,6,7,8,9,10,11,12,13,14,15,16,17,18,19,20,21,22,23,24,25,26,27,28,29,30,31,32,33,34,35,36,37,38,39,40,41,42,43,44,45,46,47,48,49,50,51,52,53,54,55,56,57,58,59,60,61,62,63,64,65,66,67,68,69,70,71,72,73,74,75,76,77,78,79,80,81,82,83,84,85,86,87,88,89,90,91,92,93,94,95,96,97,98,99,100],"tree_info":[0,0,0,0,0,0,0,0,0,0,0,0,0,0,0,0,0,0,0,0,0,0,0,0,0,0,0,0,0,0,0,0,0,0,0,0,0,0,0,0,0,0,0,0,0,0,0,0,0,0,0,0,0,0,0,0,0,0,0,0,0,0,0,0,0,0,0,0,0,0,0,0,0,0,0,0,0,0,0,0,0,0,0,0,0,0,0,0,0,0,0,0,0,0,0,0,0,0,0,0],"trees":[{"base_weights":[-2.324159E-6,-1.745385E1,3.6133545E1,-3.0048836E1,-3.3890371E0,2.48408E1,5.347153E1,-2.59901E1,-4.0099583E1,1.1112882E1,-9.490599E0,3.2697266E1,7.762346E0,5.9100426E1,2.6963427E1,-3.838288E1,-2.2075048E1,-4.6662098E1,-3.544714E1,1.7121214E1,-1.4130879E1,-7.5240693E0,-3.2669456E1,3.6895523E1,1.0498894E1,1.049671E1,-6.7497582E0,2.4820835E1,6.1035892E1,3.7212612E1,4.4895348E-1,-1.03424225E1,-3.8802498E1,-1.6187246E1,-2.8563848E1,-4.8382656E1,-9.243682E0,-3.870022E1,-2.559384E1,1.9868907E0,2.0365793E1,-2.23464E1,5.0785146E0,-3.8684175E0,-1.4183903E1,-1.8746058E1,-4.245732E1,5.5611794E1,3.332352E1,1.9205542E1,-1.841227E1,8.93275E0,3.298864E1,-3.261091E1,2.3206086E0,3.6988316E1,6.4886384E0,6.163644E1,4.6575775E0,-9.510225E0,4.255828E1,-9.739667E0,1.1297274E1,-3.0204508E-1,-4.352045E0,-1.2897884E1,-1.0440089E1,-6.4351487E0,-2.1790335E0,-9.019351E0,-2.4730062E0,-1.1883926E1,-1.5764966E1,-9.559322E0,-1.3901278E1,-1.2423681E1,-5.172086E0,2.3361144E0,-4.460649E0,5.5249205E0,1.1756319E1,4.797955E0,-7.412608E0,5.8839216E0,-7.578068E0,1.6827932E-1,-2.8846078E0,-4.754056E0,-2.4758449E-1,-7.9787498E0,2.8469324E0,-3.7027268E0,-1.3635085E1,1.7492817E1,-4.2020454E0,8.210235E0,1.2397317E1,-1.7280676E0,6.5960507E0,-8.966079E0,5.4972734E0,-5.463272E0,3.1071918E0,2.7972734E0,1.2746934E1,-1.1802727E1,-4.502727E0,8.321933E0,-1.9037493E0,-2.552045E0,1.3796593E1,-1.7280676E0,6.1972737E0,1.8631327E1,3.9972734E0,-3.4520452E0,5.547955E0,1.947955E0,-5.102727E0,9.231916E0,1.5216183E1,-4.5336814E0,6.597955E0],"categories":[],"categories_nodes":[],"categories_segments":[],"categories_sizes":[],"default_left":[0,0,0,0,0,0,0,0,0,0,0,0,0,0,0,0,0,0,0,0,0,0,0,0,0,0,0,0,0,0,0,0,0,0,0,0,0,0,0,0,0,0,0,0,0,0,0,0,0,0,0,0,0,0,0,0,0,0,0,0,0,0,0,0,0,0,0,0,0,0,0,0,0,0,0,0,0,0,0,0,0,0,0,0,0,0,0,0,0,0,0,0,0,0,0,0,0,0,0,0,0,0,0,0,0,0,0,0,0,0,0,0,0,0,0,0,0,0,0,0,0,0,0],"id":0,"left_children":[1,3,5,7,9,11,13,15,17,19,21,23,25,27,29,31,33,35,37,39,41,43,45,47,49,51,53,55,57,59,61,63,65,67,69,71,-1,73,75,77,79,81,83,85,87,89,91,93,95,97,99,101,103,105,107,109,111,113,115,117,119,121,-1,-1,-1,-1,-1,-1,-1,-1,-1,-1,-1,-1,-1,-1,-1,-1,-1,-1,-1,-1,-1,-1,-1,-1,-1,-1,-1,-1,-1,-1,-1,-1,-1,-1,-1,-1,-1,-1,-1,-1,-1,-1,-1,-1,-1,-1,-1,-1,-1,-1,-1,-1,-1,-1,-1,-1,-1,-1,-1,-1,-1],"loss_changes":[1.157909E6,2.1920503E5,1.1575625E5,2.5595875E4,5.1957293E4,4.8586344E4,3.3471125E4,2.1859312E4,4.024875E3,2.6633023E4,1.8579516E4,2.2818094E4,4.67389E3,1.129E4,1.1668617E4,9.0475E2,1.3214953E4,5.272344E2,2.6315625E3,6.8832734E3,5.4792007E3,9.245318E3,3.5650625E3,1.21194375E4,1.067411E4,3.1526162E3,4.5325093E3,2.4366748E3,5.875E3,8.147449E3,5.2951313E3,1.0202573E2,3.31875E2,8.768152E3,4.9056562E3,2.9375E2,0E0,2.856711E3,3.3823828E3,2.6576958E3,3.534504E3,2.568835E3,5.3459917E3,6.318286E3,2.9859062E3,3.577062E3,1.0614238E3,6.826422E3,7.3514062E3,2.3486377E3,4.763045E3,3.7847095E3,9.528467E2,1.9404297E0,3.480437E3,3.2575137E3,1.1603127E3,3.2421875E3,8.837302E2,5.9047266E2,1.132625E3,2.207735E3,0E0,0E0,0E0,0E0,0E0,0E0,0E0,0E0,0E0,0E0,0E0,0E0,0E0,0E0,0E0,0E0,0E0,0E0,0E0,0E0,0E0,0E0,0E0,0E0,0E0,0E0,0E0,0E0,0E0,0E0,0E0,0E0,0E0,0E0,0E0,0E0,0E0,0E0,0E0,0E0,0E0,0E0,0E0,0E0,0E0,0E0,0E0,0E0,0E0,0E0,0E0,0E0,0E0,0E0,0E0,0E0,0E0,0E0,0E0,0E0,0E0],"parents":[2147483647,0,0,1,1,2,2,3,3,4,4,5,5,6,6,7,7,8,8,9,9,10,10,11,11,12,12,13,13,14,14,15,15,16,16,17,17,18,18,19,19,20,20,21,21,22,22,23,23,24,24,25,25,26,26,27,27,28,28,29,29,30,30,31,31,32,32,33,33,34,34,35,35,37,37,38,38,39,39,40,40,41,41,42,42,43,43,44,44,45,45,46,46,47,47,48,48,49,49,50,50,51,51,52,52,53,53,54,54,55,55,56,56,57,57,58,58,59,59,60,60,61,61],"right_children":[2,4,6,8,10,12,14,16,18,20,22,24,26,28,30,32,34,36,38,40,42,44,46,48,50,52,54,56,58,60,62,64,66,68,70,72,-1,74,76,78,80,82,84,86,88,90,92,94,96,98,100,102,104,106,108,110,112,114,116,118,120,122,-1,-1,-1,-1,-1,-1,-1,-1,-1,-1,-1,-1,-1,-1,-1,-1,-1,-1,-1,-1,-1,-1,-1,-1,-1,-1,-1,-1,-1,-1,-1,-1,-1,-1,-1,-1,-1,-1,-1,-1,-1,-1,-1,-1,-1,-1,-1,-1,-1,-1,-1,-1,-1,-1,-1,-1,-1,-1,-1,-1,-1],"split_conditions":[1.14E2,7.6E1,1.4833333E2,1.3608762E1,1.4123917E1,9.000001E-1,1.5629971E1,4.7E1,5.5666668E1,1.7000002E0,1.3600001E1,1.9661419E1,2.000512E1,4.6739163E0,4.0041073E1,7.1534667E0,7.0000005E-1,2.7101004E1,2.63635E1,8.2666664E1,1.01E2,1.4713814E2,3.1474089E1,2.1173536E1,3E-1,3.4685114E2,2.5067453E1,1.6666667E2,2.1496834E1,4.1509995E0,2.0718846E2,1.6673914E1,3.8666668E1,6.6666664E1,2.7223915E1,2.2048918E1,-9.243682E0,1.6831684E1,4E-1,1.3755797E2,3.3124295E2,7.6666664E1,1.11666664E2,1.8000002E0,5.1000004E0,9.7666664E1,1.3044722E1,1.6871832E1,1.3366667E2,1.15333336E2,2.138897E1,5.8510003E0,9.726664E0,2.3999999E0,3.0339703E1,2.7155821E0,1E-1,3.5801883E2,2.2965586E1,2.2155836E0,1.5666667E2,5E-1,1.1297274E1,-3.0204508E-1,-4.352045E0,-1.2897884E1,-1.0440089E1,-6.4351487E0,-2.1790335E0,-9.019351E0,-2.4730062E0,-1.1883926E1,-1.5764966E1,-9.559322E0,-1.3901278E1,-1.2423681E1,-5.172086E0,2.3361144E0,-4.460649E0,5.5249205E0,1.1756319E1,4.797955E0,-7.412608E0,5.8839216E0,-7.578068E0,1.6827932E-1,-2.8846078E0,-4.754056E0,-2.4758449E-1,-7.9787498E0,2.8469324E0,-3.7027268E0,-1.3635085E1,1.7492817E1,-4.2020454E0,8.210235E0,1.2397317E1,-1.7280676E0,6.5960507E0,-8.966079E0,5.4972734E0,-5.463272E0,3.1071918E0,2.7972734E0,1.2746934E1,-1.1802727E1,-4.502727E0,8.321933E0,-1.9037493E0,-2.552045E0,1.3796593E1,-1.7280676E0,6.1972737E0,1.8631327E1,3.9972734E0,-3.4520452E0,5.547955E0,1.947955E0,-5.102727E0,9.231916E0,1.5216183E1,-4.5336814E0,6.597955E0],"split_indices":[4,4,4,2,0,1,2,4,4,1,1,0,2,0,3,3,1,0,0,4,4,3,3,3,1,3,3,4,0,0,3,0,4,4,0,0,0,2,1,3,3,4,4,1,1,4,2,0,4,4,2,0,2,1,3,0,1,3,0,0,4,1,0,0,0,0,0,0,0,0,0,0,0,0,0,0,0,0,0,0,0,0,0,0,0,0,0,0,0,0,0,0,0,0,0,0,0,0,0,0,0,0,0,0,0,0,0,0,0,0,0,0,0,0,0,0,0,0,0,0,0,0,0],"split_type":[0,0,0,0,0,0,0,0,0,0,0,0,0,0,0,0,0,0,0,0,0,0,0,0,0,0,0,0,0,0,0,0,0,0,0,0,0,0,0,0,0,0,0,0,0,0,0,0,0,0,0,0,0,0,0,0,0,0,0,0,0,0,0,0,0,0,0,0,0,0,0,0,0,0,0,0,0,0,0,0,0,0,0,0,0,0,0,0,0,0,0,0,0,0,0,0,0,0,0,0,0,0,0,0,0,0,0,0,0,0,0,0,0,0,0,0,0,0,0,0,0,0,0],"sum_hessian":[1.834E3,1.237E3,5.97E2,6.52E2,5.85E2,3.63E2,2.34E2,4.67E2,1.85E2,1.73E2,4.12E2,2.48E2,1.15E2,1.92E2,4.2E1,1.1E2,3.57E2,7.3E1,1.12E2,1.4E2,3.3E1,3.81E2,3.1E1,2.08E2,4E1,9.7E1,1.8E1,1.1E1,1.81E2,3E1,1.2E1,2E0,1.08E2,1.89E2,1.68E2,6.4E1,9E0,8.2E1,3E1,2.5E1,1.15E2,2.3E1,1E1,2.47E2,1.34E2,1.4E1,1.7E1,3.1E1,1.77E2,3.1E1,9E0,9.2E1,5E0,4E0,1.4E1,6E0,5E0,1.79E2,2E0,3E0,2.7E1,1E1,2E0,1E0,1E0,4.8E1,6E1,1.18E2,7.1E1,1.56E2,1.2E1,2.4E1,4E1,4.6E1,3.6E1,9E0,2.1E1,1.9E1,6E0,1.06E2,9E0,1E0,2.2E1,7E0,3E0,1.4E2,1.07E2,1.19E2,1.5E1,1.1E1,3E0,2E0,1.5E1,3E1,1E0,1.04E2,7.3E1,3E0,2.8E1,7E0,2E0,4E0,8.8E1,2E0,3E0,2E0,2E0,3E0,1.1E1,1E0,5E0,3E0,2E0,1.77E2,2E0,1E0,1E0,1E0,2E0,1.3E1,1.4E1,9E0,1E0],"tree_param":{"num_deleted":"0","num_feature":"5","num_nodes":"123","size_leaf_vector":"1"}},{"base_weights":[-1.72749E-2,-1.2973986E1,2.4253775E1,-2.1227213E1,-3.0614502E0,1.6362967E1,3.774962E1,-2.6000858E1,-1.6533415E1,8.305438E0,-6.4994774E0,2.2068151E1,4.5292916E0,4.1579823E1,1.9680328E1,-2.2496563E1,-3.2030067E1,-1.0269558E1,-2.1895014E1,1.2089005E1,-1.6887587E1,-5.083276E0,-2.4060867E1,2.5373283E1,5.206459E0,9.606999E0,3.5102513E-1,1.09338E1,4.250465E1,2.5930773E1,-8.601282E-1,-2.9182829E1,-2.0617739E1,-3.5356476E1,-2.5327433E1,-5.4773684E0,-1.616305E1,-3.530964E0,-2.2852089E1,2.1493656E1,6.4878845E0,7.389679E0,-2.2617693E1,-1.029133E1,-1.9461476E0,-1.3464359E1,-3.199538E1,3.356931E1,1.9784792E1,-5.436899E0,1.7064528E1,1.7270655E1,-1.0789613E0,-8.65906E0,2.4327645E0,-4.139345E0,6.9820485E0,4.3022488E1,8.057964E0,-7.4458485E0,2.951663E1,-2.1899958E1,2.0323057E1,-1.1758842E1,-7.4882193E0,-6.321963E0,-5.4843616E-1,-9.170733E0,-1.282055E1,1.4627004E0,-7.8549037E0,-2.2181406E0,3.5859768E0,6.499792E-1,-5.5807366E0,7.177111E-1,-5.4448605E0,-7.5106936E0,-4.399719E0,-4.751976E-1,7.4228654E0,-4.8591712E-1,4.9258943E0,-1.252462E0,3.7908463E0,4.6782246E-1,-8.805964E0,-1.2372203E0,-4.775232E0,-2.3086314E0,7.356612E-1,-5.7845926E0,2.206373E0,-2.962181E0,-1.0285994E1,3.5602362E0,1.1208294E1,6.68541E0,-4.332741E0,1.1270854E0,-6.6596885E0,-2.7657244E0,6.046153E0,9.86393E0,3.180869E0,8.9424944E-1,-4.5325227E0,-2.2048867E0,2.3089178E0,1.6784661E0,-2.7747154E0,1.309167E1,5.2387605E0,-2.934239E0,5.179345E0,1.6557622E0,-4.082181E0,1.02093E1,4.5605645E0,-7.675188E0,-5.219925E-1,-4.1219926E0,8.965097E0],"categories":[],"categories_nodes":[],"categories_segments":[],"categories_sizes":[],"default_left":[0,0,0,0,0,0,0,0,0,0,0,0,0,0,0,0,0,0,0,0,0,0,0,0,0,0,0,0,0,0,0,0,0,0,0,0,0,0,0,0,0,0,0,0,0,0,0,0,0,0,0,0,0,0,0,0,0,0,0,0,0,0,0,0,0,0,0,0,0,0,0,0,0,0,0,0,0,0,0,0,0,0,0,0,0,0,0,0,0,0,0,0,0,0,0,0,0,0,0,0,0,0,0,0,0,0,0,0,0,0,0,0,0,0,0,0,0,0,0,0,0,0,0],"id":1,"left_children":[1,3,5,7,9,11,13,15,17,19,21,23,25,27,29,31,33,35,37,39,41,43,45,47,49,51,53,55,57,59,61,63,65,67,69,71,73,75,77,79,81,83,85,87,89,91,93,95,97,99,101,103,105,-1,107,109,-1,111,113,115,117,119,121,-1,-1,-1,-1,-1,-1,-1,-1,-1,-1,-1,-1,-1,-1,-1,-1,-1,-1,-1,-1,-1,-1,-1,-1,-1,-1,-1,-1,-1,-1,-1,-1,-1,-1,-1,-1,-1,-1,-1,-1,-1,-1,-1,-1,-1,-1,-1,-1,-1,-1,-1,-1,-1,-1,-1,-1,-1,-1,-1,-1],"loss_changes":[5.7737256E5,9.786209E4,6.743141E4,1.4201594E4,2.1352402E4,2.7242922E4,1.5445844E4,6.0826875E3,1.0925125E4,1.2309731E4,1.029842E4,1.5082219E4,2.8183577E3,5.0053125E3,5.5429453E3,1.9987109E3,1.6908125E3,4.289093E3,3.0477969E3,5.7076533E3,2.5320293E3,6.335583E3,2.175623E3,9.779016E3,5.8984224E3,4.932246E3,4.570683E3,1.398323E3,2.989E3,4.16934E3,5.347671E3,8.395547E2,1.3735625E3,1.3429609E3,1.2129902E3,2.994583E3,3.1255332E3,9.093272E2,2.6537734E3,3.1135586E3,5.7437173E3,2.9544693E2,2.325608E3,5.0002197E3,6.188996E3,1.9585593E3,5.231211E2,7.044672E3,1.2129805E4,3.936098E3,1.9721636E3,3.2941016E3,1.5259083E3,0E0,3.6609246E3,2.5070364E2,0E0,2.1369375E3,8.257919E2,3.9463397E2,1.4213262E3,4.0110083E2,2.3645789E3,0E0,0E0,0E0,0E0,0E0,0E0,0E0,0E0,0E0,0E0,0E0,0E0,0E0,0E0,0E0,0E0,0E0,0E0,0E0,0E0,0E0,0E0,0E0,0E0,0E0,0E0,0E0,0E0,0E0,0E0,0E0,0E0,0E0,0E0,0E0,0E0,0E0,0E0,0E0,0E0,0E0,0E0,0E0,0E0,0E0,0E0,0E0,0E0,0E0,0E0,0E0,0E0,0E0,0E0,0E0,0E0,0E0,0E0,0E0,0E0],"parents":[2147483647,0,0,1,1,2,2,3,3,4,4,5,5,6,6,7,7,8,8,9,9,10,10,11,11,12,12,13,13,14,14,15,15,16,16,17,17,18,18,19,19,20,20,21,21,22,22,23,23,24,24,25,25,26,26,27,27,28,28,29,29,30,30,31,31,32,32,33,33,34,34,35,35,36,36,37,37,38,38,39,39,40,40,41,41,42,42,43,43,44,44,45,45,46,46,47,47,48,48,49,49,50,50,51,51,52,52,54,54,55,55,57,57,58,58,59,59,60,60,61,61,62,62],"right_children":[2,4,6,8,10,12,14,16,18,20,22,24,26,28,30,32,34,36,38,40,42,44,46,48,50,52,54,56,58,60,62,64,66,68,70,72,74,76,78,80,82,84,86,88,90,92,94,96,98,100,102,104,106,-1,108,110,-1,112,114,116,118,120,122,-1,-1,-1,-1,-1,-1,-1,-1,-1,-1,-1,-1,-1,-1,-1,-1,-1,-1,-1,-1,-1,-1,-1,-1,-1,-1,-1,-1,-1,-1,-1,-1,-1,-1,-1,-1,-1,-1,-1,-1,-1,-1,-1,-1,-1,-1,-1,-1,-1,-1,-1,-1,-1,-1,-1,-1,-1,-1,-1,-1],"split_conditions":[1.11333336E2,7.6E1,1.4833333E2,5.8333332E1,1.2698917E1,9.000001E-1,1.5629971E1,1.288981E1,1.0931203E1,1.477755E1,1.3600001E1,1.9661419E1,2.2E0,3.9593327E0,4.798559E1,3.8666668E1,2.5855165E1,7E-1,6.9926667E0,9.726664E0,1E-1,8.6333336E1,3.1474089E1,4.055656E1,1.23666664E2,1.4205182E1,2.3999999E0,1.2475961E1,2.1059332E1,4.1509995E0,1.6033333E2,3.7288177E1,3.418219E2,1.722742E1,2.595725E1,2.3273148E2,6.618519E0,9.000001E-1,2.669475E1,7.24486E0,1.1966953E1,2.7155821E0,8.3333336E1,8.1333336E1,2.1205168E1,9.7666664E1,1.3044722E1,5.5655837E0,1.5629971E1,2.1007872E2,9.255571E0,7.948917E0,1.9201874E1,-8.65906E0,1.21E2,9.107359E0,6.9820485E0,3.4999998E0,1.0805999E1,2.2155836E0,2.3110205E1,1.9661419E1,1.2698917E1,-1.1758842E1,-7.4882193E0,-6.321963E0,-5.4843616E-1,-9.170733E0,-1.282055E1,1.4627004E0,-7.8549037E0,-2.2181406E0,3.5859768E0,6.499792E-1,-5.5807366E0,7.177111E-1,-5.4448605E0,-7.5106936E0,-4.399719E0,-4.751976E-1,7.4228654E0,-4.8591712E-1,4.9258943E0,-1.252462E0,3.7908463E0,4.6782246E-1,-8.805964E0,-1.2372203E0,-4.775232E0,-2.3086314E0,7.356612E-1,-5.7845926E0,2.206373E0,-2.962181E0,-1.0285994E1,3.5602362E0,1.1208294E1,6.68541E0,-4.332741E0,1.1270854E0,-6.6596885E0,-2.7657244E0,6.046153E0,9.86393E0,3.180869E0,8.9424944E-1,-4.5325227E0,-2.2048867E0,2.3089178E0,1.6784661E0,-2.7747154E0,1.309167E1,5.2387605E0,-2.934239E0,5.179345E0,1.6557622E0,-4.082181E0,1.02093E1,4.5605645E0,-7.675188E0,-5.219925E-1,-4.1219926E0,8.965097E0],"split_indices":[4,4,4,4,0,1,2,2,2,2,1,0,1,0,3,4,0,1,0,2,1,4,3,3,4,2,1,2,0,0,4,3,3,2,0,3,2,1,0,2,2,0,4,4,0,4,2,0,2,3,2,0,2,0,4,2,0,1,2,0,2,0,0,0,0,0,0,0,0,0,0,0,0,0,0,0,0,0,0,0,0,0,0,0,0,0,0,0,0,0,0,0,0,0,0,0,0,0,0,0,0,0,0,0,0,0,0,0,0,0,0,0,0,0,0,0,0,0,0,0,0,0,0],"split_type":[0,0,0,0,0,0,0,0,0,0,0,0,0,0,0,0,0,0,0,0,0,0,0,0,0,0,0,0,0,0,0,0,0,0,0,0,0,0,0,0,0,0,0,0,0,0,0,0,0,0,0,0,0,0,0,0,0,0,0,0,0,0,0,0,0,0,0,0,0,0,0,0,0,0,0,0,0,0,0,0,0,0,0,0,0,0,0,0,0,0,0,0,0,0,0,0,0,0,0,0,0,0,0,0,0,0,0,0,0,0,0,0,0,0,0,0,0,0,0,0,0,0,0],"sum_hessian":[1.834E3,1.196E3,6.38E2,6.52E2,5.44E2,4.04E2,2.34E2,3.21E2,3.31E2,1.26E2,4.18E2,2.72E2,1.32E2,1.92E2,4.2E1,2.06E2,1.15E2,1.54E2,1.77E2,1.1E2,1.6E1,3.88E2,3E1,2.27E2,4.5E1,5.9E1,7.3E1,6E0,1.86E2,3.2E1,1E1,4.2E1,1.64E2,7.4E1,4.1E1,8.6E1,6.8E1,9E0,1.68E2,4E1,7E1,3E0,1.3E1,1.45E2,2.43E2,1.4E1,1.6E1,9E1,1.37E2,2.4E1,2.1E1,3.4E1,2.5E1,4E0,6.9E1,3E0,3E0,1.83E2,3E0,3E0,2.9E1,5E0,5E0,1E1,3.2E1,1.6E2,4E0,4.8E1,2.6E1,1E0,4E1,7.8E1,8E0,8E0,6E1,7E0,2E0,1.31E2,3.7E1,5E0,3.5E1,3.9E1,3.1E1,1E0,2E0,3E0,1E1,7E1,7.5E1,1.05E2,1.38E2,1.1E1,3E0,2E0,1.4E1,1.4E1,7.6E1,1.28E2,9E0,1.6E1,8E0,2E0,1.9E1,9E0,2.5E1,2E1,5E0,2.4E1,4.5E1,1E0,2E0,1.78E2,5E0,1E0,2E0,1E0,2E0,2.1E1,8E0,4E0,1E0,1E0,4E0],"tree_param":{"num_deleted":"0","num_feature":"5","num_nodes":"123","size_leaf_vector":"1"}},{"base_weights":[-3.51738E-2,-8.67022E0,1.8155466E1,-1.4973447E1,-1.7146091E0,1.3644949E1,2.9621277E1,-1.2807988E1,-2.0549627E1,2.0313342E0,-8.657972E0,1.717295E1,5.10865E0,2.0654595E0,3.1563526E1,-1.5233138E1,-5.934506E0,-1.2524261E1,-2.2124708E1,9.90172E0,-2.3880808E0,-1.7882929E1,-5.6254992E0,2.4193056E1,1.3506833E1,2.5614204E0,1.354037E1,-2.09831E0,4.576862E0,3.307238E1,1.7369755E1,-2.000713E1,-1.2922549E1,-2.3609316E0,-1.3754158E1,-1.8212751E1,4.036628E0,-2.5006094E1,-1.7510782E1,1.6100481E1,3.0000584E0,-4.8605177E-1,-1.8609787E1,6.960341E0,-2.0145342E1,-2.3951755E0,-1.7788994E1,2.686691E1,-3.694569E-1,3.4212654E1,1.1643049E1,5.531963E0,-7.36565E0,2.0488712E1,-4.1769156E0,3.614716E0,-5.009023E0,3.6831306E1,2.4930836E1,6.8125534E-1,2.4266523E1,-5.577017E0,-8.2043085E0,-3.097727E0,-6.187783E0,-1.179247E1,-4.4227183E-1,-8.91125E-1,-6.111069E0,-4.1090856E0,-8.843198E0,3.706974E0,-3.171812E-2,-6.4033093E0,-8.774166E0,-1.2290277E0,-5.926097E0,3.8032503E0,9.277099E0,1.813358E0,-4.4873586E0,1.3058646E0,-2.1519072E0,5.882539E0,-6.7834983E0,6.0201955E-1,2.8781512E0,-3.0963798E0,-7.932919E0,-1.3943319E0,4.375169E0,-3.7841327E0,-8.529186E0,9.480097E0,5.3588543E0,-6.2748604E0,6.071659E0,1.0656302E1,2.1881025E0,8.531841E-1,4.849061E0,1.1516432E0,8.642089E0,-1.0812089E1,-3.7873173E-1,7.723038E0,-4.425499E-1,-5.081516E0,1.5080651E0,-3.9418557E0,1.2369832E0,1.1451855E1,4.4688706E0,4.653883E0,1.2191436E1,-2.3684015E0,6.534134E0,9.299675E0,3.7102945E0],"categories":[],"categories_nodes":[],"categories_segments":[],"categories_sizes":[],"default_left":[0,0,0,0,0,0,0,0,0,0,0,0,0,0,0,0,0,0,0,0,0,0,0,0,0,0,0,0,0,0,0,0,0,0,0,0,0,0,0,0,0,0,0,0,0,0,0,0,0,0,0,0,0,0,0,0,0,0,0,0,0,0,0,0,0,0,0,0,0,0,0,0,0,0,0,0,0,0,0,0,0,0,0,0,0,0,0,0,0,0,0,0,0,0,0,0,0,0,0,0,0,0,0,0,0,0,0,0,0,0,0,0,0,0,0,0,0,0,0],"id":2,"left_children":[1,3,5,7,9,11,13,15,17,19,21,23,25,27,29,31,33,35,37,39,41,43,45,47,49,51,53,55,-1,57,59,61,63,65,67,69,71,73,75,77,79,81,83,85,87,89,91,93,95,97,99,101,103,105,107,-1,109,111,113,115,117,-1,-1,-1,-1,-1,-1,-1,-1,-1,-1,-1,-1,-1,-1,-1,-1,-1,-1,-1,-1,-1,-1,-1,-1,-1,-1,-1,-1,-1,-1,-1,-1,-1,-1,-1,-1,-1,-1,-1,-1,-1,-1,-1,-1,-1,-1,-1,-1,-1,-1,-1,-1,-1,-1,-1,-1,-1,-1],"loss_changes":[2.8839372E5,5.455861E4,3.0160422E4,7.6217656E3,1.54411875E4,1.2741719E4,8.819156E3,7.7941562E3,2.0108516E3,1.344969E4,5.718081E3,7.419922E3,2.671486E3,6.9109094E2,2.7450781E3,3.5911797E3,3.4605415E3,3.088124E3,1.5562969E3,5.8983613E3,7.6427847E3,3.006712E3,6.165532E3,6.7089336E3,7.3198945E3,2.930647E3,3.6556475E3,4.7214313E2,0E0,3.3356406E3,1.9401128E3,6.566406E2,4.548004E3,2.7922473E3,2.7219854E3,8.170952E2,3.114842E2,7.734219E2,1.7543164E3,3.3119453E3,3.753458E3,7.247016E3,4.4199404E3,4.5974274E1,2.6349297E3,4.8869053E3,1.4587832E3,3.3565703E3,5.0810933E3,3.044336E2,7.312635E3,2.8844326E3,3.9796719E3,2.4616826E3,1.1422332E3,0E0,7.22429E2,2.1680625E3,6.3222715E3,1.2576201E3,5.7791064E2,0E0,0E0,0E0,0E0,0E0,0E0,0E0,0E0,0E0,0E0,0E0,0E0,0E0,0E0,0E0,0E0,0E0,0E0,0E0,0E0,0E0,0E0,0E0,0E0,0E0,0E0,0E0,0E0,0E0,0E0,0E0,0E0,0E0,0E0,0E0,0E0,0E0,0E0,0E0,0E0,0E0,0E0,0E0,0E0,0E0,0E0,0E0,0E0,0E0,0E0,0E0,0E0,0E0,0E0,0E0,0E0,0E0,0E0],"parents":[2147483647,0,0,1,1,2,2,3,3,4,4,5,5,6,6,7,7,8,8,9,9,10,10,11,11,12,12,13,13,14,14,15,15,16,16,17,17,18,18,19,19,20,20,21,21,22,22,23,23,24,24,25,25,26,26,27,27,29,29,30,30,31,31,32,32,33,33,34,34,35,35,36,36,37,37,38,38,39,39,40,40,41,41,42,42,43,43,44,44,45,45,46,46,47,47,48,48,49,49,50,50,51,51,52,52,53,53,54,54,56,56,57,57,58,58,59,59,60,60],"right_children":[2,4,6,8,10,12,14,16,18,20,22,24,26,28,30,32,34,36,38,40,42,44,46,48,50,52,54,56,-1,58,60,62,64,66,68,70,72,74,76,78,80,82,84,86,88,90,92,94,96,98,100,102,104,106,108,-1,110,112,114,116,118,-1,-1,-1,-1,-1,-1,-1,-1,-1,-1,-1,-1,-1,-1,-1,-1,-1,-1,-1,-1,-1,-1,-1,-1,-1,-1,-1,-1,-1,-1,-1,-1,-1,-1,-1,-1,-1,-1,-1,-1,-1,-1,-1,-1,-1,-1,-1,-1,-1,-1,-1,-1,-1,-1,-1,-1,-1,-1],"split_conditions":[1.14666664E2,7.6E1,1.5566667E2,1.3755579E1,1.8000002E0,9.000001E-1,4.6739163E0,6.6666664E1,1.2790858E1,1.3667666E1,2.7999997E0,8.484334E0,1.9821836E1,7E-1,1.8214718E1,4.7E1,2E0,1.0518973E1,6.2666668E1,2E-1,1.6831684E1,8.622503E0,1.3600001E1,1.5629971E1,7.968939E0,1.6015581E1,1.4700001E1,7.491114E0,4.576862E0,6.2256943E1,7.7218337E0,1.27279215E1,2.1706049E2,6.0347E0,1.0239453E1,9.462248E0,1.5408671E1,1.722742E1,1.5141414E1,1.11666664E2,1.2698917E1,1.4713814E2,1.5226001E1,2.1711416E1,1.2313893E1,2.6259333E1,3.13E1,9.396453E1,5.2114167E0,1.9661419E1,1.26E2,1.539058E1,1.6342667E1,7.013734E1,2E1,3.614716E0,1.68E2,3.0999997E0,2.5921576E2,1.85E2,1.63E2,-5.577017E0,-8.2043085E0,-3.097727E0,-6.187783E0,-1.179247E1,-4.4227183E-1,-8.91125E-1,-6.111069E0,-4.1090856E0,-8.843198E0,3.706974E0,-3.171812E-2,-6.4033093E0,-8.774166E0,-1.2290277E0,-5.926097E0,3.8032503E0,9.277099E0,1.813358E0,-4.4873586E0,1.3058646E0,-2.1519072E0,5.882539E0,-6.7834983E0,6.0201955E-1,2.8781512E0,-3.0963798E0,-7.932919E0,-1.3943319E0,4.375169E0,-3.7841327E0,-8.529186E0,9.480097E0,5.3588543E0,-6.2748604E0,6.071659E0,1.0656302E1,2.1881025E0,8.531841E-1,4.849061E0,1.1516432E0,8.642089E0,-1.0812089E1,-3.7873173E-1,7.723038E0,-4.425499E-1,-5.081516E0,1.5080651E0,-3.9418557E0,1.2369832E0,1.1451855E1,4.4688706E0,4.653883E0,1.2191436E1,-2.3684015E0,6.534134E0,9.299675E0,3.7102945E0],"split_indices":[4,4,4,2,1,1,0,4,3,0,1,0,0,1,2,4,1,3,4,1,2,3,1,2,2,0,1,2,0,3,0,2,3,2,2,3,2,2,2,4,0,3,0,0,2,0,1,3,0,0,4,0,0,3,1,0,4,1,3,4,4,0,0,0,0,0,0,0,0,0,0,0,0,0,0,0,0,0,0,0,0,0,0,0,0,0,0,0,0,0,0,0,0,0,0,0,0,0,0,0,0,0,0,0,0,0,0,0,0,0,0,0,0,0,0,0,0,0,0],"split_type":[0,0,0,0,0,0,0,0,0,0,0,0,0,0,0,0,0,0,0,0,0,0,0,0,0,0,0,0,0,0,0,0,0,0,0,0,0,0,0,0,0,0,0,0,0,0,0,0,0,0,0,0,0,0,0,0,0,0,0,0,0,0,0,0,0,0,0,0,0,0,0,0,0,0,0,0,0,0,0,0,0,0,0,0,0,0,0,0,0,0,0,0,0,0,0,0,0,0,0,0,0,0,0,0,0,0,0,0,0,0,0,0,0,0,0,0,0,0,0],"sum_hessian":[1.834E3,1.244E3,5.9E2,6.52E2,5.92E2,4.25E2,1.65E2,4.72E2,1.8E2,3.85E2,2.07E2,3E2,1.25E2,1.1E1,1.54E2,3.48E2,1.24E2,3.1E1,1.49E2,1.38E2,2.47E2,5E1,1.57E2,1.01E2,1.99E2,9.7E1,2.8E1,9E0,2E0,1.38E2,1.6E1,1.11E2,2.37E2,8.6E1,3.8E1,2.3E1,8E0,8.9E1,6E1,7.2E1,6.6E1,2.22E2,2.5E1,4E0,4.6E1,1.25E2,3.2E1,9.1E1,1E1,1.5E1,1.84E2,7.5E1,2.2E1,2E1,8E0,1E0,8E0,9.2E1,4.6E1,5E0,1.1E1,9.6E1,1.5E1,1.79E2,5.8E1,1E0,8.5E1,1.5E1,2.3E1,1.8E1,5E0,2E0,6E0,5.1E1,3.8E1,9E0,5.1E1,6E1,1.2E1,5.7E1,9E0,1.29E2,9.3E1,2E0,2.3E1,2E0,2E0,1.9E1,2.7E1,1.11E2,1.4E1,2.3E1,9E0,5.8E1,3.3E1,5E0,5E0,1.4E1,1E0,6.3E1,1.21E2,7.1E1,4E0,3E0,1.9E1,1.6E1,4E0,3E0,5E0,4E0,4E0,8.6E1,6E0,3E1,1.6E1,4E0,1E0,6E0,5E0],"tree_param":{"num_deleted":"0","num_feature":"5","num_nodes":"119","size_leaf_vector":"1"}},{"base_weights":[-1.9833777E-2,-6.086327E0,1.29857645E1,-9.496476E0,9.912779E-1,5.7698216E0,1.6992064E1,-1.2974912E1,-7.340842E0,6.6404757E0,-1.7957039E0,2.345156E1,4.3871894E0,2.0273642E1,1.0266718E1,-1.824527E1,-1.1596818E1,-3.55041E0,-1.0340259E1,1.3783382E1,1.2439493E0,-1.7228153E1,-9.6102947E-1,-7.2034726E0,9.780188E0,5.5670347E0,-1.1348444E1,2.4905645E1,1.1855771E1,7.669154E0,2.352047E1,-8.023753E0,-2.0178843E1,-1.6164582E0,-1.2162837E1,-7.152175E0,1.4406125E-1,-4.4898677E0,-1.3955558E1,1.0909052E1,3.31665E1,-6.216234E0,8.127926E0,5.2231283E0,-2.1231924E1,-3.559525E-1,-2.0052095E1,4.5999465E0,2.3752968E1,-1.8543053E1,1.1273844E1,3.2965942E1,2.3252995E1,-8.700816E0,1.30998125E1,3.023457E1,5.76822E0,2.6414793E1,5.3394775E0,-5.027275E0,1.0509026E0,-9.435567E0,-5.5159974E0,-3.4536827E0,1.3448033E0,-2.998995E0,-4.4004893E0,1.9512271E0,-2.627858E0,-2.4716213E0,7.2612894E-1,-6.158268E0,-7.143469E-1,-5.1924834E0,-1.6109574E0,4.8964734E0,1.9479531E-1,3.884341E0,1.1599327E1,6.2592964E0,-3.5837548E0,-4.727891E0,3.5650232E0,1.3661734E0,-8.82692E0,6.453319E-1,-1.1461E0,-2.0254176E0,-8.004672E0,2.0909483E0,-3.1802893E0,1.0332383E1,-2.731221E0,-1.040718E1,-1.3080254E0,5.4918866E0,-1.473523E0,5.4117246E0,1.1678768E1,4.6156006E0,7.7714944E0,5.045193E0,-1.0902429E0,8.7499243E-1,1.011614E1,-1.4708866E0,2.5091734E0,9.100798E0,3.2810152E0,-3.106064E-1,2.3428621E0],"categories":[],"categories_nodes":[],"categories_segments":[],"categories_sizes":[],"default_left":[0,0,0,0,0,0,0,0,0,0,0,0,0,0,0,0,0,0,0,0,0,0,0,0,0,0,0,0,0,0,0,0,0,0,0,0,0,0,0,0,0,0,0,0,0,0,0,0,0,0,0,0,0,0,0,0,0,0,0,0,0,0,0,0,0,0,0,0,0,0,0,0,0,0,0,0,0,0,0,0,0,0,0,0,0,0,0,0,0,0,0,0,0,0,0,0,0,0,0,0,0,0,0,0,0,0,0,0,0,0,0],"id":3,"left_children":[1,3,5,7,9,11,13,15,17,19,21,23,25,27,29,31,33,35,37,39,41,43,45,-1,-1,47,49,51,53,55,57,59,61,63,65,67,69,71,73,75,77,79,81,-1,83,85,87,89,91,93,95,97,99,-1,101,103,105,107,109,-1,-1,-1,-1,-1,-1,-1,-1,-1,-1,-1,-1,-1,-1,-1,-1,-1,-1,-1,-1,-1,-1,-1,-1,-1,-1,-1,-1,-1,-1,-1,-1,-1,-1,-1,-1,-1,-1,-1,-1,-1,-1,-1,-1,-1,-1,-1,-1,-1,-1,-1,-1],"loss_changes":[1.4485755E5,3.0227293E4,1.6784953E4,6.2407656E3,6.435563E3,5.0310547E3,8.068008E3,2.1271133E3,5.9206875E3,5.1866836E3,3.5128564E3,7.2964424E3,3.702037E3,9.491625E3,4.123052E3,1.122752E3,1.4378047E3,3.101472E3,6.11341E3,2.8695674E3,4.0562717E3,2.311245E3,3.0078208E3,0E0,0E0,3.109232E3,2.487671E3,1.3781016E3,5.0054307E3,4.372509E3,9.113926E2,1.2667754E3,5.1268945E2,9.569447E2,1.177625E3,2.6471226E3,2.2334924E3,3.7726514E3,5.0884375E3,2.877018E3,2.7750586E2,6.1453643E3,3.8653625E3,0E0,2.879791E3,2.2143113E3,5.253425E2,6.378148E3,3.474231E3,2.3679678E3,5.4521265E2,1.5230781E3,2.4599375E3,0E0,5.597671E3,6.6346924E2,2.783216E3,6.9999805E2,7.107057E1,0E0,0E0,0E0,0E0,0E0,0E0,0E0,0E0,0E0,0E0,0E0,0E0,0E0,0E0,0E0,0E0,0E0,0E0,0E0,0E0,0E0,0E0,0E0,0E0,0E0,0E0,0E0,0E0,0E0,0E0,0E0,0E0,0E0,0E0,0E0,0E0,0E0,0E0,0E0,0E0,0E0,0E0,0E0,0E0,0E0,0E0,0E0,0E0,0E0,0E0,0E0,0E0],"parents":[2147483647,0,0,1,1,2,2,3,3,4,4,5,5,6,6,7,7,8,8,9,9,10,10,11,11,12,12,13,13,14,14,15,15,16,16,17,17,18,18,19,19,20,20,21,21,22,22,25,25,26,26,27,27,28,28,29,29,30,30,31,31,32,32,33,33,34,34,35,35,36,36,37,37,38,38,39,39,40,40,41,41,42,42,44,44,45,45,46,46,47,47,48,48,49,49,50,50,51,51,52,52,54,54,55,55,56,56,57,57,58,58],"right_children":[2,4,6,8,10,12,14,16,18,20,22,24,26,28,30,32,34,36,38,40,42,44,46,-1,-1,48,50,52,54,56,58,60,62,64,66,68,70,72,74,76,78,80,82,-1,84,86,88,90,92,94,96,98,100,-1,102,104,106,108,110,-1,-1,-1,-1,-1,-1,-1,-1,-1,-1,-1,-1,-1,-1,-1,-1,-1,-1,-1,-1,-1,-1,-1,-1,-1,-1,-1,-1,-1,-1,-1,-1,-1,-1,-1,-1,-1,-1,-1,-1,-1,-1,-1,-1,-1,-1,-1,-1,-1,-1,-1,-1],"split_conditions":[1.15333336E2,8.6333336E1,1.3366667E2,5.8333332E1,1.4123917E1,7.968939E0,1.3246826E1,3.8666668E1,1.0931203E1,1E-1,1.4953083E1,1.3906146E1,2.0991426E1,8.805388E1,1.6533333E2,8.905908E0,1.4586417E1,8.905908E0,2.010517E1,1.3797912E1,1.02E2,7.628263E0,3.13E1,-7.2034726E0,9.780188E0,3.4480753E2,2.0290586E1,1.4266667E2,9.886452E1,1.3466667E2,1.966536E1,8.14587E0,9.178235E0,1.3667666E1,1.1923557E1,1.1101001E1,6.4666664E1,1.1720751E1,2.7223915E1,1.0296251E1,9.409334E0,8.905908E0,4.2551665E0,5.2231283E0,2.0003374E1,9.886452E1,9.6333336E1,2.0718846E2,1.5946834E1,1.8000002E0,7E-1,1.37E2,1.51E2,-8.700816E0,1.1681987E1,7.3635006E0,1.4E2,4.055656E1,5.103083E0,-5.027275E0,1.0509026E0,-9.435567E0,-5.5159974E0,-3.4536827E0,1.3448033E0,-2.998995E0,-4.4004893E0,1.9512271E0,-2.627858E0,-2.4716213E0,7.2612894E-1,-6.158268E0,-7.143469E-1,-5.1924834E0,-1.6109574E0,4.8964734E0,1.9479531E-1,3.884341E0,1.1599327E1,6.2592964E0,-3.5837548E0,-4.727891E0,3.5650232E0,1.3661734E0,-8.82692E0,6.453319E-1,-1.1461E0,-2.0254176E0,-8.004672E0,2.0909483E0,-3.1802893E0,1.0332383E1,-2.731221E0,-1.040718E1,-1.3080254E0,5.4918866E0,-1.473523E0,5.4117246E0,1.1678768E1,4.6156006E0,7.7714944E0,5.045193E0,-1.0902429E0,8.7499243E-1,1.011614E1,-1.4708866E0,2.5091734E0,9.100798E0,3.2810152E0,-3.106064E-1,2.3428621E0],"split_indices":[4,4,4,4,0,2,2,4,2,1,0,3,2,3,4,2,0,2,0,2,4,2,1,0,0,3,0,4,3,4,2,2,2,0,2,0,4,2,0,2,0,2,0,0,3,3,4,3,0,1,1,4,4,0,2,0,4,3,0,0,0,0,0,0,0,0,0,0,0,0,0,0,0,0,0,0,0,0,0,0,0,0,0,0,0,0,0,0,0,0,0,0,0,0,0,0,0,0,0,0,0,0,0,0,0,0,0,0,0,0,0],"split_type":[0,0,0,0,0,0,0,0,0,0,0,0,0,0,0,0,0,0,0,0,0,0,0,0,0,0,0,0,0,0,0,0,0,0,0,0,0,0,0,0,0,0,0,0,0,0,0,0,0,0,0,0,0,0,0,0,0,0,0,0,0,0,0,0,0,0,0,0,0,0,0,0,0,0,0,0,0,0,0,0,0,0,0,0,0,0,0,0,0,0,0,0,0,0,0,0,0,0,0,0,0,0,0,0,0,0,0,0,0,0,0],"sum_hessian":[1.834E3,1.251E3,5.83E2,8.44E2,4.07E2,2.09E2,3.74E2,3.21E2,5.23E2,1.34E2,2.73E2,1.4E1,1.95E2,2.5E2,1.24E2,6.4E1,2.57E2,2.32E2,2.91E2,5.7E1,7.7E1,1.3E1,2.6E2,2E0,1.2E1,1.82E2,1.3E1,1.6E2,9E1,1.05E2,1.9E1,1.1E1,5.3E1,1.4E1,2.43E2,1.17E2,1.15E2,1.12E2,1.79E2,5.1E1,6E0,3.7E1,4E1,1E0,1.2E1,2.53E2,7E0,1.74E2,8E0,1E1,3E0,2.4E1,1.36E2,2E0,8.8E1,7E0,9.8E1,1.6E1,3E0,6E0,5E0,5E0,4.8E1,5E0,9E0,1.33E2,1.1E2,1.2E1,1.05E2,2.4E1,9.1E1,1.2E1,1E2,1.28E2,5.1E1,3.3E1,1.8E1,2E0,4E0,6E0,3.1E1,5E0,3.5E1,3E0,9E0,1.47E2,1.06E2,3E0,4E0,1.51E2,2.3E1,6E0,2E0,4E0,6E0,2E0,1E0,8E0,1.6E1,3.6E1,1E2,7.2E1,1.6E1,1E0,6E0,1.9E1,7.9E1,1.2E1,4E0,1E0,2E0],"tree_param":{"num_deleted":"0","num_feature":"5","num_nodes":"111","size_leaf_vector":"1"}},{"base_weights":[-4.4280817E-3,-4.288556E0,9.180045E0,-6.7002373E0,7.167358E-1,4.499098E0,1.2364154E1,-5.8530793E0,-1.3487437E1,3.1243305E0,-3.27452E0,6.232767E0,-1.669989E0,1.460663E1,5.9898267E0,-3.959773E0,-8.388744E0,-1.8774752E1,-4.5943365E0,1.9615896E0,1.7463554E1,-8.476866E0,2.1762679E0,1.1124571E1,3.5753896E0,1.6576681E1,-3.9160314E0,3.0343082E1,1.3639894E1,1.442925E1,7.937988E-1,-7.7538157E0,-2.0817392E0,-1.0883822E1,-2.84616E0,1.7971511E0,-1.9314325E1,-1.201684E1,-3.8238254E-1,4.0810943E0,-5.8483906E0,2.325022E1,6.6006117E0,1.1735952E1,-1.029896E1,3.1366938E1,-3.2120094E-1,3.4266594E1,9.045314E0,5.4600515E0,-1.1353432E1,9.038275E0,-2.105024E0,-2.3706402E1,-1.0635139E0,3.244434E1,4.540123E-1,1.9029408E1,1.0672921E1,-5.3121986E0,1.58952465E1,2.4309332E1,-2.910477E0,-2.6533527E0,2.291058E0,-8.6326355E-1,3.0443552E0,-2.506961E0,-4.4487505E0,7.430139E-1,-2.4975076E0,-6.767829E0,-3.8031096E0,-5.820203E0,-1.4930581E0,-1.4079427E0,2.1971033E0,1.7634704E0,-9.36083E-1,5.0288963E-1,-6.298913E0,2.9617434E0,8.611509E0,-1.3515435E0,5.6497965E0,5.316099E0,-6.449982E-1,-2.0409827E0,-5.589293E0,-1.5107094E0,1.1896382E1,2.1945841E0,-2.2608657E0,1.2353195E1,9.935555E-1,3.1074204E0,-5.9361815E0,-1.470517E0,2.396535E0,-5.146929E0,2.2329507E0,-8.519682E0,-3.65593E-2,-4.7741046E0,5.324163E-1,1.0093836E1,2.7034516E0,4.5833645E0,8.086463E0,-1.8333629E0,3.7006814E0,3.6971042E0,8.373229E0,9.801147E0,-1.5482864E-1,-5.937361E0,6.679508E-1],"categories":[],"categories_nodes":[],"categories_segments":[],"categories_sizes":[],"default_left":[0,0,0,0,0,0,0,0,0,0,0,0,0,0,0,0,0,0,0,0,0,0,0,0,0,0,0,0,0,0,0,0,0,0,0,0,0,0,0,0,0,0,0,0,0,0,0,0,0,0,0,0,0,0,0,0,0,0,0,0,0,0,0,0,0,0,0,0,0,0,0,0,0,0,0,0,0,0,0,0,0,0,0,0,0,0,0,0,0,0,0,0,0,0,0,0,0,0,0,0,0,0,0,0,0,0,0,0,0,0,0,0,0,0,0,0,0],"id":4,"left_children":[1,3,5,7,9,11,13,15,17,19,21,23,25,27,29,31,33,35,37,39,41,43,45,47,49,51,53,55,57,59,61,63,65,67,69,-1,71,73,75,77,79,81,83,85,87,89,91,93,95,97,99,-1,-1,101,103,105,-1,107,109,-1,111,113,115,-1,-1,-1,-1,-1,-1,-1,-1,-1,-1,-1,-1,-1,-1,-1,-1,-1,-1,-1,-1,-1,-1,-1,-1,-1,-1,-1,-1,-1,-1,-1,-1,-1,-1,-1,-1,-1,-1,-1,-1,-1,-1,-1,-1,-1,-1,-1,-1,-1,-1,-1,-1,-1,-1],"loss_changes":[7.224196E4,1.5117902E4,8.648684E3,4.779664E3,3.930836E3,2.5558555E3,4.872621E3,3.5817793E3,4.28666E3,4.2173076E3,4.385408E3,2.378108E3,2.237003E3,3.4806484E3,4.022882E3,3.0691309E3,4.4081914E3,8.907383E2,1.1208817E3,3.946998E3,1.0408784E3,3.0304102E3,5.550687E3,2.8177314E3,3.4945552E3,2.1296707E3,2.6845022E3,7.99001E2,3.6826016E3,1.9303867E3,5.1230166E3,2.4680156E3,2.8613245E3,2.0796738E3,2.9661118E3,0E0,9.417207E2,5.7921204E2,8.3162634E2,2.438472E3,5.848374E3,5.922866E2,1.1716127E3,6.1978986E2,1.9994541E3,2.0098462E3,3.9670415E3,9.332251E2,2.5138125E3,2.8948142E3,1.6547708E3,0E0,0E0,6.605669E2,1.8406176E3,6.28916E1,0E0,2.115459E3,4.512549E3,0E0,1.1151201E3,1.6774155E3,4.466578E3,0E0,0E0,0E0,0E0,0E0,0E0,0E0,0E0,0E0,0E0,0E0,0E0,0E0,0E0,0E0,0E0,0E0,0E0,0E0,0E0,0E0,0E0,0E0,0E0,0E0,0E0,0E0,0E0,0E0,0E0,0E0,0E0,0E0,0E0,0E0,0E0,0E0,0E0,0E0,0E0,0E0,0E0,0E0,0E0,0E0,0E0,0E0,0E0,0E0,0E0,0E0,0E0,0E0,0E0],"parents":[2147483647,0,0,1,1,2,2,3,3,4,4,5,5,6,6,7,7,8,8,9,9,10,10,11,11,12,12,13,13,14,14,15,15,16,16,17,17,18,18,19,19,20,20,21,21,22,22,23,23,24,24,25,25,26,26,27,27,28,28,29,29,30,30,31,31,32,32,33,33,34,34,36,36,37,37,38,38,39,39,40,40,41,41,42,42,43,43,44,44,45,45,46,46,47,47,48,48,49,49,50,50,53,53,54,54,55,55,57,57,58,58,60,60,61,61,62,62],"right_children":[2,4,6,8,10,12,14,16,18,20,22,24,26,28,30,32,34,36,38,40,42,44,46,48,50,52,54,56,58,60,62,64,66,68,70,-1,72,74,76,78,80,82,84,86,88,90,92,94,96,98,100,-1,-1,102,104,106,-1,108,110,-1,112,114,116,-1,-1,-1,-1,-1,-1,-1,-1,-1,-1,-1,-1,-1,-1,-1,-1,-1,-1,-1,-1,-1,-1,-1,-1,-1,-1,-1,-1,-1,-1,-1,-1,-1,-1,-1,-1,-1,-1,-1,-1,-1,-1,-1,-1,-1,-1,-1,-1,-1,-1,-1,-1,-1,-1],"split_conditions":[1.15333336E2,8.6333336E1,1.3633333E2,1.7339897E1,1.4E0,1.5000002E0,1.3667666E1,2.374058E1,2.4905167E1,3.3379416E2,4.5E0,3.455441E1,9.726664E0,7.5685663E0,1E-1,5.8333332E1,2.7223915E1,3.1333334E1,9.000001E-1,1.4386494E1,2.1159334E1,7.928177E0,4.9E0,1.16333336E2,1.710284E1,9.271834E0,1.0823973E1,3.049394E2,2.8453861E1,1.3833333E2,1.3833333E2,8.3E0,2.2965586E1,1.2245294E1,1.4713814E2,1.7971511E0,2.289611E1,6.0333332E1,2.9210413E1,2.4659334E1,2.0590654E2,1.149475E1,1.04E2,1.4011736E2,4.798559E1,1.5296833E1,3.0764801E1,3.0514406E1,2.2923918E1,4.798559E1,2.138897E1,9.038275E0,-2.105024E0,2.3657251E1,1.9000001E0,1.2698917E1,4.540123E-1,9.028083E0,8.473393E0,-5.3121986E0,1.825812E2,3.9004604E1,1.4133333E2,-2.6533527E0,2.291058E0,-8.6326355E-1,3.0443552E0,-2.506961E0,-4.4487505E0,7.430139E-1,-2.4975076E0,-6.767829E0,-3.8031096E0,-5.820203E0,-1.4930581E0,-1.4079427E0,2.1971033E0,1.7634704E0,-9.36083E-1,5.0288963E-1,-6.298913E0,2.9617434E0,8.611509E0,-1.3515435E0,5.6497965E0,5.316099E0,-6.449982E-1,-2.0409827E0,-5.589293E0,-1.5107094E0,1.1896382E1,2.1945841E0,-2.2608657E0,1.2353195E1,9.935555E-1,3.1074204E0,-5.9361815E0,-1.470517E0,2.396535E0,-5.146929E0,2.2329507E0,-8.519682E0,-3.65593E-2,-4.7741046E0,5.324163E-1,1.0093836E1,2.7034516E0,4.5833645E0,8.086463E0,-1.8333629E0,3.7006814E0,3.6971042E0,8.373229E0,9.801147E0,-1.5482864E-1,-5.937361E0,6.679508E-1],"split_indices":[4,4,4,2,1,1,0,0,0,3,1,3,2,2,1,4,0,4,1,2,0,2,1,4,2,0,2,3,3,4,4,1,0,2,3,0,2,4,3,0,3,0,4,3,3,0,3,3,0,3,2,0,0,0,1,0,0,0,2,0,3,3,4,0,0,0,0,0,0,0,0,0,0,0,0,0,0,0,0,0,0,0,0,0,0,0,0,0,0,0,0,0,0,0,0,0,0,0,0,0,0,0,0,0,0,0,0,0,0,0,0,0,0,0,0,0,0],"split_type":[0,0,0,0,0,0,0,0,0,0,0,0,0,0,0,0,0,0,0,0,0,0,0,0,0,0,0,0,0,0,0,0,0,0,0,0,0,0,0,0,0,0,0,0,0,0,0,0,0,0,0,0,0,0,0,0,0,0,0,0,0,0,0,0,0,0,0,0,0,0,0,0,0,0,0,0,0,0,0,0,0,0,0,0,0,0,0,0,0,0,0,0,0,0,0,0,0,0,0,0,0,0,0,0,0,0,0,0,0,0,0,0,0,0,0,0,0],"sum_hessian":[1.834E3,1.251E3,5.83E2,8.44E2,4.07E2,2.37E2,3.46E2,7.52E2,9.2E1,2.54E2,1.53E2,1.85E2,5.2E1,2.55E2,9.1E1,4.32E2,3.2E2,5.7E1,3.5E1,2.36E2,1.8E1,7.8E1,7.5E1,6.4E1,1.21E2,5E0,4.7E1,1.3E1,2.42E2,3.4E1,5.7E1,1.42E2,2.9E2,2.2E2,1E2,1E0,5.6E1,1.2E1,2.3E1,1.86E2,5E1,1.1E1,7E0,6E0,7.2E1,5E0,7E1,4E0,6E1,1.08E2,1.3E1,3E0,2E0,5E0,4.2E1,1.2E1,1E0,8.4E1,1.58E2,1E0,3.3E1,7E0,5E1,1.33E2,9E0,2.73E2,1.7E1,1.36E2,8.4E1,5.1E1,4.9E1,3.6E1,2E1,5E0,7E0,1.5E1,8E0,1.49E2,3.7E1,3.4E1,1.6E1,4E0,7E0,4E0,3E0,4E0,2E0,5.2E1,2E1,1E0,4E0,3.4E1,3.6E1,3E0,1E0,5.8E1,2E0,2.1E1,8.7E1,1E1,3E0,4E0,1E0,6E0,3.6E1,1.1E1,1E0,5.9E1,2.5E1,1.4E1,1.44E2,2.7E1,6E0,5E0,2E0,1.1E1,3.9E1],"tree_param":{"num_deleted":"0","num_feature":"5","num_nodes":"117","size_leaf_vector":"1"}},{"base_weights":[1.7424535E-2,-3.0051255E0,6.4972453E0,-4.7164254E0,5.4647595E-1,5.0403547E0,1.2208013E1,-4.1069903E0,-9.783276E0,1.653379E0,-5.4289618E0,7.358284E0,1.7979202E0,-4.2510586E0,1.3771363E1,-1.5922663E0,-5.3989577E0,-1.3055113E1,-1.6654665E0,9.0660495E-1,1.3131864E1,-1.7599827E1,1.3652964E0,7.853946E0,-1.5925048E1,3.8649282E0,-4.0004277E0,-1.5251993E1,1.7807913E0,1.4259934E1,-5.775877E0,-1.5096798E1,-9.8685455E-1,-2.0253769E1,-5.0537596E0,-1.9415663E1,-1.0341389E1,1.4236343E0,-9.180036E0,4.585446E-1,2.1195837E1,7.1673784E0,2.4036922E1,-3.357695E0,-2.6515646E1,-1.8294905E1,9.839207E0,1.4419384E1,6.633519E0,-2.328902E1,3.1342232E0,1.1424636E1,1.793486E0,-1.3931447E1,6.4664173E0,-8.789189E-1,-5.5148516E0,5.9477525E0,-2.1440187E0,2.6351082E1,1.1683262E1,-1.0046109E1,5.8730427E-2,7.8578267E0,-3.942905E-1,-2.0590887E0,-7.3251357E0,-1.6767036E0,2.7935007E-1,-3.6960835E0,-7.542639E0,-9.767705E-1,-3.8864353E0,-3.5776603E-1,3.6559572E0,-3.1873357E0,1.3963166E-1,2.8712994E-1,-5.0460763E0,1.1508946E0,7.0349116E0,3.4985867E0,-2.4324589E0,9.472441E0,1.0384461E0,3.1457925E0,-2.438808E0,-8.805709E0,-1.8990716E0,4.6133094E0,-8.980337E0,4.413699E0,-2.4822733E0,6.467298E0,-1.3883754E0,1.2250309E0,2.8517823E0,-6.6625065E-1,-1.097826E1,1.4670509E0,8.879988E0,-1.203102E-2,5.2605414E0,5.433025E0,-6.087385E0,5.2521286E0,-8.3916616E-1,2.9823992E-1,2.021895E0,2.0637014E0,9.426952E0,5.2775817E0,2.108123E0],"categories":[],"categories_nodes":[],"categories_segments":[],"categories_sizes":[],"default_left":[0,0,0,0,0,0,0,0,0,0,0,0,0,0,0,0,0,0,0,0,0,0,0,0,0,0,0,0,0,0,0,0,0,0,0,0,0,0,0,0,0,0,0,0,0,0,0,0,0,0,0,0,0,0,0,0,0,0,0,0,0,0,0,0,0,0,0,0,0,0,0,0,0,0,0,0,0,0,0,0,0,0,0,0,0,0,0,0,0,0,0,0,0,0,0,0,0,0,0,0,0,0,0,0,0,0,0,0,0,0,0,0,0],"id":5,"left_children":[1,3,5,7,9,11,13,15,17,19,21,23,25,27,29,31,33,35,37,39,41,43,45,47,49,51,53,55,57,59,-1,61,63,65,67,69,71,73,75,77,79,81,83,85,87,89,91,93,95,97,-1,99,101,103,105,-1,-1,107,-1,109,111,-1,-1,-1,-1,-1,-1,-1,-1,-1,-1,-1,-1,-1,-1,-1,-1,-1,-1,-1,-1,-1,-1,-1,-1,-1,-1,-1,-1,-1,-1,-1,-1,-1,-1,-1,-1,-1,-1,-1,-1,-1,-1,-1,-1,-1,-1,-1,-1,-1,-1,-1,-1],"loss_changes":[3.5959066E4,7.612052E3,4.797328E3,2.5691094E3,2.7075818E3,3.4966172E3,3.094836E3,2.4476035E3,2.36867E3,2.9453774E3,5.3163164E3,3.2641328E3,2.364567E3,7.570764E2,2.0170977E3,2.0944587E3,2.4564404E3,9.039053E2,6.398271E2,2.944791E3,1.1936226E3,2.8315146E3,7.1771562E3,2.0437246E3,1.4085465E3,2.2501372E3,5.4953013E3,1.0045972E2,3.40112E2,3.025711E3,0E0,3.1001277E3,2.241596E3,4.4563574E2,1.5716885E3,4.216079E2,8.281279E2,5.7768787E2,1.1640167E2,2.7641025E3,1.8392188E2,1.124416E3,9.763699E2,7.458177E2,6.158369E2,5.5554653E3,2.7698057E3,5.674327E3,1.6239385E3,1.3203103E3,0E0,3.5369973E3,3.3200317E3,5.869507E3,2.708169E3,0E0,0E0,1.6836441E1,0E0,1.5615947E3,2.3524492E3,0E0,0E0,0E0,0E0,0E0,0E0,0E0,0E0,0E0,0E0,0E0,0E0,0E0,0E0,0E0,0E0,0E0,0E0,0E0,0E0,0E0,0E0,0E0,0E0,0E0,0E0,0E0,0E0,0E0,0E0,0E0,0E0,0E0,0E0,0E0,0E0,0E0,0E0,0E0,0E0,0E0,0E0,0E0,0E0,0E0,0E0,0E0,0E0,0E0,0E0,0E0,0E0],"parents":[2147483647,0,0,1,1,2,2,3,3,4,4,5,5,6,6,7,7,8,8,9,9,10,10,11,11,12,12,13,13,14,14,15,15,16,16,17,17,18,18,19,19,20,20,21,21,22,22,23,23,24,24,25,25,26,26,27,27,28,28,29,29,31,31,32,32,33,33,34,34,35,35,36,36,37,37,38,38,39,39,40,40,41,41,42,42,43,43,44,44,45,45,46,46,47,47,48,48,49,49,51,51,52,52,53,53,54,54,57,57,59,59,60,60],"right_children":[2,4,6,8,10,12,14,16,18,20,22,24,26,28,30,32,34,36,38,40,42,44,46,48,50,52,54,56,58,60,-1,62,64,66,68,70,72,74,76,78,80,82,84,86,88,90,92,94,96,98,-1,100,102,104,106,-1,-1,108,-1,110,112,-1,-1,-1,-1,-1,-1,-1,-1,-1,-1,-1,-1,-1,-1,-1,-1,-1,-1,-1,-1,-1,-1,-1,-1,-1,-1,-1,-1,-1,-1,-1,-1,-1,-1,-1,-1,-1,-1,-1,-1,-1,-1,-1,-1,-1,-1,-1,-1,-1,-1,-1,-1],"split_conditions":[1.15333336E2,8.6333336E1,1.6033333E2,1.7462784E1,1.7072504E1,4E-1,5.103083E0,1.9261415E1,2.6034338E1,3.418219E2,1.9365583E1,1.6E2,7.013734E1,1E-1,3.550303E2,6.379216E0,1.9490583E1,1.8971008E1,2.8476004E1,1.658346E1,1.3755579E1,1.4123917E1,1.8374111E1,2.1173536E1,9.917668E0,8.000001E-1,2.6803638E2,3.690583E0,1.9826164E1,8.759178E0,-5.775877E0,1.5119751E1,6.618519E0,2.279139E1,2.8290583E1,1.9000001E0,1.9907251E1,2.7921831E1,7.499999E0,1.6135872E1,9.120096E0,1.3000001E0,2.1496834E1,5E-1,2.5000004E1,8.9333336E1,2.7599998E1,1.4482247E1,1.39E2,5.4364166E0,3.1342232E0,7E-1,4.1123997E1,9.12513E0,1.37E2,-8.789189E-1,-5.5148516E0,1.1609651E1,-2.1440187E0,1.64E2,3.083119E1,-1.0046109E1,5.8730427E-2,7.8578267E0,-3.942905E-1,-2.0590887E0,-7.3251357E0,-1.6767036E0,2.7935007E-1,-3.6960835E0,-7.542639E0,-9.767705E-1,-3.8864353E0,-3.5776603E-1,3.6559572E0,-3.1873357E0,1.3963166E-1,2.8712994E-1,-5.0460763E0,1.1508946E0,7.0349116E0,3.4985867E0,-2.4324589E0,9.472441E0,1.0384461E0,3.1457925E0,-2.438808E0,-8.805709E0,-1.8990716E0,4.6133094E0,-8.980337E0,4.413699E0,-2.4822733E0,6.467298E0,-1.3883754E0,1.2250309E0,2.8517823E0,-6.6625065E-1,-1.097826E1,1.4670509E0,8.879988E0,-1.203102E-2,5.2605414E0,5.433025E0,-6.087385E0,5.2521286E0,-8.3916616E-1,2.9823992E-1,2.021895E0,2.0637014E0,9.426952E0,5.2775817E0,2.108123E0],"split_indices":[4,4,4,2,2,1,0,0,0,3,0,4,3,1,3,2,0,2,0,2,2,0,2,3,0,1,3,0,2,2,0,0,2,3,0,1,0,0,1,2,3,1,0,1,1,4,1,0,4,0,0,1,3,2,4,0,0,2,0,4,3,0,0,0,0,0,0,0,0,0,0,0,0,0,0,0,0,0,0,0,0,0,0,0,0,0,0,0,0,0,0,0,0,0,0,0,0,0,0,0,0,0,0,0,0,0,0,0,0,0,0,0,0],"split_type":[0,0,0,0,0,0,0,0,0,0,0,0,0,0,0,0,0,0,0,0,0,0,0,0,0,0,0,0,0,0,0,0,0,0,0,0,0,0,0,0,0,0,0,0,0,0,0,0,0,0,0,0,0,0,0,0,0,0,0,0,0,0,0,0,0,0,0,0,0,0,0,0,0,0,0,0,0,0,0,0,0,0,0,0,0,0,0,0,0,0,0,0,0,0,0,0,0,0,0,0,0,0,0,0,0,0,0,0,0,0,0,0,0],"sum_hessian":[1.834E3,1.251E3,5.83E2,8.44E2,4.07E2,4.66E2,1.17E2,7.55E2,8.9E1,3.44E2,6.3E1,2.71E2,1.95E2,1E1,1.07E2,2.57E2,4.98E2,6.3E1,2.6E1,3.24E2,2E1,2.2E1,4.1E1,2.66E2,5E0,1.44E2,5.1E1,3E0,7E0,1.06E2,1E0,1E1,2.47E2,1E1,4.88E2,1.7E1,4.6E1,1.9E1,7E0,3.18E2,6E0,1.4E1,6E0,9E0,1.3E1,1.2E1,2.9E1,4E1,2.26E2,4E0,1E0,3E1,1.14E2,2.6E1,2.5E1,1E0,2E0,5E0,2E0,1.7E1,8.9E1,4E0,6E0,2E0,2.45E2,3E0,7E0,4.48E2,4E1,9E0,8E0,1.3E1,3.3E1,1.6E1,3E0,6E0,1E0,3.1E2,8E0,1E0,5E0,1.1E1,3E0,4E0,2E0,2E0,7E0,1.1E1,2E0,3E0,9E0,2.3E1,6E0,2.9E1,1.1E1,1.21E2,1.05E2,2E0,2E0,2.3E1,7E0,1.03E2,1.1E1,4E0,2.2E1,1.1E1,1.4E1,1E0,4E0,4E0,1.3E1,3.8E1,5.1E1],"tree_param":{"num_deleted":"0","num_feature":"5","num_nodes":"113","size_leaf_vector":"1"}},{"base_weights":[1.2357996E-2,-2.8641305E0,3.4758701E0,-4.546825E0,-1.401306E0,1.262513E0,6.1757503E0,-2.4530184E0,-6.139612E0,1.6719332E0,-3.772391E0,4.325867E0,-9.5655E-1,8.544883E0,4.1044393E0,1.8537608E0,-5.8996015E0,-1.0868391E1,-3.7938628E0,2.7405477E0,-9.952699E0,-1.368807E1,-2.9120755E0,5.033245E0,-2.3278193E1,-8.044418E0,7.136704E-1,6.928555E0,2.0644178E1,1.87866E1,3.1605108E0,9.3909526E-1,8.511276E0,-2.3618448E0,-1.3400864E1,-5.694816E0,-1.3630641E1,-8.162704E0,-2.3846416E0,-7.5771923E0,4.06973E0,-1.5118532E1,1.8007823E0,1.3780975E0,-1.5558848E1,-5.8775295E-2,-5.2311535E0,6.1710033E0,-1.226294E1,1.6391525E0,-1.2130842E1,-1.8385317E1,-1.8467973E0,9.770959E0,-5.165545E-1,-1.0156265E1,7.6846976E0,2.4210693E1,-7.636309E0,7.780922E0,6.995047E0,-1.5122217E1,3.6324527E0,1.7496137E-2,7.85056E0,-1.5344806E0,2.129786E0,-5.9791946E0,-1.9528333E0,-4.516694E0,-2.237647E-2,-3.3408163E0,-8.850566E0,-3.3185053E0,1.7709118E0,-2.9826565E0,-3.664333E-1,-3.939936E0,2.5756915E0,1.5611421E0,-4.012524E0,-2.4242475E0,-6.9466014E0,-8.4503555E-1,1.26335E0,-5.2417374E0,7.154503E-1,1.3726083E0,-1.2831111E0,1.0538923E0,-2.1814713E0,5.597262E0,1.3145976E0,-5.4777646E0,1.2883227E0,-1.6470978E0,2.3847165E0,-7.6891106E-1,-7.155917E0,-2.6830072E0,7.736843E0,-5.8606105E0,3.908138E0,-4.2119566E-1,3.2600348E0,1.988324E0,-4.217468E0,2.7798412E0,-4.1451547E-1,9.3512335E0,3.4842732E0,2.236725E-1,-3.6600118E0,6.6568565E-1,2.585003E0,-6.3735156E0,1.4053677E0,2.2922456E0,3.9923245E-1],"categories":[],"categories_nodes":[],"categories_segments":[],"categories_sizes":[],"default_left":[0,0,0,0,0,0,0,0,0,0,0,0,0,0,0,0,0,0,0,0,0,0,0,0,0,0,0,0,0,0,0,0,0,0,0,0,0,0,0,0,0,0,0,0,0,0,0,0,0,0,0,0,0,0,0,0,0,0,0,0,0,0,0,0,0,0,0,0,0,0,0,0,0,0,0,0,0,0,0,0,0,0,0,0,0,0,0,0,0,0,0,0,0,0,0,0,0,0,0,0,0,0,0,0,0,0,0,0,0,0,0,0,0,0,0,0,0,0,0],"id":6,"left_children":[1,3,5,7,9,11,13,15,17,19,21,23,25,27,29,31,33,35,37,39,41,43,45,47,49,51,53,55,57,59,61,63,-1,65,67,69,71,73,75,77,79,81,83,-1,85,87,89,91,93,95,-1,97,99,101,103,105,107,109,111,113,-1,115,117,-1,-1,-1,-1,-1,-1,-1,-1,-1,-1,-1,-1,-1,-1,-1,-1,-1,-1,-1,-1,-1,-1,-1,-1,-1,-1,-1,-1,-1,-1,-1,-1,-1,-1,-1,-1,-1,-1,-1,-1,-1,-1,-1,-1,-1,-1,-1,-1,-1,-1,-1,-1,-1,-1,-1,-1],"loss_changes":[1.8291607E4,2.462499E3,4.970044E3,1.539044E3,3.926666E3,3.124317E3,1.8051309E3,3.0242021E3,2.8871953E3,2.9465044E3,2.5534453E3,3.8857798E3,3.1665676E3,3.2597842E3,2.7401248E3,2.180501E3,2.9671033E3,1.165668E3,1.0764214E3,2.9930945E3,1.2415557E3,8.9229736E2,1.8590771E3,3.7949834E3,2.2039336E3,3.234583E3,2.42297E3,2.0804238E3,2.2021367E3,4.1687207E2,1.7029523E3,1.9761832E3,0E0,2.0680056E3,1.4902441E3,1.6823972E3,1.8886299E3,1.8186785E3,1.1834209E3,2.3577441E3,3.868084E3,6.047351E2,8.977272E1,0E0,7.970874E2,2.5021646E3,2.7910044E3,3.8945054E3,1.2698013E3,1.7860184E2,0E0,1.5825938E3,6.7026865E3,2.7355737E3,1.9548268E3,5.516081E2,2.149163E3,1.2160762E3,1.2385399E2,4.122223E0,0E0,7.058916E2,1.7150876E3,0E0,0E0,0E0,0E0,0E0,0E0,0E0,0E0,0E0,0E0,0E0,0E0,0E0,0E0,0E0,0E0,0E0,0E0,0E0,0E0,0E0,0E0,0E0,0E0,0E0,0E0,0E0,0E0,0E0,0E0,0E0,0E0,0E0,0E0,0E0,0E0,0E0,0E0,0E0,0E0,0E0,0E0,0E0,0E0,0E0,0E0,0E0,0E0,0E0,0E0,0E0,0E0,0E0,0E0,0E0,0E0],"parents":[2147483647,0,0,1,1,2,2,3,3,4,4,5,5,6,6,7,7,8,8,9,9,10,10,11,11,12,12,13,13,14,14,15,15,16,16,17,17,18,18,19,19,20,20,21,21,22,22,23,23,24,24,25,25,26,26,27,27,28,28,29,29,30,30,31,31,33,33,34,34,35,35,36,36,37,37,38,38,39,39,40,40,41,41,42,42,44,44,45,45,46,46,47,47,48,48,49,49,51,51,52,52,53,53,54,54,55,55,56,56,57,57,58,58,59,59,61,61,62,62],"right_children":[2,4,6,8,10,12,14,16,18,20,22,24,26,28,30,32,34,36,38,40,42,44,46,48,50,52,54,56,58,60,62,64,-1,66,68,70,72,74,76,78,80,82,84,-1,86,88,90,92,94,96,-1,98,100,102,104,106,108,110,112,114,-1,116,118,-1,-1,-1,-1,-1,-1,-1,-1,-1,-1,-1,-1,-1,-1,-1,-1,-1,-1,-1,-1,-1,-1,-1,-1,-1,-1,-1,-1,-1,-1,-1,-1,-1,-1,-1,-1,-1,-1,-1,-1,-1,-1,-1,-1,-1,-1,-1,-1,-1,-1,-1,-1,-1,-1,-1,-1],"split_conditions":[9.6333336E1,6.6E1,1.3366667E2,6E-1,1.0883676E1,2E-1,1.1334285E1,2.216142E1,1.0390226E1,9.2666664E1,1.1212135E1,1.3266667E2,5E-1,1.0805999E1,1.3466667E2,2.989399E2,1.2245294E1,8.209263E0,2.0709333E1,1.5183638E1,8.000001E-1,6.7333336E1,9.0000004E-1,2.7753082E1,8.151001E0,1.0626E1,9.12513E0,4.1509995E0,1.6421831E1,9.409334E0,1.3533333E2,6.5E1,8.511276E0,3E-1,1.5281989E1,1.5000002E0,3.1755618E2,5.1000004E0,3.8666668E1,2.5230164E1,6.8999996E0,1.5786416E1,1.9101E1,1.3780975E0,9.2E1,2.0026003E1,1.816783E1,1.01E2,1.09333336E2,5.9239163E0,-1.2130842E1,1.08333336E2,1.23666664E2,1.3906146E1,2.70385E1,7.245665E1,1.0308831E1,1.1019764E1,2.063225E1,7.3635006E0,6.995047E0,2.3999999E0,2.6933447E1,1.7496137E-2,7.85056E0,-1.5344806E0,2.129786E0,-5.9791946E0,-1.9528333E0,-4.516694E0,-2.237647E-2,-3.3408163E0,-8.850566E0,-3.3185053E0,1.7709118E0,-2.9826565E0,-3.664333E-1,-3.939936E0,2.5756915E0,1.5611421E0,-4.012524E0,-2.4242475E0,-6.9466014E0,-8.4503555E-1,1.26335E0,-5.2417374E0,7.154503E-1,1.3726083E0,-1.2831111E0,1.0538923E0,-2.1814713E0,5.597262E0,1.3145976E0,-5.4777646E0,1.2883227E0,-1.6470978E0,2.3847165E0,-7.6891106E-1,-7.155917E0,-2.6830072E0,7.736843E0,-5.8606105E0,3.908138E0,-4.2119566E-1,3.2600348E0,1.988324E0,-4.217468E0,2.7798412E0,-4.1451547E-1,9.3512335E0,3.4842732E0,2.236725E-1,-3.6600118E0,6.6568565E-1,2.585003E0,-6.3735156E0,1.4053677E0,2.2922456E0,3.9923245E-1],"split_indices":[4,4,4,1,2,1,2,0,2,4,2,4,1,2,4,3,2,2,0,3,1,4,1,0,0,0,2,0,0,0,4,4,0,1,2,1,3,1,4,0,1,0,0,0,4,0,3,4,4,0,0,4,4,3,0,3,2,2,0,0,0,1,3,0,0,0,0,0,0,0,0,0,0,0,0,0,0,0,0,0,0,0,0,0,0,0,0,0,0,0,0,0,0,0,0,0,0,0,0,0,0,0,0,0,0,0,0,0,0,0,0,0,0,0,0,0,0,0,0],"split_type":[0,0,0,0,0,0,0,0,0,0,0,0,0,0,0,0,0,0,0,0,0,0,0,0,0,0,0,0,0,0,0,0,0,0,0,0,0,0,0,0,0,0,0,0,0,0,0,0,0,0,0,0,0,0,0,0,0,0,0,0,0,0,0,0,0,0,0,0,0,0,0,0,0,0,0,0,0,0,0,0,0,0,0,0,0,0,0,0,0,0,0,0,0,0,0,0,0,0,0,0,0,0,0,0,0,0,0,0,0,0,0,0,0,0,0,0,0,0,0],"sum_hessian":[1.834E3,1.002E3,8.32E2,4.65E2,5.37E2,4.58E2,3.74E2,2.02E2,2.63E2,2.34E2,3.03E2,1.92E2,2.66E2,1.73E2,2.01E2,9E1,1.12E2,8.6E1,1.77E2,2.15E2,1.9E1,2.3E1,2.8E2,1.88E2,4E0,5E1,2.16E2,1.54E2,1.9E1,1.1E1,1.9E2,8.8E1,2E0,7.7E1,3.5E1,3.1E1,5.5E1,4.2E1,1.35E2,2.4E1,1.91E2,1.3E1,6E0,2E0,2.1E1,1.26E2,1.54E2,1.77E2,1.1E1,2E0,2E0,1.8E1,3.2E1,2.5E1,1.91E2,6E0,1.48E2,1.7E1,2E0,4E0,7E0,4E0,1.86E2,8.6E1,2E0,6E1,1.7E1,1.7E1,1.8E1,1.1E1,2E1,4.9E1,6E0,3.5E1,7E0,1.7E1,1.18E2,1.8E1,6E0,1.8E2,1.1E1,8E0,5E0,2E0,4E0,1.9E1,2E0,6E1,6.6E1,2.9E1,1.25E2,2.1E1,1.56E2,8E0,3E0,1E0,1E0,5E0,1.3E1,2.6E1,6E0,2E0,2.3E1,1.78E2,1.3E1,1E0,5E0,1.26E2,2.2E1,1E1,7E0,1E0,1E0,1E0,3E0,3E0,1E0,6.7E1,1.19E2],"tree_param":{"num_deleted":"0","num_feature":"5","num_nodes":"119","size_leaf_vector":"1"}},{"base_weights":[-3.7148602E-3,3.906232E0,-1.3644426E0,4.88285E0,-2.0992372E0,-1.7241243E0,7.551549E0,4.6861367E0,1.2741801E1,-8.48587E0,1.9043745E0,-9.364588E0,-1.4946964E0,-1.20369215E1,1.030831E1,1.3026767E1,4.0117846E0,-1.7617287E1,-4.194439E0,-7.071043E0,5.7302427E0,-3.3300827E0,-1.8395489E1,-5.1127255E-1,-3.3045478E0,-1.1766016E1,6.680341E0,-8.054785E0,1.2203825E1,1.4324068E1,1.0132904E0,8.318998E0,2.515999E0,-1.5451871E0,-5.59873E0,5.3868856E0,-9.030965E0,4.76323E-1,-5.772628E0,1.7421577E1,-3.031845E0,-1.55824585E1,6.5346475E0,-2.3423426E1,-6.9496818E0,-5.5677166E0,6.107277E-2,-1.9944153E0,-5.435268E0,1.3727501E1,-3.2262452E0,3.0025942E0,-7.029987E0,1.4160181E1,4.3318315E0,3.3902209E0,6.9066834E0,-5.9633946E-1,1.5024835E0,-2.314109E0,3.0139086E0,3.6679536E-1,2.5923142E0,1.8947691E0,6.128715E-1,-1.3010948E0,-4.7021823E0,1.3056016E0,-6.560557E-1,4.913956E-1,7.276353E0,-4.676614E0,5.0079316E-1,-6.942997E0,-1.6273557E0,-1.3961112E0,3.980243E0,-8.017298E0,9.426991E-1,-4.8999253E-1,-2.7598624E0,-4.525271E0,-1.3926868E0,-2.5919187E-1,1.3793151E0,-2.2323985E0,-2.2301686E-1,-5.38029E0,-1.0947505E0,5.1280046E0,5.444939E-1,2.9643466E0,6.35449E0,3.971289E0,-6.258272E0],"categories":[],"categories_nodes":[],"categories_segments":[],"categories_sizes":[],"default_left":[0,0,0,0,0,0,0,0,0,0,0,0,0,0,0,0,0,0,0,0,0,0,0,0,0,0,0,0,0,0,0,0,0,0,0,0,0,0,0,0,0,0,0,0,0,0,0,0,0,0,0,0,0,0,0,0,0,0,0,0,0,0,0,0,0,0,0,0,0,0,0,0,0,0,0,0,0,0,0,0,0,0,0,0,0,0,0,0,0,0,0,0,0,0,0],"id":7,"left_children":[1,3,5,7,9,11,13,15,-1,17,19,21,23,25,27,29,31,33,35,37,39,41,43,45,47,-1,49,51,53,55,57,59,61,-1,-1,63,65,67,-1,69,71,73,75,77,79,81,83,85,87,89,-1,-1,-1,91,93,-1,-1,-1,-1,-1,-1,-1,-1,-1,-1,-1,-1,-1,-1,-1,-1,-1,-1,-1,-1,-1,-1,-1,-1,-1,-1,-1,-1,-1,-1,-1,-1,-1,-1,-1,-1,-1,-1,-1,-1],"loss_changes":[9.768215E3,2.7902852E3,4.380844E3,2.8178965E3,1.7293234E3,2.2823481E3,2.9861187E3,2.236918E3,0E0,9.4496313E2,1.482747E3,2.0096287E3,2.2640608E3,3.8235596E3,1.7342534E3,4.5303857E2,2.414398E3,8.113037E0,9.2911487E2,1.2033372E3,3.1260344E3,3.002619E3,7.004463E2,2.3908108E3,1.2397632E3,0E0,7.619458E2,1.6234783E3,6.008779E2,4.498662E2,5.791269E1,2.7638398E3,2.2233882E3,0E0,0E0,8.843384E0,3.3738855E2,1.02411766E2,0E0,1.3622979E3,1.0885945E3,7.192893E2,1.1163525E3,9.6088525E2,5.6740845E1,6.6975E2,3.1220483E3,1.8956381E3,3.7297217E3,1.2935889E2,0E0,0E0,0E0,8.1223E2,2.519763E3,0E0,0E0,0E0,0E0,0E0,0E0,0E0,0E0,0E0,0E0,0E0,0E0,0E0,0E0,0E0,0E0,0E0,0E0,0E0,0E0,0E0,0E0,0E0,0E0,0E0,0E0,0E0,0E0,0E0,0E0,0E0,0E0,0E0,0E0,0E0,0E0,0E0,0E0,0E0,0E0],"parents":[2147483647,0,0,1,1,2,2,3,3,4,4,5,5,6,6,7,7,9,9,10,10,11,11,12,12,13,13,14,14,15,15,16,16,17,17,18,18,19,19,20,20,21,21,22,22,23,23,24,24,26,26,27,27,28,28,29,29,30,30,31,31,32,32,35,35,36,36,37,37,39,39,40,40,41,41,42,42,43,43,44,44,45,45,46,46,47,47,48,48,49,49,53,53,54,54],"right_children":[2,4,6,8,10,12,14,16,-1,18,20,22,24,26,28,30,32,34,36,38,40,42,44,46,48,-1,50,52,54,56,58,60,62,-1,-1,64,66,68,-1,70,72,74,76,78,80,82,84,86,88,90,-1,-1,-1,92,94,-1,-1,-1,-1,-1,-1,-1,-1,-1,-1,-1,-1,-1,-1,-1,-1,-1,-1,-1,-1,-1,-1,-1,-1,-1,-1,-1,-1,-1,-1,-1,-1,-1,-1,-1,-1,-1,-1,-1,-1],"split_conditions":[1.1101001E1,1.5778516E1,1.5566667E2,7.8999996E0,5E-1,1.203225E1,1.135725E1,7.69592E0,1.2741801E1,5.2114167E0,2.2086008E1,1.3339445E1,1.500464E2,1.0685391E1,8.404285E0,3.049394E2,2.3938137E1,2.7155821E0,1.8374111E1,2.2E0,3.083119E1,9.9333336E1,1.0000001E0,4.6666668E1,8.000001E-1,-1.1766016E1,6.864552E1,1.2803084E1,3E-1,1.2719991E2,2E-1,9E1,2.8967502E2,-1.5451871E0,-5.59873E0,1.4533333E2,4.1845116E1,1.7462784E1,-5.772628E0,2.5067453E1,1.6375053E1,8E-1,8.587338E0,7.245665E1,1.135725E1,1.6421831E1,5.7503445E1,1.8638596E2,1.1000001E0,1.1151001E1,-3.2262452E0,3.0025942E0,-7.029987E0,5.646945E1,1.1205649E2,3.3902209E0,6.9066834E0,-5.9633946E-1,1.5024835E0,-2.314109E0,3.0139086E0,3.6679536E-1,2.5923142E0,1.8947691E0,6.128715E-1,-1.3010948E0,-4.7021823E0,1.3056016E0,-6.560557E-1,4.913956E-1,7.276353E0,-4.676614E0,5.0079316E-1,-6.942997E0,-1.6273557E0,-1.3961112E0,3.980243E0,-8.017298E0,9.426991E-1,-4.8999253E-1,-2.7598624E0,-4.525271E0,-1.3926868E0,-2.5919187E-1,1.3793151E0,-2.2323985E0,-2.2301686E-1,-5.38029E0,-1.0947505E0,5.1280046E0,5.444939E-1,2.9643466E0,6.35449E0,3.971289E0,-6.258272E0],"split_indices":[0,2,4,1,1,0,0,2,0,0,3,2,3,2,2,3,3,0,2,1,3,4,1,4,1,0,3,0,1,3,1,4,3,0,0,4,3,2,0,3,2,1,2,3,0,0,3,3,1,0,0,0,0,3,3,0,0,0,0,0,0,0,0,0,0,0,0,0,0,0,0,0,0,0,0,0,0,0,0,0,0,0,0,0,0,0,0,0,0,0,0,0,0,0,0],"split_type":[0,0,0,0,0,0,0,0,0,0,0,0,0,0,0,0,0,0,0,0,0,0,0,0,0,0,0,0,0,0,0,0,0,0,0,0,0,0,0,0,0,0,0,0,0,0,0,0,0,0,0,0,0,0,0,0,0,0,0,0,0,0,0,0,0,0,0,0,0,0,0,0,0,0,0,0,0,0,0,0,0,0,0,0,0,0,0,0,0,0,0,0,0,0,0],"sum_hessian":[1.834E3,4.73E2,1.361E3,4.07E2,6.6E1,1.309E3,5.2E1,4.06E2,1E0,2.5E1,4.1E1,3.7E1,1.272E3,6E0,4.6E1,2.9E1,3.77E2,7E0,1.8E1,1.2E1,2.9E1,2.3E1,1.4E1,8.25E2,4.47E2,2E0,4E0,4E0,4.2E1,2.6E1,3E0,9.6E1,2.81E2,1E0,6E0,6E0,1.2E1,8E0,4E0,1.2E1,1.7E1,1E1,1.3E1,9E0,5E0,8.3E1,7.42E2,2.78E2,1.69E2,3E0,1E0,2E0,2E0,3.3E1,9E0,2.1E1,5E0,2E0,1E0,9E0,8.7E1,2.33E2,4.8E1,4E0,2E0,8E0,4E0,3E0,5E0,4E0,8E0,4E0,1.3E1,5E0,5E0,5E0,8E0,8E0,1E0,2E0,3E0,6E0,7.7E1,6.17E2,1.25E2,5.1E1,2.27E2,2E1,1.49E2,2E0,1E0,2.2E1,1.1E1,7E0,2E0],"tree_param":{"num_deleted":"0","num_feature":"5","num_nodes":"95","size_leaf_vector":"1"}},{"base_weights":[-1.4001908E-2,-1.9641281E0,1.6488342E0,-1.7978615E0,-1.1044363E1,1.1357783E0,5.547106E0,-1.6318864E0,-8.122047E0,-5.9027004E-1,-1.3608697E1,2.1336734E0,-4.6146936E0,4.4447737E0,2.1919544E1,-2.172468E0,4.3453914E-1,-1.9011998E0,-2.7648518E1,-1.4907435E0,2.5257366E0,-1.6459862E1,4.3141684E-1,3.466713E0,-4.409485E-2,6.3946714E0,-6.0412836E0,1.4583682E1,3.0401287E0,-2.451668E-2,7.680013E0,-6.4385533E0,-1.8406748E0,1.7588977E0,-1.0113496E1,-1.09786005E1,7.3874454E0,-1.0410864E1,-3.4133966E0,1.0202294E-1,1.0345585E0,2.057293E-1,-1.8441128E1,1.1470689E0,-9.529312E-1,-7.8211675E0,3.8612328E0,-6.884657E-1,1.2478261E1,-7.000017E0,1.3980484E1,-3.7748184E0,1.8264757E1,-5.8764305E0,4.873973E0,6.09898E-1,-3.5871465E0,4.1583934E0,-5.8294225E-1,3.0323664E-2,4.722128E0,-4.5374966E0,-1.2271965E0,9.0044594E-1,-6.8288903E0,2.926368E0,-1.7324204E0,-1.3670311E0,-6.527136E0,5.684016E-1,-4.152042E0,1.2647245E0,-2.5058882E0,-8.75974E-1,9.177721E-1,7.2172112E0,2.3602754E-1,-5.049952E-1,-3.4628265E0,7.6417527E0,-6.521946E0,-3.4622613E-1,-1.3524423E0,-2.4298189E0,6.513334E0,-5.20817E0,1.0660172E-1,5.8641977E0,8.9944893E-1],"categories":[],"categories_nodes":[],"categories_segments":[],"categories_sizes":[],"default_left":[0,0,0,0,0,0,0,0,0,0,0,0,0,0,0,0,0,0,0,0,0,0,0,0,0,0,0,0,0,0,0,0,0,0,0,0,0,0,0,0,0,0,0,0,0,0,0,0,0,0,0,0,0,0,0,0,0,0,0,0,0,0,0,0,0,0,0,0,0,0,0,0,0,0,0,0,0,0,0,0,0,0,0,0,0,0,0,0,0],"id":8,"left_children":[1,3,5,7,9,11,13,15,17,19,21,23,25,27,29,31,33,35,37,-1,39,41,43,45,47,-1,49,51,53,-1,-1,55,57,59,61,63,65,-1,-1,-1,-1,-1,67,-1,-1,69,71,73,75,77,79,81,83,85,87,-1,-1,-1,-1,-1,-1,-1,-1,-1,-1,-1,-1,-1,-1,-1,-1,-1,-1,-1,-1,-1,-1,-1,-1,-1,-1,-1,-1,-1,-1,-1,-1,-1,-1],"loss_changes":[5.9536675E3,1.2558748E3,1.9757307E3,8.590105E2,3.9408386E2,5.042395E3,1.9780769E3,9.068894E2,2.4983296E3,6.712916E1,4.87469E2,2.1716348E3,4.937715E3,1.5079946E3,5.689214E2,8.982883E2,2.378614E3,1.5144886E3,1.7904199E2,0E0,4.877964E0,3.5234668E2,4.886041E1,2.0965269E3,2.3082676E3,0E0,2.4781113E3,9.474734E2,1.614745E3,0E0,0E0,2.1748586E3,9.8906836E2,3.4984138E3,5.116139E2,1.5510408E3,3.3673746E2,0E0,0E0,0E0,0E0,0E0,3.1522144E2,0E0,0E0,9.618922E2,1.979438E3,2.2836172E3,1.8763528E3,2.8547026E3,3.0167593E3,5.627365E-1,1.1753091E3,1.2227991E3,2.170872E3,0E0,0E0,0E0,0E0,0E0,0E0,0E0,0E0,0E0,0E0,0E0,0E0,0E0,0E0,0E0,0E0,0E0,0E0,0E0,0E0,0E0,0E0,0E0,0E0,0E0,0E0,0E0,0E0,0E0,0E0,0E0,0E0,0E0,0E0],"parents":[2147483647,0,0,1,1,2,2,3,3,4,4,5,5,6,6,7,7,8,8,9,9,10,10,11,11,12,12,13,13,14,14,15,15,16,16,17,17,18,18,20,20,21,21,22,22,23,23,24,24,26,26,27,27,28,28,31,31,32,32,33,33,34,34,35,35,36,36,42,42,45,45,46,46,47,47,48,48,49,49,50,50,51,51,52,52,53,53,54,54],"right_children":[2,4,6,8,10,12,14,16,18,20,22,24,26,28,30,32,34,36,38,-1,40,42,44,46,48,-1,50,52,54,-1,-1,56,58,60,62,64,66,-1,-1,-1,-1,-1,68,-1,-1,70,72,74,76,78,80,82,84,86,88,-1,-1,-1,-1,-1,-1,-1,-1,-1,-1,-1,-1,-1,-1,-1,-1,-1,-1,-1,-1,-1,-1,-1,-1,-1,-1,-1,-1,-1,-1,-1,-1,-1,-1],"split_conditions":[8.6333336E1,2.4863466E1,2.956154E2,8.5E1,5.9E1,1.7843066E2,1.77E2,7.6E1,1.3044722E1,1.658936E1,2.9257614E1,8.000001E-1,7.628263E0,5.8510003E0,4.6739163E0,1.3357249E1,7.700001E0,9.826088E0,1.9365583E1,-1.4907435E0,2.3461418E1,1.6503084E1,2.1813501E1,3.690583E0,1.6666667E2,6.3946714E0,2.8290583E1,8.0899935E0,8.742667E0,-2.451668E-2,7.680013E0,8.542666E0,1.3511416E1,3.9999995E0,1.5034041E1,1.4713814E2,6.500001E0,-1.0410864E1,-3.4133966E0,1.0202294E-1,1.0345585E0,2.057293E-1,3.8999999E0,1.1470689E0,-9.529312E-1,2.7155821E0,2.8663498E1,1.9907251E1,1.2387348E1,1.0739833E1,1.6831684E1,2.2155836E0,3.11719E2,8.649369E0,8.161764E0,6.09898E-1,-3.5871465E0,4.1583934E0,-5.8294225E-1,3.0323664E-2,4.722128E0,-4.5374966E0,-1.2271965E0,9.0044594E-1,-6.8288903E0,2.926368E0,-1.7324204E0,-1.3670311E0,-6.527136E0,5.684016E-1,-4.152042E0,1.2647245E0,-2.5058882E0,-8.75974E-1,9.177721E-1,7.2172112E0,2.3602754E-1,-5.049952E-1,-3.4628265E0,7.6417527E0,-6.521946E0,-3.4622613E-1,-1.3524423E0,-2.4298189E0,6.513334E0,-5.20817E0,1.0660172E-1,5.8641977E0,8.9944893E-1],"split_indices":[4,2,3,4,4,3,4,4,2,3,2,1,2,0,0,0,1,2,0,0,0,0,0,0,4,0,0,2,0,0,0,0,0,1,2,3,1,0,0,0,0,0,1,0,0,0,0,0,2,2,2,0,3,2,2,0,0,0,0,0,0,0,0,0,0,0,0,0,0,0,0,0,0,0,0,0,0,0,0,0,0,0,0,0,0,0,0,0,0],"split_type":[0,0,0,0,0,0,0,0,0,0,0,0,0,0,0,0,0,0,0,0,0,0,0,0,0,0,0,0,0,0,0,0,0,0,0,0,0,0,0,0,0,0,0,0,0,0,0,0,0,0,0,0,0,0,0,0,0,0,0,0,0,0,0,0,0,0,0,0,0,0,0,0,0,0,0,0,0,0,0,0,0,0,0,0,0,0,0,0,0],"sum_hessian":[1.834E3,8.44E2,9.9E2,8.3E2,1.4E1,8.76E2,1.14E2,8.1E2,2E1,3E0,1.1E1,7.47E2,1.29E2,1.08E2,6E0,6.42E2,1.68E2,1.6E1,4E0,1E0,2E0,9E0,2E0,4.63E2,2.84E2,6E0,1.23E2,1.2E1,9.6E1,1E0,5E0,4.5E1,5.97E2,1.5E2,1.8E1,8E0,8E0,2E0,2E0,1E0,1E0,1E0,8E0,1E0,1E0,1.5E1,4.48E2,2.71E2,1.3E1,1.18E2,5E0,2E0,1E1,1.6E1,8E1,1.8E1,2.7E1,3E0,5.94E2,1.35E2,1.5E1,9E0,9E0,4E0,4E0,7E0,1E0,2E0,6E0,6E0,9E0,4.36E2,1.2E1,1.7E2,1.01E2,6E0,7E0,5.5E1,6.3E1,4E0,1E0,1E0,1E0,1E0,9E0,5E0,1.1E1,8E0,7.2E1],"tree_param":{"num_deleted":"0","num_feature":"5","num_nodes":"89","size_leaf_vector":"1"}},{"base_weights":[-1.4653011E-2,-9.2855155E-1,1.9446203E0,-4.9919766E-1,-3.6035435E0,7.999774E0,1.6138109E0,-6.665947E-1,1.4454689E1,-1.0370091E1,-1.4232514E0,1.0061107E1,1.0734701E0,-8.200804E0,1.7723441E0,2.3898289E-1,-2.6089625E0,1.636048E1,-9.763493E-1,-4.1510506E0,-1.7679928E1,2.5578419E1,-2.2494795E0,7.3075347E0,5.5537386E0,3.269772E0,-2.1450968E0,3.4740326E0,-1.5506795E1,1.4454737E0,6.512694E0,2.848148E0,-1.210445E0,-3.81045E0,2.9488323E0,1.9190351E1,2.417366E0,2.9541452E0,-1.2816659E1,-7.46707E0,-2.0794016E1,8.878737E0,2.0289454E0,-1.3355311E1,-7.813321E-1,-5.0021615E0,9.049979E0,4.71947E0,-2.3631541E-1,-7.3425016E0,-2.6618862E0,1.2771691E0,1.1910047E1,9.21843E0,2.3968968E0,1.0597336E0,-8.046965E0,-5.033422E0,-2.6103804E-1,-1.0124158E0,-5.4610386E0,-6.0437226E-1,2.7820985E0,1.2298818E0,6.169274E0,-8.578491E-2,1.1735997E0,-7.0042424E-2,2.6215668E0,-5.771097E0,-3.7945884E-1,-3.557874E0,2.635895E-1,-7.8351793E0,-2.803042E0,-5.723066E0,-4.780409E-1,-5.5085E-1,3.5538878E0,-2.942917E-1,-1.9566811E0,3.4061391E0,-3.8276368E-1,1.6756635E0,1.8827592E-1,-3.397602E-1,2.3341829E-1,3.7960649E0,-3.5954645E0,4.6440056E-1,-3.0003324E0,4.669926E0,-2.0526845E0,-1.6852124E0,3.3959835E0],"categories":[],"categories_nodes":[],"categories_segments":[],"categories_sizes":[],"default_left":[0,0,0,0,0,0,0,0,0,0,0,0,0,0,0,0,0,0,0,0,0,0,0,0,0,0,0,0,0,0,0,0,0,0,0,0,0,0,0,0,0,0,0,0,0,0,0,0,0,0,0,0,0,0,0,0,0,0,0,0,0,0,0,0,0,0,0,0,0,0,0,0,0,0,0,0,0,0,0,0,0,0,0,0,0,0,0,0,0,0,0,0,0,0,0],"id":9,"left_children":[1,3,5,7,9,11,13,15,17,19,21,23,25,27,29,31,33,35,-1,37,39,41,43,45,-1,47,-1,-1,49,51,53,55,57,59,61,63,65,67,69,71,73,-1,-1,75,77,79,81,83,85,-1,87,89,91,-1,93,-1,-1,-1,-1,-1,-1,-1,-1,-1,-1,-1,-1,-1,-1,-1,-1,-1,-1,-1,-1,-1,-1,-1,-1,-1,-1,-1,-1,-1,-1,-1,-1,-1,-1,-1,-1,-1,-1,-1,-1],"loss_changes":[3.2875144E3,1.436146E3,1.1569011E3,2.7131309E3,2.537519E3,4.1752234E2,8.7808325E2,1.8809568E3,4.5824512E2,1.835937E3,3.0023972E3,3.999619E2,1.6787538E2,1.4802429E3,8.381522E2,2.7641594E3,2.2816274E3,3.876394E2,0E0,1.5155626E3,4.4900098E2,1.0219092E2,2.0929097E3,4.5279962E2,0E0,3.6694656E1,0E0,0E0,7.4122107E2,8.88302E2,3.4146475E3,5.3941016E3,2.475436E3,1.6945825E3,1.933637E3,1.0229224E2,1.3240026E1,2.6017926E2,7.914978E2,2.3037161E2,6.0933057E2,0E0,0E0,9.7904517E2,1.5535579E3,1.1939766E1,4.1889734E2,1.4213974E1,3.6084895E0,0E0,7.227942E2,1.5610715E3,6.5503394E2,0E0,2.2804517E3,0E0,0E0,0E0,0E0,0E0,0E0,0E0,0E0,0E0,0E0,0E0,0E0,0E0,0E0,0E0,0E0,0E0,0E0,0E0,0E0,0E0,0E0,0E0,0E0,0E0,0E0,0E0,0E0,0E0,0E0,0E0,0E0,0E0,0E0,0E0,0E0,0E0,0E0,0E0,0E0],"parents":[2147483647,0,0,1,1,2,2,3,3,4,4,5,5,6,6,7,7,8,8,9,9,10,10,11,11,12,12,13,13,14,14,15,15,16,16,17,17,19,19,20,20,21,21,22,22,23,23,25,25,28,28,29,29,30,30,31,31,32,32,33,33,34,34,35,35,36,36,37,37,38,38,39,39,40,40,43,43,44,44,45,45,46,46,47,47,48,48,50,50,51,51,52,52,54,54],"right_children":[2,4,6,8,10,12,14,16,18,20,22,24,26,28,30,32,34,36,-1,38,40,42,44,46,-1,48,-1,-1,50,52,54,56,58,60,62,64,66,68,70,72,74,-1,-1,76,78,80,82,84,86,-1,88,90,92,-1,94,-1,-1,-1,-1,-1,-1,-1,-1,-1,-1,-1,-1,-1,-1,-1,-1,-1,-1,-1,-1,-1,-1,-1,-1,-1,-1,-1,-1,-1,-1,-1,-1,-1,-1,-1,-1,-1,-1,-1,-1],"split_conditions":[1.15333336E2,1.6831684E1,7.69592E0,1.658346E1,1.8426E1,1.2698917E1,7.9036193E0,2.4659334E1,3.3E0,1.539058E1,1.8936419E1,9.578084E0,1.5733333E2,1.2E2,1.7566667E2,2E-1,2.8290583E1,3.5513885E1,-9.763493E-1,2.2E0,7.7E1,1.8794748E1,2E-1,6.696387E0,5.5537386E0,7.5685663E0,-2.1450968E0,3.4740326E0,7.670142E1,3.5719846E2,8.759178E0,1.642247E1,4.9372888E0,1.11333336E2,2E-1,9.120096E0,1.2890584E1,1.3273915E1,4.9999995E0,3.4999998E0,9.8333336E1,8.878737E0,2.0289454E0,2.4393535E2,1.07333336E2,2.2155836E0,8.484334E0,1.6871832E1,1.508017E1,-7.3425016E0,7.8625183E0,3.503949E2,1.5946834E1,9.21843E0,1E-1,1.0597336E0,-8.046965E0,-5.033422E0,-2.6103804E-1,-1.0124158E0,-5.4610386E0,-6.0437226E-1,2.7820985E0,1.2298818E0,6.169274E0,-8.578491E-2,1.1735997E0,-7.0042424E-2,2.6215668E0,-5.771097E0,-3.7945884E-1,-3.557874E0,2.635895E-1,-7.8351793E0,-2.803042E0,-5.723066E0,-4.780409E-1,-5.5085E-1,3.5538878E0,-2.942917E-1,-1.9566811E0,3.4061391E0,-3.8276368E-1,1.6756635E0,1.8827592E-1,-3.397602E-1,2.3341829E-1,3.7960649E0,-3.5954645E0,4.6440056E-1,-3.0003324E0,4.669926E0,-2.0526845E0,-1.6852124E0,3.3959835E0],"split_indices":[4,2,2,2,0,0,2,0,1,0,0,0,4,4,4,1,0,3,0,1,4,0,1,2,0,2,0,0,3,3,2,2,3,4,1,3,0,0,1,1,4,0,0,3,4,0,0,0,0,0,2,3,0,0,1,0,0,0,0,0,0,0,0,0,0,0,0,0,0,0,0,0,0,0,0,0,0,0,0,0,0,0,0,0,0,0,0,0,0,0,0,0,0,0,0],"split_type":[0,0,0,0,0,0,0,0,0,0,0,0,0,0,0,0,0,0,0,0,0,0,0,0,0,0,0,0,0,0,0,0,0,0,0,0,0,0,0,0,0,0,0,0,0,0,0,0,0,0,0,0,0,0,0,0,0,0,0,0,0,0,0,0,0,0,0,0,0,0,0,0,0,0,0,0,0,0,0,0,0,0,0,0,0,0,0,0,0,0,0,0,0,0,0],"sum_hessian":[1.834E3,1.251E3,5.83E2,1.079E3,1.72E2,2.9E1,5.54E2,1.068E3,1.1E1,4.1E1,1.31E2,2.2E1,7E0,8E0,5.46E2,7.29E2,3.39E2,1E1,1E0,2.3E1,1.8E1,3E0,1.28E2,1.8E1,4E0,6E0,1E0,2E0,6E0,5.12E2,3.4E1,2.6E2,4.69E2,2.79E2,6E1,8E0,2E0,1.3E1,1E1,5E0,1.3E1,2E0,1E0,1.4E1,1.14E2,2E0,1.6E1,4E0,2E0,3E0,3E0,5.05E2,7E0,4E0,3E1,2.55E2,5E0,9E0,4.6E2,2.72E2,7E0,3.4E1,2.6E1,1E0,7E0,1E0,1E0,9E0,4E0,6E0,4E0,3E0,2E0,8E0,5E0,9E0,5E0,1.06E2,8E0,1E0,1E0,1.3E1,3E0,3E0,1E0,1E0,1E0,1E0,2E0,4.94E2,1.1E1,6E0,1E0,1.6E1,1.4E1],"tree_param":{"num_deleted":"0","num_feature":"5","num_nodes":"95","size_leaf_vector":"1"}},{"base_weights":[-1.3312599E-2,2.304953E0,-4.8242247E-1,2.020658E0,3.0629496E1,-9.17614E0,-2.6635945E-1,4.964598E0,-8.983325E-1,1.1001083E1,2.7821903E0,-1.4057942E1,1.8389498E1,3.42675E0,-6.186633E-1,4.181251E0,2.345973E1,-2.4312649E0,1.0202197E1,-5.8219037E0,-2.564739E1,6.5331805E-1,6.358893E0,1.0353341E1,-1.1574191E-1,-5.3413687E0,-4.0829122E-1,7.969628E-1,7.208215E0,9.848101E0,3.1708033E0,2.4653511E-1,-6.813179E0,1.697292E1,3.7350435E0,-1.2107512E1,1.0862435E1,-9.12155E0,-1.1953924E1,1.2667701E1,-3.6893718E0,1.1160043E1,-2.8139477E0,3.3375666E-2,-9.414156E0,-8.209198E-1,3.0039117E0,9.2506784E-1,-1.14823265E1,4.5198236E0,1.2716542E0,-4.3066826E0,5.784711E-1,-1.4643964E0,-8.632543E0,5.7010655E0,1.9731407E0,-8.780817E-1,3.694443E0,-1.1625139E1,-6.6527104E-1,6.1678653E0,2.6219732E-1,-7.603676E-1,-5.2165947E0,2.5583832E0,5.183963E0,-2.5391197E0,3.743518E0,6.743479E0,1.371279E0,-3.2685282E0,9.075896E-1,-3.2978132E0,5.8485144E-1,-5.9121704E0,-1.2246206E0,5.5919423E0,-2.712069E-1,6.8948703E0,5.8371395E-1],"categories":[],"categories_nodes":[],"categories_segments":[],"categories_sizes":[],"default_left":[0,0,0,0,0,0,0,0,0,0,0,0,0,0,0,0,0,0,0,0,0,0,0,0,0,0,0,0,0,0,0,0,0,0,0,0,0,0,0,0,0,0,0,0,0,0,0,0,0,0,0,0,0,0,0,0,0,0,0,0,0,0,0,0,0,0,0,0,0,0,0,0,0,0,0,0,0,0,0,0,0],"id":10,"left_children":[1,3,5,7,9,11,13,15,17,-1,-1,19,21,23,25,27,29,31,33,35,37,-1,-1,39,41,43,45,47,49,-1,-1,51,53,55,57,59,61,-1,63,65,67,69,71,73,75,77,79,-1,-1,-1,-1,-1,-1,-1,-1,-1,-1,-1,-1,-1,-1,-1,-1,-1,-1,-1,-1,-1,-1,-1,-1,-1,-1,-1,-1,-1,-1,-1,-1,-1,-1],"loss_changes":[1.9967134E3,2.4263394E3,2.8658586E3,2.642613E3,4.693335E1,5.2376084E3,1.9420552E3,2.1185898E3,2.6623403E3,0E0,0E0,2.9051206E3,2.2686047E2,3.1910596E3,1.3510006E3,1.5103848E3,3.775266E2,1.6092224E3,7.6856396E2,2.228942E3,4.8349316E2,0E0,0E0,1.4767305E3,2.6783254E3,1.2699452E3,1.8398702E3,6.461196E3,1.7561023E3,0E0,0E0,2.139536E3,2.0657632E3,6.5001465E1,6.647855E2,3.8665264E3,5.6318567E2,0E0,2.118858E2,5.781831E2,6.4594885E2,1.165063E3,3.383295E3,5.707428E2,1.7307122E3,1.9009437E3,2.9362676E3,0E0,0E0,0E0,0E0,0E0,0E0,0E0,0E0,0E0,0E0,0E0,0E0,0E0,0E0,0E0,0E0,0E0,0E0,0E0,0E0,0E0,0E0,0E0,0E0,0E0,0E0,0E0,0E0,0E0,0E0,0E0,0E0,0E0,0E0],"parents":[2147483647,0,0,1,1,2,2,3,3,4,4,5,5,6,6,7,7,8,8,11,11,12,12,13,13,14,14,15,15,16,16,17,17,18,18,19,19,20,20,23,23,24,24,25,25,26,26,27,27,28,28,31,31,32,32,33,33,34,34,35,35,36,36,38,38,39,39,40,40,41,41,42,42,43,43,44,44,45,45,46,46],"right_children":[2,4,6,8,10,12,14,16,18,-1,-1,20,22,24,26,28,30,32,34,36,38,-1,-1,40,42,44,46,48,50,-1,-1,52,54,56,58,60,62,-1,64,66,68,70,72,74,76,78,80,-1,-1,-1,-1,-1,-1,-1,-1,-1,-1,-1,-1,-1,-1,-1,-1,-1,-1,-1,-1,-1,-1,-1,-1,-1,-1,-1,-1,-1,-1,-1,-1,-1,-1],"split_conditions":[8.484334E0,7.8999996E0,9.028083E0,1.0931203E1,8.2E0,1.6533333E2,1.1101001E1,1.85E2,8.015584E0,1.1001083E1,2.7821903E0,2E-1,1.6666667E2,3.5513885E1,1.2184333E1,6.119751E0,6.8822513E0,1.1E0,1.4633333E2,1.0594036E1,1.2620554E1,6.5331805E-1,6.358893E0,1.8214718E1,8.473393E0,4.338195E1,1.2866667E2,6.040584E0,6.9926667E0,9.848101E0,3.1708033E0,1.1113451E1,1.62E2,1.4039999E1,1.3608762E1,4.4999897E1,1.1841756E1,-9.12155E0,1.4512064E1,1.0011416E1,2.1929638E1,1.05333336E2,1.0365251E1,8.6333336E1,7.245665E1,1.2430167E1,1.3E2,9.2506784E-1,-1.14823265E1,4.5198236E0,1.2716542E0,-4.3066826E0,5.784711E-1,-1.4643964E0,-8.632543E0,5.7010655E0,1.9731407E0,-8.780817E-1,3.694443E0,-1.1625139E1,-6.6527104E-1,6.1678653E0,2.6219732E-1,-7.603676E-1,-5.2165947E0,2.5583832E0,5.183963E0,-2.5391197E0,3.743518E0,6.743479E0,1.371279E0,-3.2685282E0,9.075896E-1,-3.2978132E0,5.8485144E-1,-5.9121704E0,-1.2246206E0,5.5919423E0,-2.712069E-1,6.8948703E0,5.8371395E-1],"split_indices":[0,1,0,2,1,4,0,4,0,0,0,1,4,3,0,0,0,1,4,2,2,0,0,2,2,3,4,0,0,0,0,2,4,2,2,3,2,0,2,0,3,4,2,4,3,0,4,0,0,0,0,0,0,0,0,0,0,0,0,0,0,0,0,0,0,0,0,0,0,0,0,0,0,0,0,0,0,0,0,0,0],"split_type":[0,0,0,0,0,0,0,0,0,0,0,0,0,0,0,0,0,0,0,0,0,0,0,0,0,0,0,0,0,0,0,0,0,0,0,0,0,0,0,0,0,0,0,0,0,0,0,0,0,0,0,0,0,0,0,0,0,0,0,0,0,0,0,0,0,0,0,0,0,0,0,0,0,0,0,0,0,0,0,0,0],"sum_hessian":[1.834E3,3.08E2,1.526E3,3.06E2,2E0,3.6E1,1.49E3,1.52E2,1.54E2,1E0,1E0,3.1E1,5E0,1.29E2,1.361E3,1.47E2,5E0,1.36E2,1.8E1,1.9E1,1.2E1,1E0,4E0,4.3E1,8.6E1,5.7E1,1.304E3,7E1,7.7E1,2E0,3E0,8.5E1,5.1E1,8E0,1E1,1.4E1,5E0,8E0,4E0,3.7E1,6E0,1.6E1,7E1,2.5E1,3.2E1,1.164E3,1.4E2,6.7E1,3E0,2E1,5.7E1,8E0,7.7E1,4.8E1,3E0,6E0,2E0,6E0,4E0,3E0,1.1E1,2E0,3E0,2E0,2E0,2.1E1,1.6E1,5E0,1E0,5E0,1.1E1,2.9E1,4.1E1,3E0,2.2E1,1E1,2.2E1,4E0,1.16E3,6E0,1.34E2],"tree_param":{"num_deleted":"0","num_feature":"5","num_nodes":"81","size_leaf_vector":"1"}},{"base_weights":[2.8925259E-3,-8.709899E-1,7.762845E-1,-7.668725E-1,-5.5690026E0,4.7343907E-1,4.7415266E0,-8.855162E-1,6.448898E0,8.168952E0,2.7268088E-1,1.0054844E1,-7.072635E-1,-3.604132E-1,-2.6340113E0,-3.2090259E0,8.590621E0,-9.5994E0,2.0277136E1,9.299226E-1,-2.5969355E0,1.1875826E1,-7.026718E0,-4.0320454E0,6.9133563E0,-5.152124E-1,1.6366371E1,-5.9266334E0,-1.4102694E-1,1.9343952E1,1.6620347E0,3.082806E0,-3.8848681E0,8.904502E0,9.513526E0,-1.263315E1,1.0807986E0,7.030426E0,-3.897965E0,9.79549E0,8.616171E0,8.93428E-1,-5.5561733E0,3.235663E0,-8.322361E0,1.1647169E1,-2.8777604E0,1.0576344E-2,-1.1748799E0,-3.8175752E0,7.418924E0,-2.9889162E0,5.0130737E-1,1.0725377E0,-1.5511135E0,7.362722E0,-2.1747895E-1,-1.1441807E0,2.8381445E0,-5.126894E0,4.7266073E0,9.476546E-1,-8.764459E0,-1.8386924E0,3.925348E-1,-2.5125515E0,3.0725157E0,-6.342449E0,-9.4096583E-1,-5.982918E-1,3.6699667E0,-7.14007E-1,2.2128372E0,-3.0255456E0,2.717926E0,5.0320463E0,1.2574253E0],"categories":[],"categories_nodes":[],"categories_segments":[],"categories_sizes":[],"default_left":[0,0,0,0,0,0,0,0,0,0,0,0,0,0,0,0,0,0,0,0,0,0,0,0,0,0,0,0,0,0,0,0,0,0,0,0,0,0,0,0,0,0,0,0,0,0,0,0,0,0,0,0,0,0,0,0,0,0,0,0,0,0,0,0,0,0,0,0,0,0,0,0,0,0,0,0,0],"id":11,"left_children":[1,3,5,7,-1,9,11,13,15,17,19,21,23,25,27,-1,29,31,33,35,37,39,41,43,45,47,49,51,53,55,57,-1,-1,-1,59,61,63,65,67,69,-1,-1,-1,71,73,75,-1,-1,-1,-1,-1,-1,-1,-1,-1,-1,-1,-1,-1,-1,-1,-1,-1,-1,-1,-1,-1,-1,-1,-1,-1,-1,-1,-1,-1,-1,-1],"loss_changes":[1.2408677E3,1.5736389E3,1.1673884E3,7.4024927E2,0E0,1.3974858E3,2.0047408E3,7.74879E2,6.059891E2,5.142926E3,1.6696667E3,1.1721304E3,9.146665E2,1.6940619E3,1.599813E3,0E0,9.3641974E2,7.9892834E2,1.1347969E3,1.4870212E3,2.0941086E3,8.4003467E2,5.1513153E2,8.064474E2,9.7121954E2,1.2095582E3,1.774517E3,2.5927046E3,2.111746E3,5.3942725E2,4.2041824E2,0E0,0E0,0E0,1.5976736E3,2.1871523E3,1.1782728E3,1.0752136E3,1.8505872E3,8.8660767E2,0E0,0E0,0E0,2.5007063E2,5.816255E2,2.7368042E2,0E0,0E0,0E0,0E0,0E0,0E0,0E0,0E0,0E0,0E0,0E0,0E0,0E0,0E0,0E0,0E0,0E0,0E0,0E0,0E0,0E0,0E0,0E0,0E0,0E0,0E0,0E0,0E0,0E0,0E0,0E0],"parents":[2147483647,0,0,1,1,2,2,3,3,5,5,6,6,7,7,8,8,9,9,10,10,11,11,12,12,13,13,14,14,16,16,17,17,18,18,19,19,20,20,21,21,22,22,23,23,24,24,25,25,26,26,27,27,28,28,29,29,30,30,34,34,35,35,36,36,37,37,38,38,39,39,43,43,44,44,45,45],"right_children":[2,4,6,8,-1,10,12,14,16,18,20,22,24,26,28,-1,30,32,34,36,38,40,42,44,46,48,50,52,54,56,58,-1,-1,-1,60,62,64,66,68,70,-1,-1,-1,72,74,76,-1,-1,-1,-1,-1,-1,-1,-1,-1,-1,-1,-1,-1,-1,-1,-1,-1,-1,-1,-1,-1,-1,-1,-1,-1,-1,-1,-1,-1,-1,-1],"split_conditions":[8.8E1,8.7666664E1,3.3568948E2,8.6333336E1,-5.5690026E0,8.9333336E1,3.503949E2,2.1007872E2,2.1173536E1,3.3101025E1,1.7843066E2,1.5937878E1,1.272283E1,2.0848854E2,1.0028439E1,-3.2090259E0,3.5046017E1,2E-1,9.886452E1,9E1,8.161764E0,1.5629971E1,1E-1,1.22E2,1.7072504E1,1.6831684E1,7.4128532E0,2.5230164E1,2.4376E1,6.8999996E0,2.7494751E1,3.082806E0,-3.8848681E0,8.904502E0,1.8898625E2,8.9666664E1,4.9372888E0,1.8638596E2,8.473393E0,1.04E2,8.616171E0,8.93428E-1,-5.5561733E0,3E-1,1.77E2,5E-1,-2.8777604E0,1.0576344E-2,-1.1748799E0,-3.8175752E0,7.418924E0,-2.9889162E0,5.0130737E-1,1.0725377E0,-1.5511135E0,7.362722E0,-2.1747895E-1,-1.1441807E0,2.8381445E0,-5.126894E0,4.7266073E0,9.476546E-1,-8.764459E0,-1.8386924E0,3.925348E-1,-2.5125515E0,3.0725157E0,-6.342449E0,-9.4096583E-1,-5.982918E-1,3.6699667E0,-7.14007E-1,2.2128372E0,-3.0255456E0,2.717926E0,5.0320463E0,1.2574253E0],"split_indices":[4,4,3,4,0,4,3,3,3,3,3,2,2,3,2,0,3,1,3,4,2,2,1,4,2,2,2,0,0,1,0,0,0,0,3,4,3,3,2,4,0,0,0,1,4,1,0,0,0,0,0,0,0,0,0,0,0,0,0,0,0,0,0,0,0,0,0,0,0,0,0,0,0,0,0,0,0],"split_type":[0,0,0,0,0,0,0,0,0,0,0,0,0,0,0,0,0,0,0,0,0,0,0,0,0,0,0,0,0,0,0,0,0,0,0,0,0,0,0,0,0,0,0,0,0,0,0,0,0,0,0,0,0,0,0,0,0,0,0,0,0,0,0,0,0,0,0,0,0,0,0,0,0,0,0,0,0],"sum_hessian":[1.834E3,8.61E2,9.73E2,8.57E2,4E0,9.05E2,6.8E1,8.44E2,1.3E1,2.2E1,8.83E2,3.4E1,3.4E1,6.5E2,1.94E2,1E0,1.2E1,9E0,1.3E1,7.19E2,1.64E2,3.1E1,3E0,2.4E1,1E1,6.45E2,5E0,8.3E1,1.11E2,4E0,8E0,1E0,8E0,6E0,7E0,7E0,7.12E2,1.9E1,1.45E2,2.9E1,2E0,2E0,1E0,9E0,1.5E1,8E0,2E0,5.56E2,8.9E1,1E0,4E0,5.4E1,2.9E1,6.4E1,4.7E1,3E0,1E0,5E0,3E0,1E0,6E0,4E0,3E0,2.1E1,6.91E2,3E0,1.6E1,5E0,1.4E2,5E0,2.4E1,4E0,5E0,1.4E1,1E0,4E0,4E0],"tree_param":{"num_deleted":"0","num_feature":"5","num_nodes":"77","size_leaf_vector":"1"}},{"base_weights":[3.593055E-3,6.4823234E-1,-7.4912465E-1,2.3832145E0,-4.569187E-1,-6.014251E0,-1.4621381E-1,9.985102E-1,9.312771E0,5.831883E0,-1.0463785E0,-9.361383E0,1.00282E0,9.276181E-2,-7.1853666E0,4.8092904E0,-4.777505E-1,-3.593497E0,1.0931816E1,-3.8064656E0,9.483024E0,-1.7481968E0,4.5510864E0,-6.211559E0,-2.0029104E1,-6.147489E0,3.3539505E0,-3.995476E-1,4.6453357E0,-1.131424E1,-4.155735E0,6.8482075E0,-3.1702528E0,-3.2297943E0,4.352041E0,-8.216837E0,1.2083795E1,-6.7469525E0,3.0613396E0,1.3160821E1,-7.407362E-1,-9.471419E-1,-1.0109303E1,9.929711E0,2.538495E0,-1.1400008E1,7.550928E-1,-2.6017885E1,-4.9873352E-2,-1.0022919E1,6.116142E0,2.685693E-1,-3.7425516E0,-9.682218E0,6.8458147E0,-4.3737884E0,1.1639837E0,-8.253403E-1,-1.1317535E1,2.3995395E0,-2.141309E0,-2.9567523E0,3.8873484E0,-5.2058464E-1,-5.6193624E0,6.042554E0,2.0423113E-1,2.8541074E0,-5.189473E0,4.1302195E0,-5.726117E-1,1.2504141E0,-3.1314774E0,4.557958E0,2.3198159E-1,3.9215105E0,-1.5787735E0,-4.44891E0,-1.6991225E-1,-7.443434E-1,-4.8134646E0,9.675086E-2,3.6536887E0,-5.0184703E0,3.0110452E0,4.0113587E0,-1.2069417E0,-9.062235E0,-1.8519288E0,-1.6437608E0,1.0758911E0,-6.415789E0,1.4043298E0,-1.2602351E0,3.2677038E0,-1.11801125E-1,1.8349369E0,2.2148098E-1,-2.4954798E0,-5.073638E0,1.6172036E0,-2.0798114E-1,3.4509084E0,-7.507565E-1,1.2745491E0,-9.782377E-1,2.2703838E0,-3.8725657E0,-7.430203E-1],"categories":[],"categories_nodes":[],"categories_segments":[],"categories_sizes":[],"default_left":[0,0,0,0,0,0,0,0,0,0,0,0,0,0,0,0,0,0,0,0,0,0,0,0,0,0,0,0,0,0,0,0,0,0,0,0,0,0,0,0,0,0,0,0,0,0,0,0,0,0,0,0,0,0,0,0,0,0,0,0,0,0,0,0,0,0,0,0,0,0,0,0,0,0,0,0,0,0,0,0,0,0,0,0,0,0,0,0,0,0,0,0,0,0,0,0,0,0,0,0,0,0,0,0,0,0,0,0,0],"id":12,"left_children":[1,3,5,7,9,11,13,15,17,19,21,23,25,27,29,31,33,-1,35,37,39,41,43,45,47,-1,49,51,53,55,57,59,61,63,65,67,69,71,-1,73,75,77,79,-1,81,83,85,87,89,91,93,95,97,99,101,-1,103,105,107,-1,-1,-1,-1,-1,-1,-1,-1,-1,-1,-1,-1,-1,-1,-1,-1,-1,-1,-1,-1,-1,-1,-1,-1,-1,-1,-1,-1,-1,-1,-1,-1,-1,-1,-1,-1,-1,-1,-1,-1,-1,-1,-1,-1,-1,-1,-1,-1,-1,-1],"loss_changes":[8.9088525E2,1.8974146E3,2.6878389E3,3.6849253E3,2.248835E3,2.0527625E3,1.2808099E3,1.8137749E3,2.3371045E3,1.866027E3,2.1842917E3,1.8580737E3,1.5342793E3,1.6536757E3,2.657052E2,1.4859768E3,3.111045E3,0E0,1.4228208E3,6.8683344E2,1.4385835E3,3.2923943E3,3.47821E3,1.7074756E3,1.554168E3,0E0,1.0589373E3,1.4885278E3,2.3362615E3,4.2439075E2,3.7228516E2,1.2153823E3,2.1763984E3,3.4193865E3,4.913623E3,8.086426E2,1.3690723E3,5.672847E2,0E0,6.931826E2,7.55825E2,2.375601E3,1.9071245E3,0E0,1.256501E3,3.2518445E3,1.3197301E3,6.4493604E2,9.861809E1,9.355218E2,1.1790981E3,2.0872224E3,2.2819697E3,1.1809246E3,2.219976E3,0E0,4.4560104E1,2.6997485E2,3.8358276E1,0E0,0E0,0E0,0E0,0E0,0E0,0E0,0E0,0E0,0E0,0E0,0E0,0E0,0E0,0E0,0E0,0E0,0E0,0E0,0E0,0E0,0E0,0E0,0E0,0E0,0E0,0E0,0E0,0E0,0E0,0E0,0E0,0E0,0E0,0E0,0E0,0E0,0E0,0E0,0E0,0E0,0E0,0E0,0E0,0E0,0E0,0E0,0E0,0E0,0E0],"parents":[2147483647,0,0,1,1,2,2,3,3,4,4,5,5,6,6,7,7,8,8,9,9,10,10,11,11,12,12,13,13,14,14,15,15,16,16,18,18,19,19,20,20,21,21,22,22,23,23,24,24,26,26,27,27,28,28,29,29,30,30,31,31,32,32,33,33,34,34,35,35,36,36,37,37,39,39,40,40,41,41,42,42,44,44,45,45,46,46,47,47,48,48,49,49,50,50,51,51,52,52,53,53,54,54,56,56,57,57,58,58],"right_children":[2,4,6,8,10,12,14,16,18,20,22,24,26,28,30,32,34,-1,36,38,40,42,44,46,48,-1,50,52,54,56,58,60,62,64,66,68,70,72,-1,74,76,78,80,-1,82,84,86,88,90,92,94,96,98,100,102,-1,104,106,108,-1,-1,-1,-1,-1,-1,-1,-1,-1,-1,-1,-1,-1,-1,-1,-1,-1,-1,-1,-1,-1,-1,-1,-1,-1,-1,-1,-1,-1,-1,-1,-1,-1,-1,-1,-1,-1,-1,-1,-1,-1,-1,-1,-1,-1,-1,-1,-1,-1,-1],"split_conditions":[1.9261415E1,1E-1,2.0401003E1,1.6421831E1,1.1445052E1,2.7999997E0,2.4863466E1,6.9926667E0,3.6E1,4.9372888E0,1.7659334E1,9.7333336E1,6.423374E0,1.8374111E1,2.2621834E1,1.5666667E2,1.1753876E1,-3.593497E0,9.637469E0,1.5807239E1,1.53385E1,1.6673914E1,1.4733146E1,1.0703569E1,1.5166667E2,-6.147489E0,1.9365583E1,7.499999E0,1E-1,2.9257614E1,2.5628084E1,1.5629971E1,1.68E2,1.0948973E1,1.2031756E1,6.2666668E1,1.5937878E1,4.6739163E0,3.0613396E0,1.4973576E1,7.1534667E0,1.2790858E1,1.3E0,9.929711E0,7.700001E0,8.1666664E1,1.1753876E1,1.1656499E2,8.699793E0,7.2E0,9.360001E0,4.1E0,3.2173157E1,2.1817902E1,6.3333332E1,-4.3737884E0,2.1496834E1,2.4461418E1,2.7921831E1,2.3995395E0,-2.141309E0,-2.9567523E0,3.8873484E0,-5.2058464E-1,-5.6193624E0,6.042554E0,2.0423113E-1,2.8541074E0,-5.189473E0,4.1302195E0,-5.726117E-1,1.2504141E0,-3.1314774E0,4.557958E0,2.3198159E-1,3.9215105E0,-1.5787735E0,-4.44891E0,-1.6991225E-1,-7.443434E-1,-4.8134646E0,9.675086E-2,3.6536887E0,-5.0184703E0,3.0110452E0,4.0113587E0,-1.2069417E0,-9.062235E0,-1.8519288E0,-1.6437608E0,1.0758911E0,-6.415789E0,1.4043298E0,-1.2602351E0,3.2677038E0,-1.11801125E-1,1.8349369E0,2.2148098E-1,-2.4954798E0,-5.073638E0,1.6172036E0,-2.0798114E-1,3.4509084E0,-7.507565E-1,1.2745491E0,-9.782377E-1,2.2703838E0,-3.8725657E0,-7.430203E-1],"split_indices":[0,1,0,0,3,1,2,0,4,3,0,4,3,2,0,4,2,0,3,2,0,0,3,2,4,0,0,1,1,2,0,2,4,2,2,4,2,0,0,2,3,3,1,0,1,4,2,3,2,1,2,1,3,2,4,0,0,0,0,0,0,0,0,0,0,0,0,0,0,0,0,0,0,0,0,0,0,0,0,0,0,0,0,0,0,0,0,0,0,0,0,0,0,0,0,0,0,0,0,0,0,0,0,0,0,0,0,0,0],"split_type":[0,0,0,0,0,0,0,0,0,0,0,0,0,0,0,0,0,0,0,0,0,0,0,0,0,0,0,0,0,0,0,0,0,0,0,0,0,0,0,0,0,0,0,0,0,0,0,0,0,0,0,0,0,0,0,0,0,0,0,0,0,0,0,0,0,0,0,0,0,0,0,0,0,0,0,0,0,0,0,0,0,0,0,0,0,0,0,0,0,0,0,0,0,0,0,0,0,0,0,0,0,0,0,0,0,0,0,0,0],"sum_hessian":[1.834E3,9.88E2,8.46E2,3.84E2,6.04E2,8.6E1,7.6E2,3.21E2,6.3E1,5.1E1,5.53E2,5.8E1,2.8E1,7.36E2,2.4E1,8.9E1,2.32E2,4E0,5.9E1,1.4E1,3.7E1,4.92E2,6.1E1,4.6E1,1.2E1,2E0,2.6E1,6.65E2,7.1E1,9E0,1.5E1,7.1E1,1.8E1,1.48E2,8.4E1,3E0,5.6E1,1.2E1,2E0,2.7E1,1E1,4.5E2,4.2E1,3E0,5.8E1,2.6E1,2E1,9E0,3E0,4E0,2.2E1,5.55E2,1.1E2,9E0,6.2E1,7E0,2E0,1.1E1,4E0,6.6E1,5E0,1.3E1,5E0,1.36E2,1.2E1,1.5E1,6.9E1,1E0,2E0,5E1,6E0,3E0,9E0,2.3E1,4E0,2E0,8E0,1.1E1,4.39E2,1.9E1,2.3E1,4.8E1,1E1,2.1E1,5E0,5E0,1.5E1,7E0,2E0,1E0,2E0,2E0,2E0,7E0,1.5E1,5.01E2,5.4E1,5.6E1,5.4E1,6E0,3E0,2.4E1,3.8E1,1E0,1E0,9E0,2E0,3E0,1E0],"tree_param":{"num_deleted":"0","num_feature":"5","num_nodes":"109","size_leaf_vector":"1"}},{"base_weights":[-6.7671235E-3,8.073801E-1,-6.396359E-1,4.4589442E-1,6.8864965E0,-9.599223E0,-2.5022936E-1,1.0871553E0,-2.000213E0,3.8357668E0,1.5967319E1,-3.65109E0,-1.625702E1,3.0468285E0,-7.917057E-1,6.8066037E-1,9.395992E0,5.814477E0,-3.5128574E0,1.0467909E1,-7.960743E-2,1.9871494E1,-3.4611673E0,-7.4458027E0,6.6283274E0,-8.770574E0,-2.6390371E1,-3.0306315E0,4.5932527E0,-1.2968963E0,1.6804782E0,-3.191644E0,1.1890371E0,2.425996E1,3.2860994E0,-1.1973039E1,1.0619744E1,-1.0768048E1,-1.4755871E0,-2.1279907E0,1.4459477E1,-6.448694E0,5.3157434E0,1.7218621E0,6.241196E0,-1.3970464E1,2.4563313E0,-3.3978138E0,4.499216E0,-1.1041139E0,-1.5184093E1,-9.360861E0,-2.3905776E0,1.572495E0,-7.431716E0,-2.9365735E0,6.1631804E0,-1.1250496E0,-1.31793E1,1.6061619E1,7.234655E-1,1.3958839E-1,-2.6928754E0,2.3696404E0,2.3903742E-1,4.594288E-2,8.304574E0,-6.45128E-1,6.3339205E0,-3.9471798E0,-9.077855E-1,6.5334973E0,1.4113274E0,-3.9980159E0,3.7839377E-1,5.184281E-1,-1.3258333E0,-1.7995576E0,1.4225419E0,5.580105E0,2.5796514E0,5.61193E0,-3.2504551E0,2.915449E0,-3.7795122E0,-5.0955915E0,-8.073654E-2,2.8567681E0,-1.1063755E0,-2.0284936E0,1.004052E0,2.093371E0,-1.7197504E0,1.2601376E0,-5.734479E0,2.3268468E0,-4.1436416E-1,-4.60043E0,1.137307E0,-2.9865482E0,4.8253408E-1,2.5154397E0,1.2660252E-1,-3.9742485E-1,3.830024E0,1.4428443E0,-6.472754E0,1.8147561E-1,8.491798E0,-1.4838903E0,7.710261E-1],"categories":[],"categories_nodes":[],"categories_segments":[],"categories_sizes":[],"default_left":[0,0,0,0,0,0,0,0,0,0,0,0,0,0,0,0,0,0,0,0,0,0,0,0,0,0,0,0,0,0,0,0,0,0,0,0,0,0,0,0,0,0,0,0,0,0,0,0,0,0,0,0,0,0,0,0,0,0,0,0,0,0,0,0,0,0,0,0,0,0,0,0,0,0,0,0,0,0,0,0,0,0,0,0,0,0,0,0,0,0,0,0,0,0,0,0,0,0,0,0,0,0,0,0,0,0,0,0,0,0,0],"id":13,"left_children":[1,3,5,7,9,11,13,15,17,19,21,23,25,27,29,31,33,35,37,39,41,43,-1,45,47,49,51,53,55,57,59,61,63,65,67,69,71,73,75,77,79,81,83,-1,-1,85,87,89,-1,91,93,-1,-1,95,97,99,101,103,105,107,109,-1,-1,-1,-1,-1,-1,-1,-1,-1,-1,-1,-1,-1,-1,-1,-1,-1,-1,-1,-1,-1,-1,-1,-1,-1,-1,-1,-1,-1,-1,-1,-1,-1,-1,-1,-1,-1,-1,-1,-1,-1,-1,-1,-1,-1,-1,-1,-1,-1,-1],"loss_changes":[9.4599713E2,1.7615326E3,3.601654E3,1.1927366E3,1.185394E3,1.6435078E3,1.7716237E3,2.0268596E3,1.8881194E3,9.0968945E2,1.4104702E3,9.855317E2,1.2857974E3,1.3296869E3,1.0662628E3,1.1357336E3,2.4631626E3,2.3494685E3,1.9499553E3,6.8437573E2,8.246392E2,1.2373535E1,0E0,1.1972612E3,6.38324E2,6.224319E2,4.6059473E2,5.9919006E2,1.3420823E3,1.4308756E3,1.9840054E3,1.4214913E3,1.333331E3,6.556997E2,2.0806545E3,2.3759033E1,1.2836836E3,9.094055E2,9.979107E2,1.3480298E2,8.2740234E1,1.4163588E3,1.1476838E3,0E0,0E0,4.498098E2,3.824518E2,1.1338165E2,0E0,3.0184775E2,6.136737E2,0E0,0E0,2.846839E2,1.3885425E3,6.5400476E2,1.1826487E3,1.9560715E3,1.6142048E3,1.6861958E3,1.4470901E3,0E0,0E0,0E0,0E0,0E0,0E0,0E0,0E0,0E0,0E0,0E0,0E0,0E0,0E0,0E0,0E0,0E0,0E0,0E0,0E0,0E0,0E0,0E0,0E0,0E0,0E0,0E0,0E0,0E0,0E0,0E0,0E0,0E0,0E0,0E0,0E0,0E0,0E0,0E0,0E0,0E0,0E0,0E0,0E0,0E0,0E0,0E0,0E0,0E0,0E0],"parents":[2147483647,0,0,1,1,2,2,3,3,4,4,5,5,6,6,7,7,8,8,9,9,10,10,11,11,12,12,13,13,14,14,15,15,16,16,17,17,18,18,19,19,20,20,21,21,23,23,24,24,25,25,26,26,27,27,28,28,29,29,30,30,31,31,32,32,33,33,34,34,35,35,36,36,37,37,38,38,39,39,40,40,41,41,42,42,45,45,46,46,47,47,49,49,50,50,53,53,54,54,55,55,56,56,57,57,58,58,59,59,60,60],"right_children":[2,4,6,8,10,12,14,16,18,20,22,24,26,28,30,32,34,36,38,40,42,44,-1,46,48,50,52,54,56,58,60,62,64,66,68,70,72,74,76,78,80,82,84,-1,-1,86,88,90,-1,92,94,-1,-1,96,98,100,102,104,106,108,110,-1,-1,-1,-1,-1,-1,-1,-1,-1,-1,-1,-1,-1,-1,-1,-1,-1,-1,-1,-1,-1,-1,-1,-1,-1,-1,-1,-1,-1,-1,-1,-1,-1,-1,-1,-1,-1,-1,-1,-1,-1,-1,-1,-1,-1,-1,-1,-1,-1,-1],"split_conditions":[1.1019764E1,1.0805999E1,1.127553E1,2.1913483E2,1.37E2,2.1423918E1,1.4733146E1,2.0848854E2,7.628263E0,7.3666664E1,1.6421831E1,2.2051527E2,7.5E1,4.9372888E0,2.5088014E2,1.6128649E1,1.4953083E1,2.2382613E2,6.1E1,4.2333332E1,9.1666664E1,2.4732187E1,-3.4611673E0,1.3266667E2,7.6666664E1,2.5748917E1,8.900001E0,8.3666664E1,5.7333332E1,2.4080261E2,2.5921576E2,9.0000004E-1,2.0799036E1,4.3666668E1,8.6333336E1,2.2048918E1,2.8063873E2,6.2000003E0,1E-1,6E-1,5.6E1,1.0883676E1,1.3000001E0,1.7218621E0,6.241196E0,1.7794752E1,1.4766667E2,2.010517E1,4.499216E0,2.5999994E0,8.2593565E0,-9.360861E0,-2.3905776E0,1.4113653E1,1.609969E1,1.4168641E1,1.23333336E2,2.2984404E2,5.7333332E1,2E-1,1.26462E1,1.3958839E-1,-2.6928754E0,2.3696404E0,2.3903742E-1,4.594288E-2,8.304574E0,-6.45128E-1,6.3339205E0,-3.9471798E0,-9.077855E-1,6.5334973E0,1.4113274E0,-3.9980159E0,3.7839377E-1,5.184281E-1,-1.3258333E0,-1.7995576E0,1.4225419E0,5.580105E0,2.5796514E0,5.61193E0,-3.2504551E0,2.915449E0,-3.7795122E0,-5.0955915E0,-8.073654E-2,2.8567681E0,-1.1063755E0,-2.0284936E0,1.004052E0,2.093371E0,-1.7197504E0,1.2601376E0,-5.734479E0,2.3268468E0,-4.1436416E-1,-4.60043E0,1.137307E0,-2.9865482E0,4.8253408E-1,2.5154397E0,1.2660252E-1,-3.9742485E-1,3.830024E0,1.4428443E0,-6.472754E0,1.8147561E-1,8.491798E0,-1.4838903E0,7.710261E-1],"split_indices":[2,2,2,3,4,0,3,3,2,4,0,3,4,3,3,3,0,3,4,4,4,3,0,4,4,0,1,4,4,3,3,1,3,4,4,0,3,1,1,1,4,2,1,0,0,0,4,0,0,1,3,0,0,2,2,2,4,3,4,1,2,0,0,0,0,0,0,0,0,0,0,0,0,0,0,0,0,0,0,0,0,0,0,0,0,0,0,0,0,0,0,0,0,0,0,0,0,0,0,0,0,0,0,0,0,0,0,0,0,0,0],"split_type":[0,0,0,0,0,0,0,0,0,0,0,0,0,0,0,0,0,0,0,0,0,0,0,0,0,0,0,0,0,0,0,0,0,0,0,0,0,0,0,0,0,0,0,0,0,0,0,0,0,0,0,0,0,0,0,0,0,0,0,0,0,0,0,0,0,0,0,0,0,0,0,0,0,0,0,0,0,0,0,0,0,0,0,0,0,0,0,0,0,0,0,0,0,0,0,0,0,0,0,0,0,0,0,0,0,0,0,0,0,0,0],"sum_hessian":[1.834E3,8.02E2,1.032E3,7.58E2,4.4E1,4.2E1,9.9E2,6.01E2,1.57E2,3.4E1,1E1,2.3E1,1.9E1,1.39E2,8.51E2,5.74E2,2.7E1,2.5E1,1.32E2,1.2E1,2.2E1,9E0,1E0,1.7E1,6E0,1.2E1,7E0,2.8E1,1.11E2,7.07E2,1.44E2,6.6E1,5.08E2,7E0,2E1,5E0,2E1,2.8E1,1.04E2,3E0,9E0,1E1,1.2E1,1E0,8E0,1E1,7E0,3E0,3E0,6E0,6E0,5E0,2E0,1.4E1,1.4E1,1.9E1,9.2E1,6.98E2,9E0,8E0,1.36E2,4.1E1,2.5E1,2.7E1,4.81E2,1E0,6E0,1.6E1,4E0,4E0,1E0,6E0,1.4E1,2.3E1,5E0,5E1,5.4E1,2E0,1E0,4E0,5E0,1E0,9E0,1E1,2E0,8E0,2E0,3E0,4E0,2E0,1E0,2E0,4E0,1E0,5E0,4E0,1E1,8E0,6E0,7E0,1.2E1,6.6E1,2.6E1,6.89E2,9E0,3E0,6E0,4E0,4E0,3.3E1,1.03E2],"tree_param":{"num_deleted":"0","num_feature":"5","num_nodes":"111","size_leaf_vector":"1"}},{"base_weights":[3.81137E-3,5.657281E-2,-5.641887E0,-3.0698517E-2,5.261876E0,-1.5908139E0,-1.50463E1,6.267275E-1,-5.613848E-1,1.1708091E1,1.9416847E0,2.0282588E0,-3.0722377E0,-5.1737814E0,-9.37163E-1,2.7512267E-1,4.0725384E0,-7.0869756E0,-2.6511317E-1,-1.6613652E0,1.671182E1,-2.6621058E0,6.3689585E0,4.741601E0,-3.2271547E0,3.4347147E-1,-4.900264E0,-5.259844E0,4.9161983E0,-2.5537298E0,-1.2172522E1,2.0898368E0,-6.4146644E-1,1.8607725E1,5.160725E-1,-4.4361477E0,3.5473874E0,3.4526083E0,3.8985069E0,-4.204525E-1,5.9990373E0,-1.6536839E0,-6.2802E-1,2.3433693E-1,-6.921054E-1,-1.9886079E0,1.8198506E0,-1.6207182E0,1.5408673E0,-1.9364524E0,-5.9826565E0,7.959018E-1,-3.789788E0,5.685277E-1,-3.3947963E-1,1.1259688E0,6.1373816E0,-2.206062E0,-1.8945763E-1,6.819534E-2,1.5281291E0,1.4335933E-1,2.7728426E0,4.3734515E-1,1.9847155E0,-3.041016E-1,2.1492578E-2],"categories":[],"categories_nodes":[],"categories_segments":[],"categories_sizes":[],"default_left":[0,0,0,0,0,0,0,0,0,0,0,0,0,0,0,0,0,0,0,0,0,0,0,0,0,0,0,0,0,0,0,0,0,0,0,0,0,0,0,0,0,0,0,0,0,0,0,0,0,0,0,0,0,0,0,0,0,0,0,0,0,0,0,0,0,0,0],"id":14,"left_children":[1,3,5,7,9,11,13,15,17,19,21,23,-1,-1,-1,25,27,29,31,-1,33,35,37,39,41,43,-1,-1,45,47,49,51,53,55,-1,57,59,61,-1,-1,63,-1,65,-1,-1,-1,-1,-1,-1,-1,-1,-1,-1,-1,-1,-1,-1,-1,-1,-1,-1,-1,-1,-1,-1,-1,-1],"loss_changes":[5.469201E2,8.264855E2,6.237295E2,6.248595E2,6.193467E2,4.2773468E2,7.7250854E1,9.681305E2,1.9140685E3,9.5549E2,4.449819E2,1.5789923E2,0E0,0E0,0E0,8.309211E2,1.435035E3,9.6023804E2,8.424327E2,0E0,1.953711E2,1.3691162E2,1.6769638E2,6.247969E1,2.0295567E1,8.427956E2,0E0,0E0,9.961029E2,5.5349426E2,7.597656E2,1.1196665E3,1.0203655E3,1.1560425E2,0E0,9.525221E1,1.4244324E1,1.5060242E2,0E0,0E0,7.158371E0,0E0,8.820993E-1,0E0,0E0,0E0,0E0,0E0,0E0,0E0,0E0,0E0,0E0,0E0,0E0,0E0,0E0,0E0,0E0,0E0,0E0,0E0,0E0,0E0,0E0,0E0,0E0],"parents":[2147483647,0,0,1,1,2,2,3,3,4,4,5,5,6,6,7,7,8,8,9,9,10,10,11,11,15,15,16,16,17,17,18,18,20,20,21,21,22,22,23,23,24,24,25,25,28,28,29,29,30,30,31,31,32,32,33,33,35,35,36,36,37,37,40,40,42,42],"right_children":[2,4,6,8,10,12,14,16,18,20,22,24,-1,-1,-1,26,28,30,32,-1,34,36,38,40,42,44,-1,-1,46,48,50,52,54,56,-1,58,60,62,-1,-1,64,-1,66,-1,-1,-1,-1,-1,-1,-1,-1,-1,-1,-1,-1,-1,-1,-1,-1,-1,-1,-1,-1,-1,-1,-1,-1],"split_conditions":[4.5799995E1,2.7599998E1,9.6333336E1,1.1019764E1,1.477755E1,3.5513885E1,6.84E1,1.0636766E1,1.127553E1,1.0518973E1,2.000512E1,2.7497026E1,-3.0722377E0,-5.1737814E0,-9.37163E-1,1.8300001E1,9.462248E0,2.1423918E1,1.4733146E1,-1.6613652E0,3.2173157E1,4.1123997E1,1.4E2,1.3392516E1,2.2621834E1,2.6034338E1,-4.900264E0,-5.259844E0,5.4364166E0,2.2051527E2,7.5E1,2.289611E1,1.2031756E1,2.8900002E1,5.160725E-1,1.6831684E1,2.5523918E1,2.4461418E1,3.8985069E0,-4.204525E-1,1.6503084E1,-1.6536839E0,2.2923918E1,2.3433693E-1,-6.921054E-1,-1.9886079E0,1.8198506E0,-1.6207182E0,1.5408673E0,-1.9364524E0,-5.9826565E0,7.959018E-1,-3.789788E0,5.685277E-1,-3.3947963E-1,1.1259688E0,6.1373816E0,-2.206062E0,-1.8945763E-1,6.819534E-2,1.5281291E0,1.4335933E-1,2.7728426E0,4.3734515E-1,1.9847155E0,-3.041016E-1,2.1492578E-2],"split_indices":[1,1,4,2,2,3,1,2,2,3,2,2,0,0,0,1,3,0,3,0,3,3,4,3,0,0,0,0,0,3,4,2,2,1,0,2,0,0,0,0,0,0,0,0,0,0,0,0,0,0,0,0,0,0,0,0,0,0,0,0,0,0,0,0,0,0,0],"split_type":[0,0,0,0,0,0,0,0,0,0,0,0,0,0,0,0,0,0,0,0,0,0,0,0,0,0,0,0,0,0,0,0,0,0,0,0,0,0,0,0,0,0,0,0,0,0,0,0,0,0,0,0,0,0,0,0,0,0,0,0,0,0,0,0,0,0,0],"sum_hessian":[1.834E3,1.818E3,1.6E1,1.789E3,2.9E1,1.2E1,4E0,7.99E2,9.9E2,9E0,2E1,9E0,3E0,3E0,1E0,7.26E2,7.3E1,4.2E1,9.48E2,2E0,7E0,1E1,1E1,6E0,3E0,7.24E2,2E0,2E0,7.1E1,2.3E1,1.9E1,1.3E2,8.18E2,6E0,1E0,8E0,2E0,8E0,2E0,1E0,5E0,1E0,2E0,6.22E2,1.02E2,6E0,6.5E1,1.7E1,6E0,1.2E1,7E0,1.26E2,4E0,1.32E2,6.86E2,1E0,5E0,4E0,4E0,1E0,1E0,6E0,2E0,1E0,4E0,1E0,1E0],"tree_param":{"num_deleted":"0","num_feature":"5","num_nodes":"67","size_leaf_vector":"1"}},{"base_weights":[-7.433448E-3,-1.5055321E-1,2.4006634E0,-4.4792002E-1,8.5786384E-1,-3.1170664E0,6.735403E0,-2.637082E-1,-4.1747546E0,3.4874628E0,-1.821818E-1,1.455843E1,-4.6888084E0,1.0117868E1,1.5220002E0,-3.2836074E-1,7.960603E0,-6.1966367E0,1.60659E1,-8.74188E0,4.043919E0,9.5904964E-1,-4.550591E0,5.9978027E0,-2.6164627E-1,-9.5334425E0,8.4049517E-1,1.3168846E1,-1.8252878E0,-1.923574E0,5.127872E0,-6.2551556E0,-2.4282065E-1,1.3511196E1,-2.8483536E0,-1.0076406E1,2.9848726E0,1.1576821E0,5.320652E0,1.8325298E0,1.4655251E1,5.975641E-1,6.261633E0,-2.1705149E1,-6.066985E-1,2.1190002E0,-1.2098114E1,1.3090157E1,-2.8117874E0,-5.193274E-1,1.8670082E1,2.2309628E0,-4.2107697E0,-3.8014214E0,3.2519379E0,-1.6257153E0,1.0184108E1,-9.611511E0,-3.0895665E-1,4.0680437E0,-1.06128044E-1,-8.5684663E-1,4.877224E0,-2.2334862E0,-7.255716E0,4.9268985E0,-1.0340831E0,2.8171405E-1,4.389458E0,2.0770733E-1,6.313922E0,9.819462E-2,4.5935555E0,-7.947007E-1,-7.0037594E0,-2.7748775E0,1.413039E0,-8.720635E-1,1.9315636E0,-3.7487715E-1,-3.990272E0,6.8360143E0,-2.9093552E-1,-4.66889E0,-3.1264603E-1,-2.4617472E0,4.4016382E-1,6.332418E0,2.1403606E0,-3.0333834E0,5.1506653E-2,5.91774E-3,-1.6325623E0,2.04411E0,-1.1150025E0,1.3386917E0,-1.7355907E0,3.5840886E0,-5.895195E-2],"categories":[],"categories_nodes":[],"categories_segments":[],"categories_sizes":[],"default_left":[0,0,0,0,0,0,0,0,0,0,0,0,0,0,0,0,0,0,0,0,0,0,0,0,0,0,0,0,0,0,0,0,0,0,0,0,0,0,0,0,0,0,0,0,0,0,0,0,0,0,0,0,0,0,0,0,0,0,0,0,0,0,0,0,0,0,0,0,0,0,0,0,0,0,0,0,0,0,0,0,0,0,0,0,0,0,0,0,0,0,0,0,0,0,0,0,0,0,0],"id":15,"left_children":[1,3,5,7,9,11,13,15,17,19,21,23,25,27,29,31,33,35,37,-1,39,41,43,-1,-1,45,47,49,51,53,55,57,59,61,-1,63,65,-1,-1,67,69,71,-1,73,75,77,79,81,83,85,87,-1,89,91,93,95,97,-1,-1,-1,-1,-1,-1,-1,-1,-1,-1,-1,-1,-1,-1,-1,-1,-1,-1,-1,-1,-1,-1,-1,-1,-1,-1,-1,-1,-1,-1,-1,-1,-1,-1,-1,-1,-1,-1,-1,-1,-1,-1],"loss_changes":[6.327873E2,5.200586E2,2.484541E3,9.181587E2,1.080922E3,1.3462026E3,1.00738135E3,6.816236E2,2.6777808E3,2.1512583E3,1.420208E3,3.5285107E2,1.159873E3,1.2993777E3,3.08047E2,6.4132996E2,1.0971445E3,2.096161E3,5.3844482E1,0E0,2.5778462E3,1.6143397E3,3.9785195E3,0E0,0E0,7.129839E2,9.7633044E2,2.118148E3,2.08065E2,1.3870667E2,4.2632925E2,2.3920557E3,1.9204457E3,4.060199E2,0E0,1.342186E3,1.6123767E3,0E0,0E0,1.049779E3,1.680969E3,8.8175146E2,0E0,2.820791E2,2.295253E3,1.2726361E2,2.3130103E2,7.037631E2,3.673846E2,1.494655E2,4.1187207E2,0E0,1.827471E2,6.279146E1,1.2460649E2,1.777577E2,1.3044421E2,0E0,0E0,0E0,0E0,0E0,0E0,0E0,0E0,0E0,0E0,0E0,0E0,0E0,0E0,0E0,0E0,0E0,0E0,0E0,0E0,0E0,0E0,0E0,0E0,0E0,0E0,0E0,0E0,0E0,0E0,0E0,0E0,0E0,0E0,0E0,0E0,0E0,0E0,0E0,0E0,0E0,0E0],"parents":[2147483647,0,0,1,1,2,2,3,3,4,4,5,5,6,6,7,7,8,8,9,9,10,10,11,11,12,12,13,13,14,14,15,15,16,16,17,17,18,18,20,20,21,21,22,22,25,25,26,26,27,27,28,28,29,29,30,30,31,31,32,32,33,33,35,35,36,36,39,39,40,40,41,41,43,43,44,44,45,45,46,46,47,47,48,48,49,49,50,50,52,52,53,53,54,54,55,55,56,56],"right_children":[2,4,6,8,10,12,14,16,18,20,22,24,26,28,30,32,34,36,38,-1,40,42,44,-1,-1,46,48,50,52,54,56,58,60,62,-1,64,66,-1,-1,68,70,72,-1,74,76,78,80,82,84,86,88,-1,90,92,94,96,98,-1,-1,-1,-1,-1,-1,-1,-1,-1,-1,-1,-1,-1,-1,-1,-1,-1,-1,-1,-1,-1,-1,-1,-1,-1,-1,-1,-1,-1,-1,-1,-1,-1,-1,-1,-1,-1,-1,-1,-1,-1,-1],"split_conditions":[2.7921831E1,1.3133333E2,1E-1,1.25666664E2,1.4266667E2,7.5942073E0,1.5807239E1,1.24666664E2,2.5531111E2,4.336314E0,1.6854373E2,2.9044754E1,2.9348915E1,3.0121834E1,1.8214718E1,6.379216E0,2.5347037E2,1.6748915E1,2.2155836E0,-8.74188E0,1.41E2,1.4312953E2,1.4766667E2,5.9978027E0,-2.6164627E-1,2.812391E1,8.305909E1,5.4666668E1,7.1666664E1,8.8666664E1,2.09755E1,1.968185E1,6.618519E0,1.0893514E1,-2.8483536E0,1.4123917E1,1E-1,1.1576821E0,5.320652E0,2.2048918E1,3.083119E1,2.3617756E1,6.261633E0,2.2155836E0,2.5921576E2,9.931042E0,5.3666668E1,3.1898916E1,1.2078405E2,6.696387E0,4.3999996E0,2.2309628E0,2E-1,1.1445052E1,9.000001E-1,8.622503E0,3.1898916E1,-9.611511E0,-3.0895665E-1,4.0680437E0,-1.06128044E-1,-8.5684663E-1,4.877224E0,-2.2334862E0,-7.255716E0,4.9268985E0,-1.0340831E0,2.8171405E-1,4.389458E0,2.0770733E-1,6.313922E0,9.819462E-2,4.5935555E0,-7.947007E-1,-7.0037594E0,-2.7748775E0,1.413039E0,-8.720635E-1,1.9315636E0,-3.7487715E-1,-3.990272E0,6.8360143E0,-2.9093552E-1,-4.66889E0,-3.1264603E-1,-2.4617472E0,4.4016382E-1,6.332418E0,2.1403606E0,-3.0333834E0,5.1506653E-2,5.91774E-3,-1.6325623E0,2.04411E0,-1.1150025E0,1.3386917E0,-1.7355907E0,3.5840886E0,-5.895195E-2],"split_indices":[0,4,1,4,4,2,2,4,3,3,3,0,0,0,2,2,3,0,0,0,4,3,4,0,0,0,3,4,4,4,3,3,2,3,0,0,1,0,0,0,3,2,0,0,3,2,4,0,3,2,1,0,1,3,1,3,0,0,0,0,0,0,0,0,0,0,0,0,0,0,0,0,0,0,0,0,0,0,0,0,0,0,0,0,0,0,0,0,0,0,0,0,0,0,0,0,0,0,0],"split_type":[0,0,0,0,0,0,0,0,0,0,0,0,0,0,0,0,0,0,0,0,0,0,0,0,0,0,0,0,0,0,0,0,0,0,0,0,0,0,0,0,0,0,0,0,0,0,0,0,0,0,0,0,0,0,0,0,0,0,0,0,0,0,0,0,0,0,0,0,0,0,0,0,0,0,0,0,0,0,0,0,0,0,0,0,0,0,0,0,0,0,0,0,0,0,0,0,0,0,0],"sum_hessian":[1.834E3,1.732E3,1.02E2,1.338E3,3.94E2,4.5E1,5.7E1,1.276E3,6.2E1,1.11E2,2.83E2,3E0,4.2E1,3.4E1,2.3E1,1.267E3,9E0,5.7E1,5E0,1E0,1.1E2,2.25E2,5.8E1,2E0,1E0,2.2E1,2E1,2.7E1,7E0,1.2E1,1.1E1,1.7E1,1.25E3,7E0,2E0,4E1,1.7E1,1E0,4E0,9.2E1,1.8E1,2.22E2,3E0,1E1,4.8E1,4E0,1.8E1,4E0,1.6E1,8E0,1.9E1,1E0,6E0,9E0,3E0,5E0,6E0,2E0,1.5E1,9E0,1.241E3,1E0,6E0,3.5E1,5E0,5E0,1.2E1,8.7E1,5E0,6E0,1.2E1,2.19E2,3E0,1E0,9E0,1.8E1,3E1,2E0,2E0,2E0,1.6E1,2E0,2E0,1E0,1.5E1,1E0,7E0,1.5E1,4E0,2E0,4E0,3E0,6E0,2E0,1E0,2E0,3E0,5E0,1E0],"tree_param":{"num_deleted":"0","num_feature":"5","num_nodes":"99","size_leaf_vector":"1"}},{"base_weights":[1.5882113E-3,-5.615818E0,5.097113E-2,-5.24265E-1,-6.2278237E0,-2.87429E0,1.3693078E-1,2.6455956E0,-3.5916998E0,-5.9483757E0,6.805534E0,2.7741532E0,-2.2743525E-2,-3.0135221E0,1.3302432E1,-4.6723747E0,-6.0384793E0,-3.6710007E0,1.186966E1,1.7582686E0,2.1927486E1,-9.762782E0,6.554852E-2,-9.964396E0,3.1498818E0,1.7810189E0,5.3099313E0,5.287117E0,-7.9455657E0,-6.2288E0,9.840294E-1,5.7693925E0,-2.1402264E0,3.8232204E-1,8.700103E0,-2.1745378E-1,2.7771782E1,-7.911286E0,-3.4131603E0,3.5819988E0,-6.212337E-2,-6.885481E-1,-3.5267267E0,-1.3837208E0,2.9586618E0,3.1132233E0,-1.482803E0,-7.148159E0,-1.5589918E0,-8.3973855E-1,-2.4776723E0,-1.58863E0,1.0988091E0,1.8802308E0,-2.7644616E-1,4.9429674E0,-3.5110219E0,9.470098E0,2.4579232E0,-6.744177E0,7.9451525E-1,2.418868E0,-1.6004533E0,-1.1232961E0,1.2632211E-2],"categories":[],"categories_nodes":[],"categories_segments":[],"categories_sizes":[],"default_left":[0,0,0,0,0,0,0,0,0,0,0,0,0,0,0,0,0,0,0,0,0,0,0,0,0,0,0,0,0,0,0,0,0,0,0,0,0,0,0,0,0,0,0,0,0,0,0,0,0,0,0,0,0,0,0,0,0,0,0,0,0,0,0,0,0],"id":16,"left_children":[1,3,5,7,-1,9,11,13,-1,15,17,19,21,23,25,27,-1,29,31,33,35,37,39,41,43,-1,-1,45,47,49,-1,-1,51,53,55,-1,57,-1,59,61,63,-1,-1,-1,-1,-1,-1,-1,-1,-1,-1,-1,-1,-1,-1,-1,-1,-1,-1,-1,-1,-1,-1,-1,-1],"loss_changes":[5.0932245E2,1.2227872E3,4.5804062E2,5.0342807E2,0E0,1.5878254E3,7.449831E2,7.034784E2,0E0,6.296953E2,7.33282E2,1.9266611E3,1.4359264E3,3.7411505E2,2.4479187E1,1.2807832E3,0E0,1.09328636E2,9.693821E2,9.231782E2,6.820647E2,1.4918256E3,7.432378E2,2.7972076E1,3.060033E2,0E0,0E0,5.7201874E2,1.1422444E3,4.732666E0,0E0,0E0,9.2633255E1,6.349667E2,2.7315027E3,0E0,3.8590332E1,0E0,1.4464739E3,2.3604292E3,6.134671E2,0E0,0E0,0E0,0E0,0E0,0E0,0E0,0E0,0E0,0E0,0E0,0E0,0E0,0E0,0E0,0E0,0E0,0E0,0E0,0E0,0E0,0E0,0E0,0E0],"parents":[2147483647,0,0,1,1,2,2,3,3,5,5,6,6,7,7,9,9,10,10,11,11,12,12,13,13,14,14,15,15,17,17,18,18,19,19,20,20,21,21,22,22,23,23,24,24,27,27,28,28,29,29,32,32,33,33,34,34,36,36,38,38,39,39,40,40],"right_children":[2,4,6,8,-1,10,12,14,-1,16,18,20,22,24,26,28,-1,30,32,34,36,38,40,42,44,-1,-1,46,48,50,-1,-1,52,54,56,-1,58,-1,60,62,64,-1,-1,-1,-1,-1,-1,-1,-1,-1,-1,-1,-1,-1,-1,-1,-1,-1,-1,-1,-1,-1,-1,-1,-1],"split_conditions":[2.9666666E1,1.9615398E2,4.1509995E0,2.6463501E1,-6.2278237E0,1.9485867E2,6.040584E0,7.975103E1,-3.5916998E0,1.2719991E2,2.2155836E0,5.2000003E0,6.2676673E0,1.7192667E1,3E-1,1.0390226E1,-6.0384793E0,1.0105681E1,1.1681987E1,5.8510003E0,4.9509997E0,8.913181E0,7.3635006E0,1E-1,1.0823973E1,1.7810189E0,5.3099313E0,1.24666664E2,1.0594036E1,1E-1,9.840294E-1,5.7693925E0,1.2475961E1,4.351E0,6.724895E1,-2.1745378E-1,8.2E0,-7.911286E0,9.7333336E1,1.1841756E1,7.948917E0,-6.885481E-1,-3.5267267E0,-1.3837208E0,2.9586618E0,3.1132233E0,-1.482803E0,-7.148159E0,-1.5589918E0,-8.3973855E-1,-2.4776723E0,-1.58863E0,1.0988091E0,1.8802308E0,-2.7644616E-1,4.9429674E0,-3.5110219E0,9.470098E0,2.4579232E0,-6.744177E0,7.9451525E-1,2.418868E0,-1.6004533E0,-1.1232961E0,1.2632211E-2],"split_indices":[4,3,0,0,0,3,0,3,0,3,0,1,0,0,1,2,0,2,2,0,0,2,0,1,2,0,0,4,2,1,0,0,2,0,3,0,1,0,4,2,0,0,0,0,0,0,0,0,0,0,0,0,0,0,0,0,0,0,0,0,0,0,0,0,0],"split_type":[0,0,0,0,0,0,0,0,0,0,0,0,0,0,0,0,0,0,0,0,0,0,0,0,0,0,0,0,0,0,0,0,0,0,0,0,0,0,0,0,0,0,0,0,0,0,0,0,0,0,0,0,0,0,0,0,0,0,0,0,0,0,0,0,0],"sum_hessian":[1.834E3,1.5E1,1.819E3,1.2E1,3E0,5.1E1,1.768E3,1E1,2E0,3.9E1,1.2E1,1E2,1.668E3,7E0,3E0,3.7E1,2E0,4E0,8E0,9.6E1,4E0,1.4E1,1.654E3,3E0,4E0,2E0,1E0,9E0,2.8E1,3E0,1E0,5E0,3E0,8.1E1,1.5E1,1E0,3E0,3E0,1.1E1,5.7E1,1.597E3,1E0,2E0,2E0,2E0,6E0,3E0,3E0,2.5E1,2E0,1E0,2E0,1E0,1.4E1,6.7E1,1.1E1,4E0,2E0,1E0,2E0,9E0,3.8E1,1.9E1,4.3E1,1.554E3],"tree_param":{"num_deleted":"0","num_feature":"5","num_nodes":"65","size_leaf_vector":"1"}},{"base_weights":[-7.0337974E-3,8.036558E-3,-4.1469097E0,-1.9584286E-1,9.482266E-1,-1.8052816E-2,-1.0329182E1,8.293307E0,-4.6259202E-2,-7.3659025E-2,1.0243549E1,2.233741E0,-1.3426722E1,1.0931767E1,-1.716198E0,-1.1794829E1,4.1711184E-1,9.7513385E-2,-4.2602105E0,1.6331024E1,-5.3459153E0,-1.3741691E0,3.1724703E0,-1.825756E1,-1.1568205E0,3.1063418E0,2.0212187E1,-4.413335E0,1.162196E1,-1.9054304E1,-2.5695488E0,-5.3721313E0,1.2155557E0,-2.0474617E0,5.140454E-2,-1.9095137E0,3.5952926E0,6.4260697E0,1.2305222E0,-2.3786225E0,-2.703953E-2,-6.416657E0,4.191689E-1,4.017571E0,-1.7440776E0,3.188112E0,-1.191876E0,-1.5954385E0,7.4731255E0,6.0158315E0,-2.0485117E-1,-6.6205215E-1,-6.594729E0,-1.4463627E0,1.3033128E0,-3.3666823E0,3.4144336E-1,2.6944447E0,2.2311495E-1],"categories":[],"categories_nodes":[],"categories_segments":[],"categories_sizes":[],"default_left":[0,0,0,0,0,0,0,0,0,0,0,0,0,0,0,0,0,0,0,0,0,0,0,0,0,0,0,0,0,0,0,0,0,0,0,0,0,0,0,0,0,0,0,0,0,0,0,0,0,0,0,0,0,0,0,0,0,0,0],"id":17,"left_children":[1,3,-1,5,7,9,11,13,15,17,19,21,23,25,27,29,31,33,35,37,39,-1,-1,41,43,45,47,-1,49,51,53,55,57,-1,-1,-1,-1,-1,-1,-1,-1,-1,-1,-1,-1,-1,-1,-1,-1,-1,-1,-1,-1,-1,-1,-1,-1,-1,-1],"loss_changes":[3.8218008E2,3.5173672E2,0E0,2.7166367E3,2.388981E3,8.4696735E2,1.0417598E3,1.0487385E3,1.5782206E3,1.0581497E3,8.46508E2,3.894742E2,1.2236318E3,2.1885344E3,1.7309264E3,6.877167E2,1.2961757E3,7.2644147E2,2.0594185E3,2.8556384E2,4.000969E1,0E0,0E0,9.530591E2,5.521056E2,1.0005582E3,1.8117393E3,0E0,5.323898E2,2.4747705E2,1.14351974E2,1.3076978E3,8.947302E2,0E0,0E0,0E0,0E0,0E0,0E0,0E0,0E0,0E0,0E0,0E0,0E0,0E0,0E0,0E0,0E0,0E0,0E0,0E0,0E0,0E0,0E0,0E0,0E0,0E0,0E0],"parents":[2147483647,0,0,1,1,3,3,4,4,5,5,6,6,7,7,8,8,9,9,10,10,11,11,12,12,13,13,14,14,15,15,16,16,17,17,18,18,19,19,20,20,23,23,24,24,25,25,26,26,28,28,29,29,30,30,31,31,32,32],"right_children":[2,4,-1,6,8,10,12,14,16,18,20,22,24,26,28,30,32,34,36,38,40,-1,-1,42,44,46,48,-1,50,52,54,56,58,-1,-1,-1,-1,-1,-1,-1,-1,-1,-1,-1,-1,-1,-1,-1,-1,-1,-1,-1,-1,-1,-1,-1,-1,-1,-1],"split_conditions":[3.4669514E1,4.2E0,-4.1469097E0,3.8000002E0,4.9E0,2.3617756E1,8.427383E0,1.7843066E2,5.1000004E0,1.9826164E1,2.1711416E1,6.1333332E1,4.1E0,3.329424E1,2.5347037E2,2.09385E1,9.726664E0,6.379216E0,2.5999994E0,2.4863466E1,2.2621834E1,-1.3741691E0,3.1724703E0,2.7561417E1,5.9E1,4.3E0,9.021574E0,-4.413335E0,1.3044722E1,7.10031E0,2.7176E1,1.4011736E2,1.0239453E1,-2.0474617E0,5.140454E-2,-1.9095137E0,3.5952926E0,6.4260697E0,1.2305222E0,-2.3786225E0,-2.703953E-2,-6.416657E0,4.191689E-1,4.017571E0,-1.7440776E0,3.188112E0,-1.191876E0,-1.5954385E0,7.4731255E0,6.0158315E0,-2.0485117E-1,-6.6205215E-1,-6.594729E0,-1.4463627E0,1.3033128E0,-3.3666823E0,3.4144336E-1,2.6944447E0,2.2311495E-1],"split_indices":[2,1,0,1,1,2,2,3,1,2,0,4,1,3,3,0,2,2,1,2,0,0,0,0,4,1,2,0,2,2,0,3,2,0,0,0,0,0,0,0,0,0,0,0,0,0,0,0,0,0,0,0,0,0,0,0,0,0,0],"split_type":[0,0,0,0,0,0,0,0,0,0,0,0,0,0,0,0,0,0,0,0,0,0,0,0,0,0,0,0,0,0,0,0,0,0,0,0,0,0,0,0,0,0,0,0,0,0,0,0,0,0,0,0,0,0,0,0,0,0,0],"sum_hessian":[1.834E3,1.833E3,1E0,1.507E3,3.26E2,1.482E3,2.5E1,3.8E1,2.88E2,1.475E3,7E0,5E0,2E1,3E1,8E0,1E1,2.78E2,1.418E3,5.7E1,5E0,2E0,3E0,2E0,1.4E1,6E0,1.7E1,1.3E1,4E0,4E0,5E0,5E0,3.3E1,2.45E2,1.4E1,1.404E3,5.1E1,6E0,3E0,2E0,1E0,1E0,1.2E1,2E0,1E0,5E0,8E0,9E0,2E0,1.1E1,2E0,2E0,1E0,4E0,4E0,1E0,1.7E1,1.6E1,1.3E1,2.32E2],"tree_param":{"num_deleted":"0","num_feature":"5","num_nodes":"59","size_leaf_vector":"1"}},{"base_weights":[-4.5803776E-3,3.8506616E-2,-4.6146193E0,-9.908416E-3,5.8618817E0,-1.4736211E0,-1.185829E1,-2.8143713E-1,9.507004E-1,-1.9838638E0,8.895231E0,1.3096558E0,-2.4190226E0,-4.0388436E0,-8.1603074E-1,9.808492E-2,-3.9204497E0,6.708124E0,-1.7260267E-1,-9.960354E-1,1.3678233E-2,1.2169744E1,-3.893383E0,5.2627125E0,-1.1363275E0,-7.6605536E-2,3.3538811E0,2.6368146E0,-5.694166E0,2.0307524E0,1.0419597E1,-7.8255215E0,5.5323803E-1,-3.4617808E-2,4.077301E-2,1.347939E0,5.223723E0,4.192194E-1,-2.1712418E0,3.712944E-1,1.8575554E0,-3.466383E0,1.4778099E0,-4.5368698E-1,1.3335632E-1,-7.7590875E-2,3.6340764E0,2.7136145E0,-1.462682E0,-6.3664246E-1,